-0.444467,0.365253,-0.319728,0.166569,-0.265805,-0.256681,0.234650,0.254577,-0.190224,0.333493,-0.298150,0.195729,-0.006353,-0.349157,0.254400,0.637351,0.235197,-0.099814,-0.152327,-0.342563,0.064702,-0.354859,0.391865,-0.399642,0.488391,-0.452657,0.482562,-0.324256,0.036881,0.396263,-0.385561,-0.319861,0.538871,0.444480,0.219518,0.457808,-0.310598,0.298242,-0.042817,0.084511,0.174779,-0.346251,-0.110261,0.159215,0.017440,0.121180,-0.157591,-0.286368,0.414032,-0.473070,-0.156063,0.176845,-0.300620,-0.301871,-0.252814,-0.117630,0.176061,0.335793,0.384863,-0.237242,0.012603,0.338797,-0.126471,0.018456,0.537204,0.376892,-0.636136,0.274976,-0.007633,-0.096611,0.110406,0.415164,-0.163147,-0.112748,0.089663,-0.082519,0.009080,-0.404187,0.229622,-0.214128,0.387631,-0.189827,0.131701,-0.264326,-0.422373,-0.126178,-0.244428,-0.070119,0.027261,0.312939,-0.446878,0.149991,-0.394208,-0.394105,0.452906,0.467415,0.075831,-0.163852,-0.175089,0.359332,0.658886,0.051710,0.036293,-0.030271,-0.008372,-0.170727,-0.379859,-0.363657,0.009057,-0.408583,-0.247578,0.029307,0.203028,0.427627,-0.051473,-0.090293,0.580967,-0.104646,0.465479,0.572799,0.286218,0.461889,0.607482,0.183439,0.524170,0.344694,0.026258,-0.381051,-0.154049,-0.114526,0.254118,-0.304656,-0.322741,0.163859,0.311253,-0.194633,-0.342955,0.130430,-0.306186,-0.230383,0.067027,-0.396044,0.392440,-0.179227,-0.085809,0.123967,-0.326891,-0.609227,-0.017752,0.338735,0.547006,0.324912,-0.389955,0.038899,0.243173,0.400432,-0.054047,-0.083360,0.005825,-0.373254,-0.220661,-0.367760,-0.366767,0.309006,0.049484,-0.102020,-0.157197,0.256982,-0.209501,-0.256532,0.095436,-0.000747,0.404162,0.097686,0.437988,0.449446,-0.149821,-0.008935,-0.039301,-0.192634,0.009567,-0.215290,-0.171089,-0.139918,0.358034,-0.214647,0.338705,-0.085996,-0.287497,-0.221829,-0.043792,0.386883,-0.452016,-0.387168,-0.484403,0.405725,-0.041407,0.057042,-0.292057,0.574948,-0.402340,-0.183988,0.227042,0.312862,0.295447,0.316669,0.365966,0.206423,-0.078193,0.348719,-0.383006,0.095877,0.168387,0.369092,-0.045444,0.121687,-0.032837,0.432788,-0.293542,-0.140732,0.448426,-0.194177,-0.192469,-0.032408,0.401156,-0.556827,0.097503,0.103390,0.318846,-0.072736,0.359239,-0.247565,0.230119,0.290133,0.286914,0.430900,-0.230526,0.313953,0.148330,0.393349,0.221727,-0.310598,0.306867,0.040176,-0.213381,0.309382,0.060019,0.205104,-0.005029,-0.193614,0.341678,-0.077635,-0.299709,0.111586,-0.308346,-0.289057
0.134926,0.578027,0.387805,0.124889,0.055176,-0.149533,0.131171,-0.250347,-0.306154,-0.224185,0.529290,-0.377222,-0.170456,0.257006,0.505096,0.149601,-0.067671,-0.086834,-0.209314,0.177636,0.363047,0.368159,-0.103019,0.153235,0.407135,0.343634,-0.356288,0.533105,-0.179933,-0.387034,0.444399,0.279487,-0.273264,0.283399,0.081927,0.153309,0.021619,-0.472991,-0.287711,0.614771,0.012182,0.264649,0.136593,0.071930,0.189796,-0.200330,0.009692,-0.196165,0.428608,0.038634,0.242906,-0.001436,-0.226208,-0.275812,-0.432810,0.440644,-0.330166,0.214604,0.337200,-0.424936,0.296703,-0.460945,-0.466767,0.221356,-0.081183,0.438855,-0.321435,0.188415,0.339995,0.380913,0.283575,0.216078,-0.111763,0.464106,-0.449102,-0.356665,-0.024369,-0.424521,-0.141067,-0.452991,-0.033834,-0.254796,0.137952,0.553937,0.209764,-0.489021,-0.177502,-0.284519,0.030142,0.315303,0.007719,-0.345522,0.196685,0.172868,0.247397,0.217205,0.334918,-0.012422,-0.409039,0.286020,0.186188,-0.265692,-0.114846,-0.441144,0.270399,-0.251248,-0.215668,0.155780,-0.127544,0.265783,0.054566,0.348829,-0.015902,-0.085760,-0.152382,0.396893,0.397316,0.407830,0.078770,-0.249769,0.363256,-0.191279,0.036610,0.343461,-0.391299,0.259818,0.373670,-0.190744,-0.132570,-0.164899,0.305150,-0.233038,-0.097348,-0.462213,0.090078,0.256509,-0.298709,-0.252506,-0.185976,-0.030814,-0.148422,0.630627,-0.067645,-0.054866,-0.160680,-0.144394,0.207050,0.196794,0.249261,0.235174,-0.331926,-0.314376,0.566382,0.474743,-0.001231,0.158399,0.157491,-0.227086,0.058733,-0.308314,0.118430,-0.069022,-0.135147,-0.010809,0.295482,-0.393537,0.526603,-0.152095,-0.289803,0.024768,0.152325,0.668062,0.013522,-0.026932,-0.223470,-0.259095,-0.225435,0.582671,-0.480737,-0.079490,-0.369470,0.389792,-0.217811,0.161041,0.149031,0.166283,0.135823,-0.095809,0.116795,0.597718,-0.205929,-0.414804,-0.384049,0.016231,-0.277255,0.060156,0.385597,-0.189818,-0.266163,0.055742,-0.131587,0.588197,0.168889,0.315495,0.064688,-0.163548,-0.035797,-0.488475,0.071899,0.473056,-0.157341,-0.475697,-0.161664,0.227684,0.294941,-0.656449,0.029808,-0.493409,-0.554244,-0.460012,-0.293410,0.149072,-0.196657,-0.012367,-0.193433,-0.287439,0.481797,-0.170819,-0.339988,-0.419343,0.025141,-0.185983,-0.729947,0.039092,-0.618595,-0.609118,-0.098090,0.089859,0.119971,-0.595039,0.107330,-0.356800,-0.387459,0.145743,0.492555,-0.170929,0.082944,-0.314991,0.046939,0.451657,0.418602,-0.354372,-0.044088,0.023315,-0.016706,-0.054978
0.210908,-0.435848,-0.071881,0.042739,-0.182431,-0.529171,-0.528768,0.058682,-0.128129,-0.016736,0.215368,0.221250,0.376730,-0.116007,0.805349,0.071897,-0.044413,-0.045370,0.185285,0.351824,0.130409,0.099634,-0.173330,0.274049,-0.376065,-0.038331,-0.371271,-0.021141,0.152552,-0.390481,-0.232775,-0.009581,0.305489,-0.239670,-0.551669,0.357503,-0.249356,-0.147302,0.285325,-0.058230,0.027645,-0.438536,-0.317898,0.087637,0.273808,-0.201314,-0.406233,-0.261838,-0.019516,0.410658,-0.290978,-0.292998,0.012722,-0.144554,0.212288,-0.428152,0.170119,0.397993,-0.523928,0.044583,0.186257,0.017147,0.059695,-0.555089,0.028363,0.234605,0.220046,-0.191073,-0.174298,-0.058636,0.277720,-0.013677,-0.551032,-0.305217,0.118728,-0.584406,-0.414710,-0.467276,-0.412519,0.147956,0.510283,0.089635,0.319716,0.212715,-0.291062,-0.313797,0.241715,0.029127,0.144609,0.253891,-0.155054,-0.518713,0.359979,-0.184819,0.312104,-0.004929,-0.165689,0.498450,-0.265183,-0.020160,0.161105,0.030885,0.382152,-0.516646,0.283967,0.007298,-0.361908,-0.199351,-0.521113,0.084112,0.228528,-0.234848,-0.120475,0.470543,-0.170674,-0.478047,0.298560,0.342472,-0.404094,0.238859,-0.312958,-0.264905,0.103601,0.128937,0.273127,-0.219294,-0.266591,0.301521,0.274159,-0.113538,0.311625,-0.272315,0.149150,0.226374,-0.176151,-0.653416,-0.560041,-0.104817,-0.413832,-0.436634,0.450185,-0.401405,-0.025904,-0.305445,-0.104099,0.244916,0.218503,0.330541,0.486825,0.125241,-0.196032,-0.393881,-0.158578,0.213332,0.182584,-0.600579,0.252059,-0.416769,-0.008328,0.142444,0.100878,0.325371,-0.112310,-0.054783,0.004160,-0.419025,-0.145586,-0.167176,0.292511,-0.108943,0.276389,0.109018,0.134889,0.004723,0.069448,-0.333578,-0.012201,0.367400,0.215535,0.268045,-0.223575,0.026323,-0.100561,0.019159,-0.151814,0.383481,0.569617,-0.283507,-0.052360,-0.280141,0.341879,0.419080,0.182382,0.524925,-0.173061,0.327159,-0.064974,-0.001564,-0.325529,0.021129,0.468185,0.699534,-0.022253,0.543248,0.429255,0.492734,0.296533,-0.385643,0.224437,-0.351768,0.422257,0.077760,0.409051,0.350741,-0.050776,0.197850,0.462292,0.070821,-0.061969,-0.036057,0.171202,0.248029,0.285893,0.349783,-0.208230,-0.338038,0.235384,0.129614,0.486325,-0.198761,-0.030500,-0.235694,-0.231981,0.512048,-0.273035,0.327290,0.199389,0.302722,-0.138388,-0.092568,0.336554,-0.511122,0.123319,0.506532,0.354974,0.617818,0.578998,0.441362,-0.236199,0.202238,-0.190646,0.070705,-0.074339,0.448605,-0.078497,-0.034469
0.577832,0.190066,0.116078,0.528980,-0.439436,0.279766,-0.253620,-0.045109,-0.303287,-0.052263,-0.247314,-0.139058,-0.486205,0.030764,-0.417681,-0.000413,-0.039475,0.197563,-0.273436,0.350797,-0.421306,0.518981,0.101792,0.488952,0.180334,-0.056431,0.471222,-0.110270,-0.047384,0.133006,0.329152,-0.234670,0.286666,0.283668,-0.265505,0.209192,-0.246319,-0.368981,0.204238,-0.238664,-0.129813,0.337515,0.284265,-0.104570,-0.251006,0.243147,0.490946,0.005683,0.059349,0.177847,0.241314,0.219167,0.053100,-0.232770,-0.027482,0.548033,-0.021200,-0.076368,0.222001,0.188489,0.141202,-0.382152,0.337278,0.391579,-0.087228,0.390687,-0.218836,0.440604,0.420822,-0.042389,-0.108396,0.349326,0.034398,-0.241519,0.470564,-0.055127,-0.187189,-0.220034,0.388289,0.100450,0.218845,-0.035664,0.082609,0.072551,0.045457,0.201493,-0.274897,0.177558,0.228132,0.485778,0.204585,0.444948,-0.010276,0.052835,0.190918,-0.135066,-0.034941,0.190682,-0.040203,-0.327474,0.435277,0.077755,0.022945,0.183845,0.513795,-0.215416,-0.322825,-0.123732,-0.016806,0.357733,0.266537,-0.262509,0.453103,0.202096,-0.177024,0.299006,0.046751,0.310351,-0.471532,-0.098319,-0.235622,0.063711,0.572372,0.141081,-0.240057,-0.138202,0.023644,0.210032,0.288180,0.023896,-0.464481,0.448130,0.083389,0.364734,-0.359351,-0.117315,-0.143724,-0.113696,-0.410540,0.285747,0.206500,-0.434128,-0.129916,0.539900,-0.341441,0.348812,-0.152390,-0.121146,0.062286,0.486096,0.493498,0.265344,0.097459,0.557130,0.012931,-0.217374,-0.283812,-0.441009,0.283427,-0.043556,0.163923,0.195179,0.321292,0.036020,0.518639,-0.400083,0.216895,0.205475,-0.004267,0.135961,0.031937,-0.089920,-0.119824,0.226036,0.367056,0.487883,-0.269226,0.008922,0.324250,-0.115324,-0.406647,0.416505,0.354209,0.487802,0.574181,0.043843,0.188879,0.351626,0.008239,-0.287927,0.318505,0.234468,0.442867,-0.258556,0.459319,0.218185,0.052899,0.103044,-0.016748,-0.204097,0.057313,0.280920,-0.019676,0.386716,0.441708,-0.413435,-0.353846,-0.270245,-0.021404,0.024693,0.141694,-0.407891,0.062930,-0.341656,-0.198850,-0.315796,0.357735,0.062251,0.425887,0.321621,0.452259,-0.257473,0.037430,0.385860,-0.000191,0.460663,0.397206,-0.384971,-0.059211,0.125824,0.095899,-0.138027,-0.485231,-0.212482,-0.180423,0.193891,0.235120,-0.252906,0.361421,-0.075106,-0.284121,0.465826,0.285990,-0.391378,0.245895,0.387415,-0.193038,-0.210695,0.523965,-0.087851,-0.151107,0.232200,-0.157721,0.278768,0.229188,-0.215654
0.056498,0.081269,-0.143328,-0.347518,-0.509027,-0.385281,0.118671,-0.364648,0.356770,0.205933,0.543361,-0.031750,0.364033,0.334780,-0.344538,-0.197978,-0.007831,-0.093150,0.407682,-0.166690,0.368144,-0.395455,-0.218703,-0.388870,0.117687,0.169023,0.358261,0.014624,0.187671,-0.181002,0.436430,0.023469,-0.175052,0.382176,-0.207401,-0.538780,0.292702,-0.107378,-0.088300,0.109520,-0.012344,-0.334189,-0.538115,0.396855,-0.144756,0.230988,-0.123393,0.323090,0.131154,-0.047097,-0.606521,0.272280,-0.286901,-0.185507,-0.386172,0.249986,0.041920,0.011619,-0.272725,-0.534675,-0.343938,0.062292,0.018173,0.102022,-0.299260,0.078355,0.348530,-0.105997,-0.405443,-0.552435,0.164536,0.158967,-0.028539,-0.599224,-0.198595,-0.193031,-0.372698,-0.390296,-0.395343,-0.456145,-0.126332,-0.094521,0.062918,-0.500723,-0.109315,-0.550613,0.322032,-0.244780,-0.174477,0.336934,-0.212552,-0.261773,-0.129407,-0.165703,0.007851,0.225588,-0.276887,0.254471,0.413441,-0.167121,-0.451230,-0.154505,-0.121300,0.271570,-0.093504,-0.346980,0.146781,-0.208099,0.370481,0.344030,-0.296957,-0.165720,-0.168340,-0.044170,0.358804,-0.487555,0.321034,0.180578,-0.033533,-0.068385,-0.191680,0.127322,-0.418241,-0.184456,-0.067141,-0.189470,-0.399857,0.370705,0.282052,-0.223344,-0.550804,0.096573,0.052135,-0.644520,0.182825,-0.128343,0.539382,-0.239859,-0.384234,-0.182986,-0.360821,0.315902,-0.119620,-0.149043,-0.207201,0.067519,-0.291637,-0.076668,0.163338,0.483005,0.104400,-0.007387,-0.415962,-0.390510,-0.263663,-0.415876,0.055303,0.012959,0.011053,-0.286224,0.282507,-0.054495,-0.389404,0.012418,-0.394696,-0.253576,-0.442052,-0.344928,-0.030031,-0.583332,-0.452735,0.343191,-0.310191,0.290977,0.349504,-0.454616,0.052405,-0.421960,-0.179108,0.562170,0.087947,-0.046746,-0.169596,-0.513611,-0.438722,0.132996,-0.200536,0.321982,-0.450933,0.258243,-0.350396,-0.059955,0.079343,-0.245409,-0.250020,0.402995,0.327820,-0.502214,-0.314297,-0.436527,0.203840,0.116026,-0.358676,-0.021581,-0.402492,-0.471077,-0.115919,0.143406,-0.505907,-0.112080,0.187187,-0.300149,0.170493,-0.575394,0.280522,-0.023341,0.348259,-0.188494,-0.385444,-0.268145,-0.167471,-0.223751,0.299361,0.295080,0.215677,-0.401080,-0.369825,-0.050656,0.475266,-0.304056,0.073774,0.422448,-0.261582,-0.388906,-0.147338,0.363450,0.459313,-0.047840,-0.190616,-0.554249,-0.351955,-0.225000,-0.431970,-0.089165,0.185749,-0.207170,-0.466007,0.017356,0.089308,-0.035550,-0.048917,-0.412779,-0.087046,-0.091594,-0.119549,-0.067737
0.451333,0.022465,-0.299371,0.440973,0.114104,-0.089306,0.406351,0.380228,0.455101,0.210942,-0.410954,-0.556004,0.275607,-0.200294,-0.584415,-0.251754,0.383349,-0.180313,0.079462,-0.431846,-0.345824,0.298053,-0.165343,-0.314210,0.378870,0.501045,-0.284063,0.106286,-0.294057,-0.252223,0.290040,-0.329782,0.504533,0.318119,0.125756,0.037760,-0.540557,0.009697,0.317660,-0.372179,0.473630,-0.094460,0.133641,0.265886,0.439999,0.067719,0.360242,0.539056,-0.044339,-0.594388,-0.471869,-0.122694,-0.353661,-0.334128,0.293924,0.576343,0.529273,-0.167985,0.075188,0.247075,0.577748,0.295455,-0.371477,-0.047349,0.141267,-0.556495,-0.008108,-0.410724,-0.250963,0.284749,0.263291,-0.123682,-0.171300,0.424128,0.121848,-0.388818,-0.305013,-0.101439,0.370902,-0.018944,-0.194587,-0.032328,-0.170656,-0.047879,-0.440132,0.189931,0.280701,0.042361,0.767826,0.270424,0.429468,-0.323664,-0.543535,-0.379378,0.522927,0.561080,0.205954,0.065235,0.058176,-0.346613,0.009895,0.348384,0.553880,0.289321,0.487013,-0.293932,-0.508508,-0.004433,-0.250256,-0.073361,0.571901,-0.335784,0.266453,-0.069161,-0.237231,0.210703,0.172676,0.379287,0.382831,0.596032,0.288083,-0.328882,-0.336986,0.273657,0.277974,-0.219662,0.035036,0.518474,0.210930,-0.293204,0.324610,-0.447490,0.056916,-0.107312,-0.024156,-0.416168,-0.159695,0.001727,-0.291752,0.111629,0.418157,0.270125,0.264023,-0.062744,-0.251110,0.271838,0.099615,0.146408,0.076247,0.072809,-0.437098,0.183430,0.131945,0.049864,-0.142401,0.257949,0.523377,-0.153538,0.824151,-0.032353,-0.229914,0.546082,0.123692,-0.496272,0.287863,0.404512,-0.393127,-0.079232,-0.236880,-0.515840,0.455429,0.437917,0.152220,0.348430,0.029877,0.415469,0.151991,0.449424,0.322122,0.136884,-0.397229,-0.270629,0.417402,-0.218763,-0.078399,0.461308,0.108133,0.024051,-0.413596,0.027387,-0.341394,-0.064539,0.334342,0.486959,0.276615,0.356457,0.074352,0.103845,-0.032439,0.496584,0.438631,0.468222,-0.166563,-0.086725,-0.024181,0.279322,0.281103,-0.240978,0.080549,-0.370788,-0.182911,0.044237,-0.159140,-0.239647,0.427727,0.280594,0.066722,0.444548,0.206359,-0.206573,-0.183258,0.310437,0.201070,-0.160470,-0.590484,-0.585724,-0.295125,-0.165667,0.389005,0.230708,-0.403844,0.012253,-0.217245,0.034753,-0.585179,0.046791,-0.309893,0.234516,0.059952,0.290964,-0.479917,0.293216,-0.027789,0.422484,0.335613,0.363334,-0.546751,0.223804,-0.077445,0.384999,-0.132033,-0.516167,-0.251969,-0.434166,-0.230756,0.091387
0.116202,0.425233,-0.368406,-0.045443,-0.035298,0.156166,0.231744,0.421826,0.539805,-0.063002,-0.022876,-0.248208,-0.322747,-0.111999,-0.209455,-0.497064,-0.167234,0.502590,0.309271,-0.237363,0.543065,-0.461570,-0.266471,-0.262395,-0.317215,0.317146,-0.457271,0.516643,0.272116,-0.053302,-0.025232,0.023221,0.270089,-0.235365,0.334143,-0.186554,-0.142037,-0.460790,0.314872,0.177287,0.071686,0.064891,-0.186772,-0.250304,0.001019,0.402310,0.372891,0.274555,0.353025,-0.409347,0.061681,-0.474524,0.312861,-0.389386,0.281734,0.059514,-0.106732,-0.374203,-0.105169,0.105389,0.471381,-0.154378,0.225579,0.251090,0.355157,0.090338,-0.609182,-0.483105,-0.315141,0.060215,-0.008209,-0.350396,-0.031926,0.414430,0.288270,-0.092634,-0.292470,0.146337,-0.247507,-0.281106,0.284439,0.458430,-0.300006,-0.088931,0.420990,0.358995,0.628779,-0.004109,0.004845,0.357688,0.206660,-0.211089,-0.256926,-0.508529,-0.120800,-0.350000,0.229686,-0.527669,-0.136340,0.116174,-0.242932,-0.035847,-0.369949,0.134634,-0.036666,0.004539,0.001488,0.167622,-0.343896,-0.104461,-0.224095,-0.367922,-0.386262,-0.102098,-0.153381,-0.402218,0.084703,-0.107643,-0.110278,0.363665,-0.355914,-0.354596,0.324199,-0.018372,0.600808,-0.514068,-0.430788,-0.580482,0.195590,-0.267566,0.581250,-0.266284,0.085590,0.270935,-0.151238,-0.100698,-0.147992,0.370737,-0.310810,-0.306623,0.363463,-0.268943,-0.040753,0.288129,-0.403644,0.062625,0.230306,0.313703,-0.271009,-0.035730,-0.062017,0.143396,-0.096448,0.018701,-0.233417,-0.089608,0.306460,-0.375624,-0.134475,0.179184,-0.363670,-0.183180,-0.570916,-0.546072,0.043747,0.466214,0.002577,-0.066312,0.303279,0.410358,-0.203617,-0.315030,-0.430935,-0.349667,0.026373,-0.286936,-0.430368,-0.501012,-0.377237,0.037281,-0.383933,0.264906,0.383963,0.368370,-0.494533,-0.384279,-0.214326,0.039298,0.345331,-0.111706,0.383212,0.134548,-0.012836,-0.478412,-0.263796,-0.103899,0.200566,0.122205,0.379875,0.038308,0.513012,0.535276,-0.604621,-0.284518,0.094823,0.434973,0.208967,-0.327245,0.060990,0.014775,-0.267222,0.211566,-0.025261,0.121904,0.396409,0.585280,0.502266,0.386037,-0.456541,0.423273,-0.146946,-0.198599,0.442190,-0.109660,0.281918,0.523835,-0.051317,-0.104550,0.150681,0.352214,-0.376643,0.479398,-0.050814,-0.302503,0.541085,-0.272475,0.556108,-0.006425,0.234977,0.261586,0.470051,-0.281743,0.261627,-0.353965,0.422165,0.118943,0.361614,0.097179,0.382210,0.173853,-0.379558,-0.124727,0.277825,-0.229049,0.679520,0.465320
0.193318,0.088812,-0.327898,-0.154338,-0.275310,0.290755,-0.068045,-0.189531,0.242697,0.337386,-0.081449,-0.046388,-0.019077,-0.209114,0.238342,-0.357402,-0.211771,0.327880,0.372791,0.348738,0.526506,0.348762,-0.397473,0.249031,0.244977,0.426282,-0.108040,-0.398498,0.040948,-0.001177,-0.334181,-0.107979,0.038469,-0.389548,-0.272362,0.035471,-0.130149,-0.240484,-0.021037,0.238330,-0.031740,-0.419789,-0.472653,-0.371959,-0.134901,0.387400,-0.060267,0.481590,-0.119230,-0.241566,-0.237317,-0.251980,0.103637,0.203665,-0.162757,-0.276558,-0.412855,-0.060792,0.268719,-0.070519,0.196900,-0.206636,-0.116916,-0.367347,-0.491004,-0.027629,-0.163162,-0.014814,-0.028489,0.207092,0.276206,0.071970,0.154149,0.143274,0.284823,0.262998,-0.031652,0.532098,0.114550,0.524560,-0.506074,-0.254992,-0.449508,-0.140041,-0.314155,0.045842,-0.148251,-0.304542,-0.156807,-0.182384,0.176666,-0.153735,0.324813,0.112331,0.165453,0.419559,0.413533,-0.154785,-0.336909,-0.055700,-0.500044,0.406719,0.212438,-0.436098,-0.167554,0.312460,0.321219,0.198406,-0.066852,0.482548,-0.391652,-0.176483,0.283070,-0.278852,0.053329,-0.229304,-0.073935,0.534888,0.284439,0.656464,0.054990,0.174305,0.296941,-0.156304,0.012264,0.455487,-0.193577,-0.356006,-0.130986,-0.245021,0.389792,0.093736,0.010291,0.522079,0.334307,-0.206791,-0.182654,0.211896,-0.369672,-0.005623,0.067892,-0.087582,0.185168,-0.486552,0.251125,0.264775,0.110192,0.344499,-0.074479,-0.089916,0.281376,0.176743,0.295182,0.014497,-0.320173,-0.279455,0.191804,0.058998,-0.062777,-0.513149,0.108467,0.324442,-0.193809,-0.139466,0.249083,0.124401,0.246929,-0.124438,-0.384386,-0.420813,-0.237700,-0.037340,-0.487617,0.434127,-0.525611,-0.273379,0.535253,0.159387,0.029043,0.373987,-0.237173,-0.127012,0.491634,-0.059001,0.355960,-0.139991,-0.455021,0.203954,-0.005259,-0.148426,-0.027053,-0.278765,0.247958,0.401809,0.128435,0.509203,-0.248579,0.594522,-0.264350,-0.289085,-0.218990,0.119448,0.169488,-0.238464,-0.034925,-0.249310,-0.243697,0.440952,-0.254678,0.296003,-0.156703,0.512929,0.401226,0.416164,-0.246811,0.207746,-0.180847,-0.162080,0.143864,-0.014489,-0.021525,0.533172,0.164357,0.177905,-0.436119,0.163340,-0.350214,-0.340984,0.222092,-0.148564,0.414883,-0.340812,-0.054391,0.072992,-0.400343,0.268419,0.469487,-0.139083,0.433362,0.192419,-0.487278,-0.039366,-0.345540,0.182618,-0.039333,-0.288105,-0.248908,0.072845,-0.583228,-0.127809,0.139727,0.304624,-0.372608,0.097767,-0.357919,0.454102
-0.423944,-0.378739,-0.353127,-0.286902,-0.402642,-0.547166,-0.683844,-0.327217,-0.053436,-0.366866,0.197510,-0.482391,-0.437668,-0.438760,-0.181280,-0.035178,-0.262292,-0.326490,-0.328033,0.086588,0.186621,-0.110670,0.100498,-0.014631,-0.591141,0.050498,-0.525701,-0.595254,-0.222852,-0.069862,0.448209,0.228247,-0.303623,0.046290,0.340646,-0.562308,-0.433421,0.008478,0.494719,-0.461514,0.419643,-0.210591,-0.055029,0.379328,-0.467683,-0.147222,0.173029,0.283614,0.405058,-0.047823,-0.067207,-0.059316,0.297945,-0.327018,0.117641,-0.095140,0.299021,0.453141,-0.198993,0.400042,0.004825,-0.256981,0.092913,0.219399,-0.322011,-0.362700,0.187723,-0.108368,0.312805,-0.076027,0.056688,-0.120942,0.492427,0.295761,0.568328,0.116479,-0.445582,-0.074403,0.361455,0.262241,0.582067,0.218150,0.114292,-0.372920,0.025499,0.322259,-0.348687,0.341487,0.589625,-0.017517,0.143399,0.263798,0.202955,0.333430,-0.179071,-0.350570,0.462526,0.102383,-0.344466,-0.421564,0.142605,-0.121639,0.211082,-0.079034,-0.236261,0.398481,0.287274,-0.648378,0.095449,0.084822,0.161336,-0.060184,-0.214100,0.277932,0.264455,-0.062619,-0.455557,-0.077590,0.010389,0.340352,-0.641214,-0.301318,0.415464,0.281903,-0.174708,-0.390798,0.098861,0.212313,-0.139639,-0.040623,-0.195578,-0.316972,-0.136331,-0.683931,0.057780,-0.027934,-0.227691,0.370143,0.283095,-0.156662,-0.054978,0.540845,0.416663,0.323453,-0.363106,0.125946,-0.418676,-0.149874,0.177392,-0.344241,0.195388,-0.072411,-0.185681,-0.154800,-0.119970,-0.216176,-0.376162,0.035145,0.020861,0.282215,0.142772,-0.373683,-0.391933,-0.272935,0.035878,0.047750,0.326056,0.166791,-0.177322,0.484174,0.437402,0.175094,0.313514,0.249354,-0.372073,-0.390464,-0.384156,-0.450734,-0.133151,-0.216993,-0.222078,0.265675,-0.023383,0.190028,0.247728,0.531537,0.457586,-0.300181,-0.237070,0.157025,-0.488204,0.077454,-0.234505,-0.149820,0.331543,0.121034,-0.335552,0.297598,0.486346,0.054348,-0.425332,-0.103798,-0.496301,0.188802,0.130039,0.028623,-0.056631,0.254630,0.228908,-0.369116,-0.194750,-0.181666,0.264933,0.242761,-0.369692,-0.394667,0.514221,-0.027768,-0.356019,-0.123185,-0.425374,0.068249,0.397935,-0.145494,-0.203828,0.309160,-0.043437,-0.299546,-0.494799,-0.463210,-0.598669,-0.419701,-0.357859,-0.435565,-0.494255,0.257520,-0.280254,0.094085,0.019549,0.191078,0.385023,-0.133876,0.380668,0.028309,-0.218643,-0.639468,-0.566209,-0.574943,-0.019668,-0.313406,0.063229,0.391992,-0.301963,0.530117,-0.223258,-0.305923
-0.373589,-0.003698,-0.191425,-0.236174,-0.319326,0.065108,-0.204239,0.179702,0.122108,-0.395340,0.537663,0.087206,0.307585,0.283993,0.031507,-0.633468,-0.364746,-0.514424,0.017979,0.232528,-0.417420,-0.480637,-0.154038,-0.383908,0.239672,0.000405,0.489811,-0.234394,0.124701,-0.513051,-0.173001,0.174532,-0.303331,-0.438494,-0.543457,0.245179,-0.543592,-0.167750,0.245282,-0.243577,0.262210,0.129849,-0.064711,0.195461,0.097472,0.264312,-0.085043,0.068735,0.295583,0.326600,0.101706,-0.264578,0.067643,-0.104293,-0.331080,-0.211414,-0.074534,-0.127909,-0.226825,-0.278216,0.119465,0.177218,-0.085571,0.008383,0.246523,-0.380381,-0.125985,-0.501339,-0.301784,-0.189285,0.148262,0.118801,-0.378537,-0.354294,-0.241713,0.084205,-0.204768,0.106647,0.204865,-0.458859,-0.378879,-0.133092,-0.301862,0.013519,-0.301949,-0.265232,-0.367316,0.090186,-0.071767,-0.300741,-0.368939,0.392113,-0.263504,-0.283572,-0.476245,0.153903,-0.019905,-0.259494,0.405987,-0.477890,0.238991,-0.412100,0.135107,-0.074594,0.403215,0.224237,-0.072915,0.519330,0.187838,0.072179,0.187981,-0.093584,0.319040,0.022594,-0.035163,-0.174550,0.150829,0.054211,-0.133007,-0.396878,-0.258362,-0.441188,-0.063759,-0.331958,0.324008,0.306375,-0.272510,0.230742,-0.319561,-0.066601,-0.214564,0.434123,0.086601,-0.073744,0.529187,-0.479914,-0.498408,-0.177899,-0.223319,0.386984,-0.093045,0.150663,-0.118938,-0.222132,-0.439011,-0.032817,-0.030069,-0.371044,-0.260561,-0.219377,-0.250734,0.358462,0.134704,-0.335891,-0.384365,0.259395,0.232648,-0.159906,-0.245331,-0.315345,-0.323106,-0.227562,-0.207702,0.310747,-0.359865,-0.190810,-0.179034,-0.432883,-0.260878,-0.018935,-0.323898,-0.106821,0.343213,-0.485640,-0.411860,-0.319207,-0.432765,0.166160,-0.163552,-0.247552,-0.468499,-0.319477,-0.372713,-0.560473,0.146136,-0.136241,0.213996,0.175548,0.396223,-0.312017,-0.407791,-0.550641,0.189341,0.017519,-0.291190,0.129832,-0.007854,-0.199542,-0.508919,-0.429375,-0.440991,-0.339393,-0.229897,-0.101867,-0.261886,-0.411613,0.040933,-0.290409,0.299737,-0.435168,0.184949,0.313036,0.104190,-0.049097,-0.229306,-0.384091,-0.280025,-0.260907,0.131404,-0.377598,-0.466997,-0.125092,-0.380923,0.415506,0.323791,-0.433187,0.011049,-0.291534,-0.051110,0.369497,-0.058135,0.061412,0.392151,-0.417455,0.241216,0.234920,0.300273,0.234265,0.247018,-0.430862,0.175838,-0.360118,-0.549930,0.178139,-0.515910,0.229340,-0.214327,-0.035999,-0.476682,-0.525112,0.160593,0.355854,-0.610766,-0.131308,-0.438273,-0.254289
-0.015372,-0.385303,-0.246065,0.254438,0.066652,0.049081,0.326143,0.074671,-0.297161,-0.456498,-0.540341,-0.451264,-0.538736,0.442297,-0.244142,0.114924,0.447638,-0.068796,0.196499,0.198213,-0.178331,0.000055,-0.089111,0.312789,0.130803,0.144836,-0.466443,0.351147,0.261913,-0.162896,0.011325,-0.595111,0.378703,0.116208,0.286104,-0.014087,0.012823,-0.315454,-0.258069,0.189596,0.289959,-0.303530,-0.286355,-0.269909,-0.248270,0.015461,-0.439737,0.106605,-0.322088,-0.449960,0.242333,-0.185331,0.370015,-0.233181,-0.263781,-0.216744,-0.461574,-0.227410,-0.122389,0.384795,0.251268,-0.486899,0.039958,-0.128401,0.482147,0.040044,-0.371415,0.431496,0.154171,-0.135277,-0.105178,-0.542188,0.330156,-0.164561,-0.185388,-0.208202,-0.172755,-0.480165,-0.098280,0.347976,0.268701,-0.344378,0.036805,-0.558671,-0.444884,0.243695,-0.353212,0.388049,-0.073495,-0.135744,-0.295740,-0.157694,-0.472634,-0.535020,-0.025891,0.380885,0.184178,0.263589,0.450221,0.305266,0.085773,0.010444,-0.632330,0.320903,0.104418,-0.471441,0.051588,-0.305146,-0.202581,-0.239302,0.078754,0.069213,-0.415944,0.125416,0.503422,0.300546,-0.320264,0.110564,-0.531302,-0.358133,-0.022895,-0.327436,0.063696,-0.010329,-0.065957,-0.329159,0.277909,0.241280,-0.155097,0.360917,0.466941,-0.012747,0.391421,0.094686,-0.231580,0.281093,0.182768,-0.196060,-0.445147,0.291557,0.200338,-0.304157,0.264062,-0.523569,0.127562,-0.190638,-0.105021,-0.258451,0.562381,0.580757,0.152735,0.404680,-0.523414,-0.212028,-0.365368,-0.401448,-0.018167,0.287662,-0.435527,0.189817,0.152008,0.462854,-0.046150,0.008292,0.309294,0.459898,0.082781,0.095827,0.139818,-0.099489,0.215224,0.213547,-0.166345,-0.376690,0.131413,-0.340071,0.513363,0.435904,-0.172827,-0.161900,-0.256064,-0.251278,-0.020622,-0.453420,-0.116282,-0.169960,0.021404,-0.421846,-0.429019,0.175777,0.241147,-0.324722,-0.141369,-0.006829,0.327953,0.500744,-0.459998,-0.003429,0.079389,-0.468929,0.474203,-0.262793,0.583547,0.331001,0.316155,0.130810,0.228184,0.251808,0.341478,-0.544784,0.458998,-0.237594,0.434463,0.168298,0.105433,0.211183,0.139694,-0.391700,-0.306797,-0.272420,-0.328817,-0.251278,-0.041515,0.085652,-0.018260,-0.176864,0.446372,0.141060,-0.207582,-0.267750,-0.259103,-0.433800,-0.304414,0.095305,0.177184,-0.049517,-0.400436,0.328566,0.193758,-0.004297,-0.634536,0.017053,0.071924,-0.041794,-0.228535,-0.049796,-0.404061,0.119356,-0.062407,0.297134,-0.297345,-0.162858,-0.555357,-0.311110,-0.280576,0.339258
0.326713,0.185089,0.272680,-0.576917,0.256854,-0.289704,-0.450447,-0.209459,0.334771,0.495482,-0.132107,0.528999,-0.437966,0.550858,0.586569,0.085427,0.021343,-0.427422,-0.477982,0.381477,-0.273997,0.512493,-0.168702,-0.499840,-0.293960,0.069466,-0.417935,-0.129594,-0.104116,-0.047305,0.233402,0.175204,0.041110,0.086789,-0.465963,0.236432,-0.321864,0.431048,-0.426600,0.340572,-0.448653,0.353377,-0.044445,-0.173122,-0.200027,-0.104205,-0.453239,0.040139,-0.419962,-0.364226,0.496203,0.369581,0.384465,0.301865,0.098683,-0.144209,0.106926,-0.415472,0.037635,0.215685,-0.131960,0.045822,0.303158,0.402447,0.007347,0.614467,0.555491,-0.406719,0.183640,-0.234337,-0.006660,0.453454,0.370149,-0.180747,-0.389275,0.261723,-0.268581,-0.192687,-0.347493,-0.116049,0.174576,-0.000303,0.119130,-0.332055,-0.326344,0.306374,0.570041,0.385443,-0.138791,-0.347102,-0.213952,-0.123137,0.471841,-0.172867,-0.312688,0.361944,0.342835,-0.426886,0.348320,0.009607,-0.131422,0.501700,0.267928,-0.134718,0.352435,-0.324113,-0.280481,0.404139,-0.164388,-0.356461,-0.374308,0.049528,-0.573877,-0.048923,0.134415,0.268332,0.580768,0.400185,-0.260360,-0.362896,-0.155051,-0.158761,-0.066020,-0.437863,0.284408,0.463982,0.277954,0.288035,0.334854,-0.254111,0.028885,-0.325423,0.304278,-0.420718,-0.272709,-0.388362,0.344511,-0.441031,-0.113460,0.079418,-0.274984,-0.290471,-0.233163,-0.480164,0.402802,-0.261402,-0.042176,-0.186030,-0.493140,0.114930,0.093486,0.556435,0.115377,0.284618,0.479015,0.022173,-0.426234,-0.724501,-0.270280,-0.137830,-0.209570,0.689406,-0.161865,0.125598,-0.182590,-0.560071,0.456214,-0.020895,0.113586,-0.089547,0.211999,0.490218,-0.173736,-0.081218,0.145727,0.090224,-0.157889,0.322278,-0.209655,-0.445974,-0.051865,-0.175941,-0.414648,0.358842,-0.245794,0.473052,0.405748,0.177623,0.368804,-0.347174,-0.119936,-0.118483,-0.355853,0.353057,0.250949,0.169413,0.516892,-0.071471,0.172795,0.446725,0.339098,0.105849,0.415724,-0.366950,0.276271,-0.525336,-0.467472,0.285677,0.223843,0.487610,0.198862,-0.032878,-0.013528,-0.359881,0.642319,-0.083231,-0.353078,-0.131192,0.357447,0.143574,-0.378327,-0.523754,-0.521360,0.475374,0.267400,0.355744,-0.128274,-0.403027,0.406696,-0.000084,0.400991,-0.121794,-0.200004,0.337169,-0.478174,-0.313996,-0.186296,0.242212,-0.013324,0.097793,0.025495,0.464204,0.052872,0.398200,-0.125940,-0.106686,0.312139,-0.154269,0.258802,-0.213595,0.310820,-0.065838,0.350553,0.120268,-0.122175,-0.455505
-0.486092,0.380114,-0.223663,0.317638,0.547996,-0.345400,-0.126485,-0.289464,0.273594,0.119859,0.412395,-0.146437,-0.434740,0.061817,0.137021,-0.368092,-0.486444,-0.463369,-0.291539,-0.323832,0.207562,-0.191836,-0.071874,-0.317040,0.087366,0.150568,-0.295240,-0.146781,0.082164,-0.083622,-0.242391,0.425538,0.265887,-0.476856,0.134490,-0.199590,-0.033766,0.072710,-0.127170,-0.316673,-0.094370,-0.384566,0.422005,-0.365205,0.111357,0.133043,0.569484,0.688703,-0.426159,-0.362373,-0.369142,0.112886,0.435084,-0.290227,-0.037428,-0.267973,-0.184841,0.064535,0.114707,0.652735,0.449059,0.579886,0.722152,-0.026783,-0.060734,0.210178,0.236231,-0.074031,-0.398299,0.403394,-0.332472,-0.246636,-0.150654,0.078611,-0.068808,-0.335115,0.372506,0.595353,-0.031821,0.497713,-0.029528,0.140373,-0.231135,0.012477,-0.393339,0.418067,0.311781,-0.120985,0.517063,-0.368148,-0.127139,0.538818,0.057382,0.633398,0.481071,-0.110778,0.030439,-0.369960,0.168392,-0.275188,-0.434343,0.073287,0.333330,-0.028779,0.135902,0.387908,0.032639,-0.025726,0.309229,0.092070,0.338824,0.063904,0.132061,-0.454575,-0.351027,0.160706,-0.446748,-0.484568,0.172412,-0.292334,0.208214,-0.305523,0.023022,0.017681,-0.354168,0.001030,-0.067372,0.106950,0.238802,0.087960,-0.520240,0.128869,0.438613,0.427104,0.348529,-0.315248,-0.291768,0.277947,-0.136477,0.035645,-0.289748,-0.440914,-0.211242,-0.453349,0.238448,0.271575,0.150393,-0.521768,0.033186,-0.555028,-0.290499,-0.440868,-0.198342,0.160681,0.021440,-0.508996,-0.345226,0.384459,0.088900,-0.325471,-0.043499,0.369196,0.272960,0.193850,-0.096834,0.121496,-0.064916,-0.046039,-0.337991,0.466792,-0.513335,-0.027384,0.328146,-0.332019,0.224462,0.204405,-0.188537,0.120240,-0.106332,0.293946,-0.405643,0.023269,0.189935,-0.410023,0.016478,-0.010947,-0.441385,0.396813,-0.071513,-0.473501,0.470742,-0.163101,0.371964,-0.350237,0.238629,-0.238268,-0.104071,-0.164921,-0.509676,0.193783,-0.573902,0.375945,0.102889,-0.197204,0.230811,-0.172887,0.514772,-0.326633,0.318339,0.164538,-0.160818,-0.165303,0.572685,-0.029714,-0.309377,-0.118913,0.411246,-0.151464,-0.163986,-0.006871,-0.180275,0.425328,0.178609,0.338238,-0.445888,-0.315321,0.204837,-0.304051,0.440659,-0.109519,-0.108487,-0.339009,0.328613,0.077851,0.489045,0.324131,-0.089068,0.417716,-0.186600,0.232536,-0.233453,-0.374930,0.315692,-0.119048,-0.363642,0.229073,-0.301350,-0.199654,-0.111340,0.153422,-0.275246,-0.072817,-0.027745,0.168731,0.126810,0.047719
0.052001,-0.368916,-0.096038,-0.035360,0.358863,0.292641,0.149077,-0.450178,0.208272,-0.041686,0.104577,-0.008890,0.250979,-0.360160,-0.107138,0.254249,0.151483,0.260913,-0.359947,-0.523337,-0.441806,0.002801,0.276474,0.075132,-0.198527,0.464744,0.403860,-0.126545,-0.282931,-0.162438,-0.152281,-0.325146,-0.125836,-0.053729,0.098060,-0.233692,-0.154972,-0.056896,0.376077,-0.348018,0.378674,0.020355,0.416807,0.349548,-0.314989,-0.399898,-0.000478,-0.547616,-0.543420,0.093284,-0.304649,-0.348580,-0.701756,-0.329246,-0.212639,0.265522,0.303542,-0.162711,-0.187069,0.047785,-0.029117,-0.452487,-0.213077,0.374622,-0.385162,-0.235788,0.076579,-0.456246,0.124370,0.102883,-0.155227,-0.204107,-0.252556,0.105071,-0.364387,0.178038,-0.181827,0.184935,0.281790,-0.477963,-0.510102,-0.338987,-0.084138,-0.245182,-0.169037,-0.110480,-0.331133,-0.576431,-0.538921,-0.710351,0.191137,-0.442050,-0.001519,-0.437869,-0.265210,0.196672,0.356221,0.187434,0.032827,0.112075,-0.125056,-0.302846,-0.424473,-0.763607,-0.396299,-0.313967,0.323054,-0.221993,0.331445,-0.412559,0.176600,0.234781,0.510057,-0.127765,0.241650,-0.373800,0.348501,0.060141,0.105115,-0.676437,-0.243517,-0.141322,0.378884,0.031746,-0.148675,0.169053,0.029055,0.251291,0.453286,0.368185,0.244265,-0.312338,-0.104400,-0.106313,0.201163,-0.063685,0.353059,-0.298256,0.345682,-0.117194,-0.109083,0.590068,0.223291,0.104931,-0.009595,-0.363673,0.005772,-0.449535,0.243709,-0.048186,-0.278774,-0.325601,-0.190275,-0.519888,-0.318363,-0.256209,0.575961,-0.167787,-0.144888,-0.071621,-0.429022,-0.221193,-0.246488,-0.145401,0.265036,-0.203224,-0.145843,-0.103210,0.019132,-0.569184,0.510299,-0.132040,-0.172118,0.389511,-0.104822,0.299398,0.057418,-0.495447,0.383745,0.563995,0.336844,0.186290,-0.319483,0.274587,-0.004152,-0.295957,-0.077981,0.616481,-0.105922,0.358929,-0.099549,-0.436312,-0.298492,-0.474115,-0.460048,-0.334226,0.190539,-0.024976,0.132762,0.096200,0.127659,0.508408,-0.022143,0.291787,0.527697,0.162223,-0.195026,0.509215,0.270214,0.249069,-0.484445,-0.130411,0.282146,0.227057,0.075896,-0.006168,-0.409876,0.493715,-0.289060,-0.254444,-0.194214,0.507021,0.449019,0.486653,-0.170595,0.208526,0.171743,0.448192,0.298772,0.128981,-0.127200,-0.185686,-0.226178,0.394278,-0.428510,0.492526,0.283053,0.047505,0.347590,-0.444159,0.120531,-0.333522,0.088374,-0.277026,0.384627,0.277983,-0.563780,0.036961,-0.212611,-0.262909,-0.234783,-0.038413,0.220600,-0.012467,0.105429,-0.074164
-0.036257,0.275903,0.343153,-0.146131,-0.234211,-0.234944,0.385435,-0.563161,-0.355264,-0.354706,-0.200932,0.315628,-0.446889,-0.022675,-0.268806,-0.279359,-0.470095,0.203615,-0.251178,-0.240441,0.539793,0.432552,-0.416968,-0.184509,-0.017355,0.431590,-0.336868,0.372934,-0.361022,0.416027,0.608895,0.427262,-0.472272,-0.041678,-0.160483,-0.585930,-0.504100,-0.538357,-0.460739,0.338553,-0.109008,-0.346876,0.423929,0.063174,-0.318803,0.235939,-0.255398,0.282084,-0.393159,-0.587439,0.077930,-0.387440,-0.030555,-0.018000,-0.389161,-0.273718,0.003861,0.348903,-0.125145,-0.173155,0.163060,-0.178633,-0.004649,0.265641,0.192791,0.157349,-0.469591,-0.049294,-0.783594,0.304555,-0.149250,-0.048228,0.066325,0.103097,0.512223,-0.480890,0.092190,-0.316243,-0.342649,0.134951,-0.121179,0.375702,0.069440,-0.159345,-0.421644,0.176940,-0.036311,0.171557,0.140223,0.108803,-0.188054,0.447799,0.352956,0.475139,0.476614,0.475354,-0.205687,0.182203,0.066572,-0.333842,0.005832,-0.202711,0.181745,0.292568,-0.367706,0.395191,-0.222344,0.243591,-0.112260,-0.291475,0.215428,0.402458,-0.328495,0.002300,0.032912,0.069222,-0.019596,0.234737,-0.099706,-0.206455,-0.099928,-0.305022,-0.056487,0.402532,-0.037378,-0.026063,-0.257527,0.261975,-0.596853,0.057047,-0.109326,-0.347771,0.302483,0.179109,0.052169,-0.202890,0.043108,-0.401019,-0.289382,-0.111922,0.180663,0.155435,-0.106598,-0.391081,-0.122378,0.005313,-0.413209,-0.577565,-0.245328,-0.343797,0.113342,0.079519,-0.105264,0.338530,0.378981,-0.241951,0.056933,0.055758,-0.320432,-0.272565,-0.537284,-0.056210,0.066582,0.332092,0.379110,-0.340145,0.158035,-0.127923,0.212726,0.353445,-0.196926,-0.144238,-0.428887,0.042154,-0.628632,-0.284170,0.425270,0.021035,-0.174602,0.118988,0.139146,-0.189246,-0.307493,0.355036,-0.131516,0.319888,0.284974,0.114210,-0.394622,-0.446492,-0.263217,0.035705,0.232633,0.230439,-0.433900,0.055929,-0.184697,0.398863,-0.100011,-0.506976,0.034305,0.241083,0.559107,-0.117798,0.543952,0.212532,-0.331905,-0.089878,0.009772,-0.179079,-0.168575,-0.254727,0.300382,0.348246,0.358385,0.120643,0.426423,-0.167801,-0.239698,0.482546,-0.351781,0.348160,0.193828,-0.359158,0.142330,0.339499,-0.017432,0.084365,0.122636,0.054005,0.255442,0.164706,0.225809,0.334778,0.502128,-0.188598,0.458884,0.124665,-0.405775,0.075996,0.482964,-0.284297,-0.350676,0.269531,0.118082,0.241879,0.017178,0.444035,0.079606,0.109433,0.303575,-0.139041,0.079203,0.436492,0.449018,0.362392
0.165928,0.475056,-0.181180,0.185904,0.441888,-0.392294,0.434884,-0.184539,-0.267243,-0.510341,0.233872,-0.410736,-0.039894,-0.061634,0.443457,-0.089836,0.163653,0.071381,0.015036,0.368562,0.263006,0.438182,-0.247138,0.138748,0.365773,-0.314076,-0.334134,-0.366582,0.227291,0.129355,-0.074346,0.058287,0.206030,0.407404,-0.315341,0.063764,-0.285923,-0.350534,0.367446,0.096478,0.005895,0.159994,0.245699,0.452562,-0.058812,0.233567,-0.591757,-0.218012,0.048285,0.080970,0.563184,-0.145076,-0.106876,-0.369168,-0.104422,-0.010179,-0.220543,0.373133,0.151351,0.017091,-0.483585,0.331091,-0.090883,-0.279255,0.207436,0.052667,-0.450712,-0.082171,-0.117294,0.047955,0.368893,-0.051661,-0.466599,-0.039121,-0.283261,-0.086224,-0.304175,-0.249202,-0.217354,-0.489907,-0.191083,-0.163768,0.195251,-0.063520,-0.134081,-0.218071,0.076103,-0.028762,0.331806,0.396111,-0.076071,-0.351229,-0.261850,0.048858,0.282693,0.024074,0.134050,-0.013213,0.244517,0.092671,-0.362942,-0.558695,0.330581,0.276779,-0.484836,-0.254929,0.170961,-0.448480,0.362247,-0.381290,0.067752,0.457226,-0.420638,-0.375205,0.261783,0.023827,0.131890,-0.278641,-0.284135,0.089839,-0.158836,-0.432763,-0.141496,-0.220488,0.487422,0.381887,-0.218273,-0.021223,0.603575,-0.199679,0.163795,0.007420,0.190602,-0.217631,0.437198,-0.392457,-0.410752,-0.225908,0.022173,-0.395032,0.277526,0.395581,0.074190,0.046088,-0.256764,-0.017205,-0.240450,0.568925,0.380302,-0.148583,0.483089,0.132414,0.085866,0.038843,0.137070,0.261241,-0.354168,-0.038622,-0.402163,-0.069857,0.427786,0.496293,0.213005,0.480622,-0.096896,0.259761,-0.030834,0.180139,0.047960,-0.434027,0.030670,0.293632,0.319529,-0.304406,0.507859,-0.168667,0.203586,0.266263,0.495036,0.075088,-0.377751,-0.362108,0.306534,0.037806,-0.344706,-0.282620,-0.000553,0.383743,-0.359055,0.120012,-0.431587,-0.032120,0.501820,-0.281999,0.571003,-0.095281,-0.071402,0.341635,0.267270,0.423837,-0.087833,-0.446484,-0.313221,0.203528,-0.232563,-0.195098,-0.175561,-0.076325,0.198629,-0.356923,-0.366145,0.053009,-0.321694,0.137739,0.120762,0.142697,0.459605,0.363490,-0.277325,-0.290144,0.065129,0.389232,0.252872,0.086460,0.230238,-0.306891,-0.002624,-0.157326,0.389298,0.427930,-0.404019,-0.420965,-0.174835,0.344953,-0.010381,-0.465109,-0.466043,0.406354,0.462713,0.100100,-0.011562,0.139866,0.429619,0.379154,0.428006,-0.116032,-0.042804,-0.089424,-0.025949,-0.453797,-0.019120,-0.336788,0.080237,-0.336347,0.032081,0.294538
0.516083,-0.304286,0.559560,0.345708,-0.115819,0.003032,-0.370851,0.225288,-0.193751,0.325732,-0.335893,0.480236,0.053566,0.162523,0.235432,0.137204,-0.091536,-0.377889,0.411076,-0.371925,-0.076391,0.439977,0.415838,-0.020202,-0.350829,-0.024259,-0.263320,0.456705,0.443237,0.362415,-0.275110,0.002331,0.522329,-0.127642,0.138566,-0.177922,0.110597,0.406317,0.215156,0.471596,-0.386194,-0.103433,-0.214783,0.477938,0.286630,-0.311838,0.410210,-0.627954,-0.198293,0.381556,0.137354,0.124903,-0.365913,0.380760,0.056281,0.244096,0.474137,-0.120087,0.069373,-0.322362,0.319505,-0.188004,0.402735,0.071780,-0.207133,0.378899,-0.466844,0.016646,-0.158495,-0.217845,-0.257908,-0.388077,0.114670,0.059782,-0.059383,0.228105,0.327858,0.359271,0.193212,-0.462741,0.565069,-0.183943,-0.530572,-0.319545,0.331780,-0.291712,0.269219,0.074841,-0.129729,-0.326754,-0.590939,-0.401954,0.261608,0.399528,0.465927,0.061594,0.097880,-0.282294,0.412228,-0.135995,0.074840,0.064686,0.394306,-0.366546,-0.166707,-0.241379,-0.354994,0.218836,0.282633,0.448460,-0.484192,0.052838,0.088467,0.008235,-0.089690,-0.005031,0.101405,-0.267558,0.412539,-0.039087,0.356203,-0.332687,0.131706,0.309986,-0.344934,-0.253701,0.111233,-0.347058,0.196547,0.003230,-0.275597,-0.206257,-0.061555,-0.136474,-0.451206,-0.117637,0.356774,-0.019051,0.385757,-0.157357,-0.281121,0.284395,0.310690,-0.313339,-0.108894,-0.389064,-0.347364,0.244977,-0.171305,-0.124579,-0.294165,0.307592,-0.054826,-0.083225,0.035566,-0.327609,0.490110,0.057388,-0.439469,-0.373530,-0.474203,0.163018,-0.466156,-0.160111,0.261077,0.476083,0.108284,0.500835,0.388218,0.403659,0.237178,0.293531,0.276881,-0.621458,-0.110491,-0.440062,-0.086738,0.021724,-0.278690,0.190828,-0.176743,0.256447,0.510673,-0.003505,0.378505,0.497315,0.012110,-0.187522,-0.426814,-0.296149,-0.103554,-0.014746,0.195245,-0.204917,-0.401907,0.049837,-0.202280,0.185417,-0.353430,-0.040110,-0.384985,-0.451952,0.342157,-0.334979,-0.469554,0.114213,-0.545336,-0.461838,0.122577,0.048450,0.122666,0.130397,0.236682,-0.398078,-0.421240,-0.056246,-0.408904,-0.113981,0.155985,-0.312915,0.020886,-0.205480,-0.190081,0.531815,-0.257973,0.067298,-0.150382,0.343640,-0.343994,-0.178658,0.393804,-0.561046,-0.255543,-0.290639,0.259276,-0.115934,0.465472,-0.344174,-0.074096,0.298477,0.240076,0.313373,-0.137003,-0.574232,-0.522307,-0.551364,0.263796,0.506420,-0.357704,-0.207526,0.208539,-0.294626,-0.120538,-0.245441,0.570008,-0.181590
0.040377,0.604292,0.390326,0.002979,0.540294,0.492313,-0.142358,0.112783,-0.485685,0.084204,-0.336431,-0.476442,-0.469776,0.412389,-0.379605,0.510059,0.214174,0.457463,-0.260405,0.077611,-0.264920,-0.211919,-0.248737,0.066136,0.450153,-0.087584,-0.387671,0.025729,-0.214631,0.317955,-0.094865,-0.028337,-0.324036,-0.515365,0.121388,-0.036955,-0.265289,-0.039918,-0.002300,-0.284893,-0.291355,0.264381,0.379505,0.016394,-0.096895,0.522088,-0.173711,-0.239344,0.071224,0.121604,-0.105397,-0.406113,-0.234531,-0.117448,0.299355,0.207529,0.251691,0.445577,0.527536,-0.009000,0.607520,-0.095904,-0.215943,-0.097436,0.131545,-0.060548,0.166990,-0.100268,0.370747,0.066370,0.069778,0.600408,0.537278,0.432334,0.173424,0.220428,-0.119907,0.401712,0.180080,-0.298122,-0.069481,-0.330214,-0.125687,0.170931,-0.234362,-0.263941,0.023344,0.213890,0.095345,-0.171982,-0.370068,0.214711,0.507927,-0.308353,0.265267,0.281537,-0.247730,0.272024,0.232783,0.241913,0.437785,-0.192329,-0.023177,0.154672,-0.258374,0.090939,0.017805,0.202310,-0.175196,-0.217455,-0.380821,0.445150,-0.386338,0.287192,-0.519833,-0.443348,0.171628,0.466486,-0.190386,-0.440308,-0.194657,0.391246,-0.280883,-0.280478,0.325026,0.385494,0.118805,-0.031776,0.292777,0.041586,0.221005,0.047525,0.267467,-0.102417,-0.276191,-0.380867,0.293327,0.404408,0.404080,0.445141,0.122602,-0.112241,0.296611,0.035465,0.274752,-0.603010,0.287976,0.098495,0.476440,0.305785,-0.276502,0.158546,0.251554,-0.109598,0.296110,0.362293,-0.341794,0.358680,0.068221,0.401654,-0.264988,-0.224850,-0.294121,-0.521131,-0.473038,-0.102649,0.437157,0.011483,-0.245650,-0.338320,-0.399273,0.470963,0.328609,0.168174,-0.290569,0.109613,-0.483928,-0.357888,0.379257,-0.229386,0.005026,0.070300,-0.377891,0.344749,0.431974,0.014014,-0.263872,-0.375587,0.018693,-0.171743,-0.362930,0.277670,-0.558784,0.306050,-0.124239,-0.550668,-0.208241,0.218654,-0.000417,0.021972,-0.164766,0.094661,-0.253459,-0.330053,-0.099817,0.096018,-0.298037,-0.235176,-0.216195,-0.368000,-0.256703,0.033965,-0.111013,-0.249910,0.035509,0.031781,0.065350,-0.290991,-0.221842,-0.111741,-0.380422,-0.170195,-0.565692,0.386768,-0.014975,-0.378015,0.240635,-0.386170,-0.450057,-0.417576,-0.364870,0.149335,0.102182,-0.491220,0.312548,-0.425551,-0.033042,-0.512078,-0.241454,-0.183009,-0.327461,0.207839,0.013188,-0.210768,-0.078553,-0.016915,0.161774,0.132882,-0.005818,0.406278,-0.084079,0.059036,0.307929,0.259207,-0.154874,-0.212838
-0.492427,-0.185203,0.135595,0.302972,0.067262,0.212518,-0.484088,-0.475509,-0.227029,0.001278,0.308788,0.196829,-0.358766,0.274963,-0.038255,-0.125502,0.193627,-0.511990,0.184811,0.192840,0.335106,-0.404218,0.026129,0.318567,-0.381134,-0.505149,-0.287754,0.065115,0.270842,0.340965,0.404806,0.517845,-0.148562,-0.007663,0.439553,-0.151256,0.090296,-0.246810,0.070218,0.231377,-0.037267,0.251995,0.285600,0.297943,-0.249516,-0.250650,-0.353912,-0.183869,-0.398521,0.010634,0.184662,0.247192,-0.038376,-0.428870,-0.130262,0.433683,0.347790,0.122531,-0.296735,-0.453682,0.168562,-0.075665,-0.411664,0.126202,0.302556,-0.162782,0.393669,-0.284581,0.181424,-0.370054,-0.025650,0.252868,0.034982,0.391660,-0.535353,-0.542978,0.091145,0.127840,0.397478,-0.150389,-0.323971,-0.137901,0.076721,-0.031247,0.323152,-0.375426,0.235273,0.141879,0.323614,0.258129,0.117945,0.062142,0.354617,0.086552,-0.049320,0.268505,0.320173,-0.516994,-0.445190,0.408740,-0.316636,-0.205528,-0.531052,0.295977,-0.461664,-0.461725,0.142207,-0.318882,-0.371067,-0.479366,-0.409915,-0.121211,0.272124,-0.252737,-0.295472,0.283862,-0.172778,-0.032780,0.278479,0.231008,0.253828,-0.140123,-0.059648,-0.029582,-0.374769,-0.271443,-0.457205,0.013274,-0.320252,0.482467,0.238818,0.445841,-0.248696,0.201331,0.136584,0.294271,0.364153,-0.159531,-0.398763,-0.447238,0.487405,-0.175045,0.330710,0.029631,0.352777,0.229371,0.087027,-0.288469,-0.048245,-0.396473,0.437667,-0.349600,0.313116,0.457416,-0.264779,-0.277513,0.495935,0.066900,-0.091035,-0.369413,-0.210745,0.413292,-0.151420,0.087054,0.074114,-0.186526,0.526781,0.240180,0.601884,-0.032385,-0.085374,0.074465,-0.090991,-0.254999,-0.178647,0.326526,0.498167,-0.201553,-0.278988,-0.105911,0.440244,-0.362980,-0.303103,0.292057,0.613237,0.196366,0.303649,0.136623,-0.053223,0.244318,-0.177018,-0.292771,0.359457,0.511975,-0.421300,-0.227286,-0.092532,-0.022675,-0.332655,0.479303,0.551718,0.416351,0.259065,-0.532811,0.028059,-0.062978,-0.116491,-0.072977,0.408241,-0.407194,-0.497311,0.059992,0.146065,-0.329344,-0.229656,0.010403,-0.414397,-0.244662,0.185382,-0.094683,-0.504158,-0.130587,-0.304422,0.303983,-0.545995,0.229176,0.079081,-0.027565,0.144084,-0.171264,0.328282,0.314328,-0.359927,-0.412509,0.316218,0.110717,0.120954,-0.373116,0.114872,0.100511,-0.464846,-0.377999,0.278262,-0.500619,0.020587,0.010724,-0.333250,-0.371316,-0.311996,0.001772,0.097480,0.355624,-0.286832,0.331897,-0.159507,0.394549
-0.640919,-0.336393,-0.435263,0.196575,-0.206559,-0.407821,-0.201262,0.347840,-0.185586,0.495224,-0.093885,-0.352847,-0.481534,-0.004721,0.276215,0.091297,-0.184176,-0.198412,0.042702,0.400560,-0.658402,0.203041,0.062811,0.707998,-0.334955,-0.480393,0.159233,-0.340341,-0.400440,0.448451,0.165672,-0.284239,-0.070397,-0.385048,-0.360565,0.018292,0.069430,0.225017,-0.281770,-0.079474,-0.595258,-0.236391,-0.267762,-0.019057,0.005707,0.003094,0.754158,0.070649,0.406635,-0.499552,-0.297914,-0.512629,0.204455,-0.251123,-0.032539,-0.068290,-0.437193,0.020787,0.162394,-0.118427,-0.070369,-0.044975,-0.008867,0.113150,0.372323,0.043582,0.531863,-0.222125,0.467885,0.160795,0.283852,-0.367453,-0.153026,0.026674,-0.104218,0.589229,0.475626,0.042442,0.072129,-0.542383,0.795525,0.572373,0.380172,-0.019762,0.365886,-0.438352,-0.167997,-0.161019,0.455184,0.384926,0.077212,0.194622,0.236151,0.340965,-0.110664,-0.469227,0.348705,0.586836,0.401987,0.403906,0.396999,-0.012906,-0.389588,-0.278071,0.161838,-0.482147,-0.480527,-0.124907,0.239598,0.283444,0.485727,0.460905,0.306075,-0.087073,-0.358914,0.100633,-0.375009,-0.212760,0.235673,0.128382,-0.072006,-0.395674,0.015977,-0.131055,-0.176392,0.357529,-0.058762,-0.397066,-0.380746,0.094164,0.179802,-0.269137,-0.410475,-0.080505,0.198676,-0.135620,-0.096974,0.128534,-0.031317,-0.607124,-0.460986,0.244933,0.141061,-0.298302,-0.142175,-0.324093,0.131117,-0.616132,-0.535657,-0.515346,0.365234,0.117031,-0.058257,-0.514179,-0.336864,-0.487497,-0.155213,-0.267853,-0.728368,-0.389556,-0.522849,-0.232018,-0.154798,-0.276767,0.023605,-0.127483,-0.086659,-0.054086,-0.251001,-0.412800,-0.045502,0.000577,-0.048743,-0.368264,0.200724,0.050954,-0.555595,-0.451704,0.056554,0.012807,0.183355,0.094283,-0.396896,0.077590,0.461141,-0.539670,0.118022,0.295764,-0.586593,-0.435493,0.196205,0.034663,0.030620,-0.535488,-0.855049,-0.034480,-0.447384,-0.681756,0.135463,0.577572,-0.472179,0.106723,-0.212171,0.179247,0.047696,-0.525641,0.391771,-0.136313,-0.022065,-0.113157,-0.485315,-0.007077,-0.211115,-0.346540,-0.041420,0.412253,0.170312,-0.054446,-0.252458,0.196187,0.527596,-0.087001,0.183669,0.143364,-0.070121,0.371884,0.147626,0.154719,0.058534,-0.022520,0.218365,-0.075003,0.388066,0.262998,0.128453,-0.257272,0.197126,-0.048092,-0.001291,0.074267,0.192140,0.174129,0.077631,-0.406401,-0.354389,-0.319312,-0.308207,0.007490,0.383161,-0.071658,0.380006,-0.068766,-0.422958,0.217558,0.417993,0.334318
-0.508575,-0.526549,-0.508178,0.349985,0.303142,0.143684,0.047899,0.500035,0.440497,-0.116037,-0.085316,0.010880,-0.394991,0.066166,-0.541355,0.075078,0.052887,0.094872,-0.443983,0.209490,0.109299,-0.257411,-0.603455,-0.031128,-0.419426,-0.583172,0.475582,0.363851,-0.541916,-0.393942,-0.260651,-0.433311,-0.670023,-0.227023,-0.441092,0.182211,-0.074888,0.415982,-0.191189,0.233605,0.265191,-0.485003,-0.136183,0.338057,-0.079545,-0.215770,-0.129921,0.683810,0.002732,-0.032206,-0.009221,-0.178528,-0.185806,0.417595,0.182609,-0.330210,0.201551,-0.333060,0.421684,-0.180862,0.264843,-0.175263,0.590743,0.261477,-0.379236,0.098438,0.183253,-0.158598,0.020808,-0.147735,0.159167,0.121683,0.456345,-0.232721,0.288731,-0.031439,-0.499737,-0.015136,0.343088,0.508951,-0.245441,-0.178970,-0.275011,0.623975,-0.032202,0.197173,0.103255,0.137118,0.464347,0.401480,-0.344998,0.510717,0.571669,0.366342,-0.150444,-0.183336,-0.551182,0.031973,-0.291368,-0.076370,0.350069,-0.364574,0.484486,0.210650,0.245474,0.015848,-0.395862,0.271763,-0.297328,0.040862,-0.407338,-0.295581,0.241401,0.192212,0.083756,0.319084,-0.267759,0.603150,0.262220,0.610966,0.208169,-0.054315,0.145104,-0.333783,-0.287058,0.473949,0.469134,-0.653756,0.098309,0.453841,0.016827,-0.200199,-0.163935,0.217403,-0.150254,-0.261791,-0.036948,0.253515,0.362162,0.141723,-0.072074,0.162253,0.008488,-0.211521,-0.048465,0.392157,-0.175238,0.084890,0.128117,0.323882,-0.319319,0.234771,0.344354,0.333204,0.228189,0.277169,0.492967,-0.207228,0.163394,-0.225774,-0.122359,0.207203,0.016752,-0.360913,-0.059620,-0.149850,-0.033057,0.038319,-0.346644,0.358019,0.034676,-0.176877,0.060302,-0.193615,-0.287363,0.030010,0.139670,0.605361,-0.188158,0.323030,0.018621,-0.478953,-0.304478,0.103109,0.354756,0.342992,0.065293,-0.029822,0.114505,-0.342304,-0.209209,-0.578330,-0.130440,0.605067,0.134602,-0.470970,0.115323,-0.064504,-0.348138,-0.355616,0.325817,-0.153369,0.435641,-0.019536,-0.079713,-0.291955,0.067048,-0.306110,-0.220473,-0.129278,0.546211,-0.021253,-0.153614,0.346065,-0.275736,0.374067,-0.003999,0.243007,-0.332827,-0.198818,0.138651,-0.328681,-0.229350,0.268633,0.144461,-0.507972,0.424312,-0.117137,0.362219,0.618261,-0.313781,-0.150122,0.274144,0.247145,0.528489,0.281783,0.070029,0.123007,-0.083574,0.065404,-0.506572,0.070950,0.021520,-0.083510,0.106200,0.726110,0.135101,-0.011025,-0.302832,0.327193,-0.124891,0.134931,-0.412060,0.237879,0.048471,-0.390781
-0.073187,0.232065,-0.386709,0.071195,0.275383,0.067297,0.387480,0.396623,0.205566,-0.296170,-0.117416,0.200923,0.124390,0.118888,0.139742,0.123644,-0.403120,0.156976,0.065759,-0.522143,0.210634,-0.128269,0.361691,0.461372,0.329210,0.131086,-0.168174,0.515754,0.034101,-0.201907,0.335420,-0.512624,-0.472759,-0.001319,0.278892,0.100181,0.089380,0.382565,-0.422845,0.340724,-0.405489,0.487073,-0.272062,0.179049,-0.044095,-0.435654,-0.541331,0.251740,-0.381312,-0.388095,0.338464,0.498933,-0.352477,-0.268344,-0.641368,-0.469832,-0.078880,-0.249580,0.359755,-0.345840,-0.209701,0.388021,-0.155093,-0.489625,-0.404745,0.418631,0.097122,0.139604,0.486840,-0.053910,-0.421026,0.424376,0.271677,0.056225,-0.095994,-0.388645,-0.419740,-0.668046,-0.416650,-0.464525,0.107604,-0.017969,0.446782,0.322177,-0.594151,-0.621508,0.172991,0.139091,-0.204843,-0.423442,-0.277273,-0.676275,0.101113,0.197579,-0.595196,0.284666,0.045229,-0.098331,-0.198660,0.070273,0.020495,-0.391981,-0.564148,-0.203271,-0.331328,-0.369678,-0.104438,-0.345124,0.150824,0.058644,-0.295544,0.102985,-0.024745,-0.109642,0.157248,0.019027,-0.036791,-0.393544,-0.026748,0.062305,-0.405053,-0.575503,-0.365719,0.047403,-0.465239,-0.265891,-0.517219,0.210366,0.330845,0.050330,-0.479516,0.274275,-0.312975,-0.408542,-0.667539,-0.536562,-0.033231,-0.120781,-0.417382,0.182209,-0.449476,0.449751,0.423026,0.240458,0.431263,0.481213,0.523098,0.520105,-0.274338,-0.348892,-0.378634,-0.185174,-0.467244,-0.006186,-0.379438,0.393753,0.203077,-0.025836,-0.369351,0.248928,0.387434,0.301503,0.054417,0.465794,0.145486,-0.184088,0.269930,0.569189,-0.277497,0.330768,-0.010987,0.261121,-0.325327,0.103254,0.025908,0.158749,0.022814,-0.130597,0.041038,0.356501,-0.220384,0.627413,-0.339196,0.025030,-0.005478,0.253605,0.048468,0.389724,-0.137720,-0.199689,0.098889,-0.205458,0.453216,0.484064,0.505817,0.435098,0.316048,0.709349,0.465133,-0.234127,-0.099227,0.039073,0.121800,-0.253255,0.157036,-0.198048,-0.429543,-0.510183,0.209433,-0.310715,0.418579,0.132445,-0.139716,-0.278327,0.083173,0.216732,-0.165087,0.105311,-0.265243,0.171525,0.526156,-0.008119,-0.347560,-0.238806,-0.006898,0.339565,0.673992,0.140689,0.369244,-0.033136,-0.465080,0.053292,0.263491,-0.117240,0.504884,-0.241770,0.268917,-0.139129,0.209963,0.325709,-0.138156,0.312110,0.337498,0.188061,0.250579,-0.407631,0.194632,-0.441353,-0.197039,-0.223653,-0.090489,-0.009326,0.343152,0.352425,0.292696,0.062616
0.027859,0.106245,0.105106,0.286669,0.315524,0.147229,0.347285,0.569255,0.140141,0.562825,-0.269532,-0.000904,-0.017225,-0.047037,0.029339,-0.482618,0.060523,0.423471,-0.046553,0.251282,-0.312643,-0.122294,-0.267200,0.234907,0.305485,-0.140641,0.269927,-0.427863,-0.310509,-0.314072,-0.283981,-0.315264,-0.424675,0.557787,-0.359561,0.315049,0.281260,0.009461,0.261144,-0.296426,-0.037961,0.130239,0.082710,0.219302,-0.297929,0.486769,0.293189,-0.026625,0.447786,-0.171413,-0.389387,0.173504,0.047611,0.228423,-0.046093,0.506617,-0.344323,0.083362,0.041817,-0.010803,0.394156,-0.122679,0.361137,-0.220431,0.026656,-0.388461,-0.142381,0.383402,0.295312,0.302643,-0.325764,0.056582,0.253356,0.026320,0.248025,-0.291674,0.486746,-0.137791,0.321191,-0.443605,-0.337579,0.143699,0.446261,0.065935,-0.449243,-0.088572,-0.089123,-0.140022,-0.601204,0.148139,0.160704,0.603733,0.212307,0.182793,-0.411834,0.022894,-0.212371,0.064811,-0.396418,-0.320965,-0.118693,0.057161,-0.157901,-0.196915,-0.538159,0.194071,-0.171587,0.386197,-0.314764,-0.216254,-0.323316,0.340313,-0.398066,-0.526926,-0.152330,0.126610,0.290731,0.555370,-0.184741,-0.547476,-0.302505,-0.180598,-0.273819,0.082703,-0.277625,0.333761,0.417851,-0.118038,-0.674825,0.045254,-0.077685,0.241313,0.221026,-0.508136,0.052552,-0.300360,-0.086049,-0.231396,0.424766,-0.482914,0.314845,-0.041775,0.518083,0.375831,-0.486528,0.271262,-0.329790,-0.095863,-0.329946,0.142861,0.074585,-0.630459,0.453485,0.039634,-0.111039,0.251186,0.078363,0.094431,-0.249355,0.492024,0.367244,0.234639,-0.583085,-0.482986,0.347213,-0.013711,-0.301241,-0.027327,-0.011695,0.076548,-0.410319,-0.067151,-0.243048,-0.146990,0.545783,0.005152,-0.115831,-0.293051,-0.336714,-0.377065,-0.104454,-0.315783,-0.109460,-0.257287,0.339929,-0.083063,-0.027812,-0.018208,-0.087040,-0.210539,-0.408181,-0.452630,0.143853,0.379233,0.589830,0.301271,0.073802,-0.074874,-0.506115,0.368089,0.236745,-0.481112,0.132949,0.449468,-0.240475,-0.424339,-0.207891,0.377864,-0.010757,0.227962,-0.422101,0.533009,-0.119803,-0.063718,-0.207576,-0.480496,0.061303,-0.245910,-0.166404,0.419932,0.065022,0.036285,0.352809,0.215428,-0.144338,-0.651568,-0.196333,-0.326055,-0.338822,0.217187,-0.106585,0.046132,-0.077483,0.212070,-0.424298,0.390620,-0.152113,0.177694,0.553428,-0.330618,0.416389,-0.087219,-0.409352,0.452521,-0.738392,0.016841,-0.546943,-0.060608,-0.384221,-0.161102,-0.018393,-0.039585,-0.062373,0.268633,0.244521,-0.559808
0.560840,-0.091761,0.351949,-0.258661,0.413880,0.246651,0.231320,0.025325,-0.334642,0.242951,0.020984,-0.029662,-0.081581,0.320276,0.243627,0.542749,0.188679,-0.012846,0.492734,-0.249847,0.149408,-0.052261,0.033136,-0.467383,0.442903,0.195798,0.083537,-0.233190,-0.110416,0.231579,0.161526,-0.447432,0.066618,0.331415,-0.384031,-0.275350,-0.134378,0.440135,0.377720,0.331518,0.140506,-0.201075,-0.323847,-0.438031,-0.465935,-0.580556,-0.626220,-0.064692,-0.420350,0.129396,0.137427,0.407943,0.569761,-0.365240,0.347098,0.469184,0.284336,-0.562650,-0.503138,-0.236872,0.057378,-0.034113,0.082436,-0.357951,0.077107,-0.484369,-0.299774,0.011239,0.440734,0.066840,0.277532,0.244050,-0.182531,-0.429222,-0.370742,0.175376,-0.131791,0.239419,-0.534062,0.080194,0.275172,-0.475501,0.045609,0.325227,0.111897,-0.368946,-0.106914,0.124763,-0.387510,-0.143802,0.441183,-0.523727,-0.265256,0.282776,-0.464979,0.398580,0.027921,-0.218887,-0.468575,-0.388082,-0.032356,-0.207343,0.226679,-0.510959,-0.147875,-0.157405,-0.021618,0.243203,-0.302693,-0.220240,0.229557,0.097488,0.362967,-0.153622,-0.157388,0.367465,-0.076502,0.090300,0.038678,-0.289667,0.041714,0.065876,0.098899,-0.431491,-0.243390,-0.243713,-0.228186,0.002933,0.251448,-0.303129,0.560585,0.089301,-0.106582,0.503736,-0.037535,-0.308584,-0.030496,0.482783,-0.196524,-0.502590,0.169821,0.100416,-0.145943,-0.251484,0.121595,0.628008,-0.214176,0.312235,-0.023910,0.326448,-0.011554,-0.113190,0.559983,-0.050837,-0.003472,-0.362205,-0.395940,-0.355361,0.351652,0.411032,-0.174594,-0.308158,-0.131311,0.202525,0.039384,0.496295,-0.217884,0.081147,-0.334591,-0.048410,0.220197,-0.102229,-0.440969,-0.568589,0.073259,-0.404442,-0.108696,0.480707,0.007107,0.091083,-0.152069,-0.440991,0.482389,0.464171,0.353464,-0.324352,-0.031875,-0.410443,0.065824,-0.026802,0.113314,0.303410,0.493320,0.110041,0.293524,0.389001,-0.167588,-0.169835,-0.037450,0.325063,-0.297974,0.231524,0.330453,0.118189,-0.277271,0.018857,-0.090128,-0.085332,-0.330744,-0.516653,-0.140465,-0.042721,0.039237,0.054883,0.442511,0.394064,0.033223,0.344281,-0.147000,-0.248133,-0.051344,-0.445270,-0.002185,0.067233,-0.376113,-0.127069,-0.242524,-0.287774,-0.073114,0.291901,0.127000,-0.172655,0.268319,-0.474341,-0.489774,0.290424,-0.339275,-0.072075,-0.158162,-0.389880,-0.023452,0.355705,-0.182661,0.016367,0.108132,0.471793,-0.282090,-0.408933,0.219537,0.380530,-0.351654,-0.245407,-0.497823,-0.094341,0.070059,-0.379544
0.172445,0.310481,-0.285461,-0.316268,0.022516,0.176763,0.123613,0.277960,-0.286197,0.225060,0.063327,-0.319746,0.086309,0.258027,0.282417,0.579284,0.262768,-0.065197,0.432543,-0.057538,0.451929,-0.158718,0.368020,-0.437696,-0.508851,-0.120267,-0.309497,0.465082,0.474206,0.056173,0.220125,-0.246901,0.073557,-0.115198,-0.227817,-0.104564,0.060673,-0.365727,-0.078828,0.174565,-0.037114,-0.167978,-0.272410,0.200713,0.524749,0.339968,-0.170910,0.190401,-0.181910,-0.158338,-0.454339,-0.126923,0.268403,0.365284,-0.388610,-0.448394,0.164459,0.367621,0.586095,-0.129774,-0.383566,0.394483,-0.037368,0.313424,0.180466,-0.348235,-0.417729,-0.365798,0.318241,-0.326673,-0.284086,-0.394679,0.185673,0.195415,0.220980,0.223479,-0.080653,0.015852,0.067024,-0.020589,-0.288040,0.126898,-0.429479,-0.442603,0.433672,0.270208,-0.014492,0.130540,-0.080997,0.121623,-0.273897,0.362135,-0.022043,-0.528121,0.079251,0.131689,0.031262,0.145320,-0.045536,0.225406,-0.211701,-0.253698,-0.183718,0.202149,-0.458760,0.233397,-0.332848,0.120726,0.009973,0.352879,-0.411837,-0.141209,-0.382480,0.204401,-0.340029,0.436111,0.122434,0.390555,-0.239504,-0.341954,0.186974,-0.530135,-0.392589,0.159455,-0.209560,-0.459514,-0.191218,0.375715,0.590323,-0.210092,-0.372144,-0.087249,-0.255153,0.361122,0.204251,0.100939,-0.018727,0.621836,-0.181840,-0.261167,0.294091,-0.015118,-0.182663,-0.262250,0.560404,0.242737,0.464544,0.039371,0.084366,-0.375580,0.492740,0.246212,0.095574,0.105681,0.380749,0.627683,0.192696,-0.329861,0.272580,0.295966,-0.402687,-0.206098,0.119832,-0.471688,-0.068079,0.435425,0.002754,0.150393,-0.243632,0.449158,0.223957,0.074058,0.463604,-0.373727,-0.006928,0.212443,-0.273751,0.067640,-0.144795,-0.009097,-0.304020,-0.137950,0.496412,-0.325504,-0.312340,0.480834,-0.366073,-0.097703,0.255993,-0.291592,0.511348,0.637320,0.386161,-0.113926,0.342140,0.141104,-0.361723,0.456217,0.558743,-0.099457,0.173890,0.052100,0.356530,0.143870,0.248392,-0.054461,0.349017,0.346708,-0.207222,-0.112418,-0.073958,0.379257,0.504134,0.355846,0.446643,-0.076494,-0.229874,0.321009,0.359018,-0.114994,0.385436,-0.113137,-0.328288,-0.471854,-0.205660,0.083865,-0.472839,0.367602,0.316457,0.216635,-0.383384,-0.202296,0.094765,-0.118693,0.215764,0.337354,-0.094604,-0.061633,0.295345,0.345110,0.504573,-0.018526,-0.117100,0.394597,0.151981,0.043098,0.024458,0.223023,0.290852,-0.003454,0.329698,0.522912,0.065061,-0.142051,-0.303137,-0.399250
-0.496814,-0.149295,0.341262,-0.176760,0.027174,0.258500,-0.402143,-0.499346,-0.128364,0.127529,-0.129546,-0.043009,-0.276632,-0.300415,0.294978,-0.013905,0.350153,0.132862,-0.466798,-0.181717,-0.233331,-0.202969,-0.114688,-0.330578,0.175090,-0.154899,0.271483,0.088179,0.354767,0.076209,0.182234,0.354079,0.003070,0.371232,-0.391146,-0.198715,-0.220842,0.042394,0.622529,0.144562,0.528303,0.246443,0.265337,0.466784,-0.074246,0.535034,0.405040,-0.212249,-0.061181,-0.001246,-0.500615,0.210297,0.406328,0.383740,-0.363299,0.386370,-0.222849,0.180322,0.061594,0.014540,-0.212842,-0.256773,-0.133080,0.448605,-0.417931,-0.161396,0.369964,0.196742,0.183355,0.214582,0.059406,0.428251,-0.182482,-0.112646,-0.105934,-0.106215,0.117759,0.558926,0.128064,0.359714,-0.298046,0.174674,-0.261664,0.051316,-0.071943,-0.232180,0.061300,-0.146396,0.173849,-0.160404,-0.106670,0.035633,0.057488,0.359720,0.122556,0.003365,-0.416706,-0.136034,-0.276518,-0.401447,-0.378157,-0.509631,-0.066731,-0.293326,-0.199653,-0.415005,0.628067,0.472597,0.122652,0.248755,-0.099175,-0.229392,0.067072,-0.036486,-0.368267,-0.295377,0.121378,0.051842,-0.090855,-0.144681,-0.373920,0.005080,0.372560,0.025666,0.206402,0.504502,0.469882,-0.530643,-0.161052,-0.219319,-0.379430,-0.332620,-0.376600,-0.100561,-0.284126,0.099370,0.049449,0.163720,0.576138,-0.402635,0.395443,-0.453526,0.340928,-0.261005,0.557268,-0.209207,-0.015810,0.174819,0.125193,0.247103,-0.163115,-0.239512,0.282132,0.054404,0.277789,-0.283913,-0.003197,0.172152,0.270709,0.348311,0.100326,0.066152,0.222875,0.192546,-0.032655,-0.418381,0.074941,-0.098100,0.546456,-0.084024,-0.039205,-0.477196,-0.578937,-0.244385,0.323394,0.280431,0.582633,-0.405428,0.040427,-0.363872,-0.276582,0.243820,0.381779,0.499255,0.479392,-0.395403,-0.387205,0.392413,0.043244,0.061320,-0.350757,-0.087869,-0.565082,0.293613,0.139200,-0.140546,0.013394,-0.146074,0.052022,0.316164,-0.321795,-0.062423,0.333570,0.114291,-0.450659,-0.429245,0.202187,0.060262,-0.141576,0.415071,-0.456204,-0.427336,-0.451377,-0.026303,-0.259368,0.408842,-0.022261,-0.367411,-0.155204,-0.307877,-0.383140,-0.001584,-0.057704,-0.062207,0.414096,-0.361024,0.221390,-0.566710,-0.567029,0.183158,-0.089354,0.263028,0.403584,0.069728,0.172930,-0.082990,0.516622,0.309630,0.018460,-0.430664,0.489603,0.301743,0.014983,-0.151305,0.033559,-0.314993,0.248350,-0.446779,-0.040666,0.166250,0.271533,0.049820,-0.071060,0.351497,0.149149,-0.003411
0.550962,-0.111303,0.296022,-0.282787,-0.203804,-0.384692,0.338801,-0.235963,-0.143247,-0.481071,0.387990,0.081112,-0.411200,-0.337268,-0.099601,-0.110552,0.402246,0.201721,-0.483658,0.216662,0.468492,0.377108,0.056087,0.187255,-0.080077,-0.379757,-0.358309,-0.532604,-0.098165,-0.600772,0.364495,-0.084692,0.508367,0.138952,0.264756,-0.240895,-0.474358,0.443972,-0.201834,0.349904,-0.177843,-0.205170,0.340350,-0.479906,0.087682,-0.403256,0.036810,0.002505,0.236038,-0.555884,-0.274987,0.141508,-0.320661,-0.110974,-0.546874,-0.310029,-0.383313,-0.373453,-0.332002,0.157635,-0.103725,-0.465915,0.159334,-0.211409,-0.041797,0.372671,-0.558055,0.296532,-0.327658,-0.593680,0.155180,0.205099,-0.458141,-0.468895,0.350076,-0.261314,-0.297759,-0.428789,0.332523,-0.519701,0.157163,-0.553183,-0.023535,-0.505613,0.042730,0.116046,-0.149421,0.080000,-0.449513,0.371024,-0.392663,0.606223,0.196621,0.025207,0.072491,-0.208354,-0.566957,0.302931,-0.253083,-0.313198,-0.172646,0.127250,-0.276373,-0.371463,0.385212,-0.064331,0.109373,0.337400,-0.208661,-0.215576,-0.324623,0.055108,-0.530368,-0.135084,0.126291,-0.269757,-0.084828,-0.474260,0.167350,-0.226040,-0.478633,0.002562,-0.275489,0.391821,-0.374953,-0.124580,-0.371717,0.326094,-0.460146,-0.074151,-0.341035,0.027388,-0.248028,0.089192,0.201598,0.133373,0.203750,0.177764,0.138622,-0.006450,0.081240,0.346880,0.473758,-0.255627,0.434166,-0.453226,0.357723,0.309486,-0.226258,-0.229976,-0.477311,0.288891,0.074423,0.020931,-0.459125,0.248514,0.363170,-0.434791,-0.327038,0.193096,0.283022,-0.263737,-0.373090,-0.074870,-0.142719,0.415194,-0.013911,-0.160675,-0.258072,-0.303627,-0.347866,0.372034,-0.197462,0.133405,0.404073,0.280353,0.403009,0.343317,-0.421036,0.230387,-0.227877,0.468326,0.008109,0.209586,-0.060020,-0.359625,-0.098972,-0.410656,0.079445,-0.283080,-0.229084,0.487866,0.333268,0.075871,-0.169287,-0.297788,-0.260891,0.199880,0.186333,0.386428,0.314521,0.155983,-0.208303,0.468747,-0.300918,-0.243890,0.467498,0.436422,0.157909,-0.320588,0.133449,0.437936,0.302688,-0.322667,-0.038346,0.008340,-0.355024,0.017156,0.091602,0.359441,0.000807,-0.503205,-0.166318,0.033265,-0.333401,-0.342062,0.268939,-0.546693,-0.579181,-0.108571,-0.095816,-0.528970,-0.460915,-0.288690,-0.376346,0.420916,0.315785,0.505743,0.317451,-0.048824,-0.075661,0.099419,0.205789,0.285805,-0.354498,-0.177183,0.055796,-0.335348,0.033617,0.027405,0.138803,0.328822,0.527461,0.433198,0.294860,-0.147846
-0.224630,0.187743,-0.005401,0.326659,0.394106,-0.191732,-0.112537,0.393413,0.242757,0.457163,0.515278,0.256704,0.016951,0.313667,0.044173,0.218140,0.158831,0.101294,0.425903,-0.406967,0.285100,-0.094006,-0.208139,-0.113861,0.467511,0.404496,-0.007194,-0.241543,-0.220451,-0.340432,0.067407,0.167072,0.499417,0.468619,0.263971,0.322551,0.207356,0.500337,0.176347,-0.322844,-0.124669,-0.256226,-0.166681,-0.189534,-0.061793,-0.108072,0.210318,0.389372,-0.260254,0.639077,-0.266527,0.316482,0.078995,-0.037664,-0.282330,-0.063192,-0.003690,0.090216,-0.052397,-0.499724,0.339881,-0.294290,-0.144502,-0.104136,0.523512,-0.279935,0.316384,0.402066,0.017183,0.374385,0.237992,0.068795,0.190226,0.105131,-0.192867,0.059579,0.441222,0.299176,0.163592,0.551347,-0.154808,0.537436,-0.493367,-0.024196,-0.200534,0.479611,-0.378414,-0.263925,-0.225223,0.272449,-0.138627,-0.295558,-0.308730,-0.271819,-0.245685,-0.526972,0.429645,-0.345308,0.070755,0.024061,0.421722,0.544053,0.013717,0.374363,0.293391,0.443325,0.283040,-0.004473,0.357208,-0.180570,-0.027624,0.170422,-0.281449,-0.190013,-0.464696,0.464921,-0.017522,0.087949,-0.280058,-0.025691,0.408130,-0.407601,-0.372949,0.117744,0.443606,0.202224,0.106331,0.278439,0.045295,-0.198397,-0.417689,-0.579531,-0.069616,0.232421,-0.300157,-0.254092,0.367793,0.159121,-0.041749,-0.348691,-0.001923,0.396093,-0.235726,-0.164610,0.384898,-0.169189,-0.231483,0.096956,-0.355954,-0.303910,-0.479687,-0.352539,-0.411789,0.107853,0.067648,0.131422,0.120640,0.045124,-0.227197,0.228456,-0.476247,0.319105,0.312124,-0.423909,-0.006308,-0.461036,-0.358315,0.190597,-0.075634,0.366957,-0.545541,0.396969,0.042376,0.149884,-0.052090,0.135515,0.184045,0.047662,0.183079,-0.081741,0.269994,-0.113687,-0.261611,-0.371880,0.237749,-0.541958,0.313321,-0.005803,-0.065481,0.456938,0.549649,-0.092281,-0.041887,0.316059,-0.068639,-0.080511,-0.261837,-0.354082,0.276442,-0.199920,0.437823,0.435555,-0.165849,0.123611,-0.279290,-0.412404,0.219909,-0.360721,0.488320,0.176650,-0.582473,-0.137459,-0.576810,0.208461,0.471680,0.090861,-0.106535,0.017571,-0.091082,-0.471507,-0.246469,-0.488437,0.531561,-0.284378,0.541280,-0.170731,0.432756,0.353088,-0.305662,-0.059432,-0.057995,0.035737,-0.210173,-0.258379,-0.463958,-0.030375,-0.624081,-0.411027,0.303426,-0.073699,-0.122337,0.263971,-0.379304,-0.042744,-0.051500,0.195678,-0.317696,-0.332734,-0.329156,-0.049215,-0.291901,-0.465989,0.256799,0.141730,0.004831,-0.280830
0.373233,0.203700,0.164829,0.002939,-0.045983,-0.550098,0.222855,-0.401944,-0.000842,-0.271428,-0.701192,-0.628737,-0.349504,0.457097,-0.126558,0.121018,-0.454171,0.223205,0.149417,-0.209426,0.344279,0.146065,-0.117623,-0.067537,-0.231795,-0.541867,0.026463,-0.370730,0.271677,0.407260,0.198775,0.134892,-0.243825,0.225855,-0.485823,-0.414789,0.483399,0.152773,-0.327064,-0.232869,0.440490,-0.257784,0.189269,-0.482149,0.112534,0.018391,-0.182728,-0.237237,-0.116653,0.297327,-0.134593,0.268480,-0.119111,0.062847,0.149223,0.066668,0.250019,0.471197,-0.187166,-0.374727,-0.062892,0.380999,-0.007696,-0.074029,0.242659,0.174919,0.315567,0.424225,0.254212,0.540936,0.332047,-0.266533,-0.272870,0.396943,-0.160714,0.067560,0.294901,-0.260723,-0.531681,-0.448071,0.230487,0.447294,-0.275093,-0.438307,0.587107,0.732847,0.599976,-0.155524,0.395875,-0.547725,-0.112175,-0.007444,0.160442,-0.176073,0.449648,0.462632,0.225302,0.198650,-0.016354,0.201467,-0.323541,-0.112953,0.367808,-0.044373,0.050932,-0.111872,-0.299769,-0.333549,0.106923,-0.433085,0.224882,0.105272,-0.407851,-0.257984,-0.003909,-0.335106,-0.199875,-0.160814,-0.420031,-0.018555,0.545703,-0.236963,0.251273,-0.258867,-0.153571,0.279168,0.093408,-0.507283,0.111203,0.060904,-0.565347,0.055211,-0.317201,-0.324878,0.492420,-0.196952,0.423679,-0.279081,-0.134529,-0.475483,-0.490349,-0.566823,-0.091645,0.004790,-0.316492,-0.200807,-0.194671,-0.064678,0.220093,-0.088015,0.111776,0.242394,-0.113342,-0.420927,0.261511,0.307258,-0.318822,0.221425,0.188122,0.466838,0.058672,-0.545942,0.537439,-0.138031,0.564302,0.409158,0.571850,-0.092235,-0.007075,-0.377643,-0.169909,0.143206,-0.030760,0.187402,0.038810,-0.086944,-0.505645,0.358189,-0.364262,0.170345,0.028634,0.279454,0.001438,0.160722,-0.278669,-0.012779,0.043055,-0.338291,0.074199,-0.531779,-0.495713,-0.401389,0.263588,-0.188705,0.212883,0.231993,0.503447,-0.210773,0.087480,-0.209649,0.117070,-0.316519,0.443305,0.256305,0.073998,-0.582042,0.386405,0.219903,0.022127,-0.518834,0.140364,0.156162,0.626883,0.414300,-0.112357,-0.505111,0.480486,-0.366299,-0.081174,-0.259266,0.063902,-0.473979,-0.287067,0.613090,-0.412721,-0.040566,-0.393485,-0.478925,-0.133653,-0.191732,-0.148138,0.230760,-0.020315,-0.065276,0.572910,-0.038172,-0.507956,-0.294781,-0.261134,0.578008,-0.024886,0.190233,0.362767,0.104912,-0.103081,-0.358356,0.580724,0.199014,-0.005746,-0.120781,0.585753,0.238241,-0.172256,0.090454,-0.264795,0.258193
0.226698,-0.268757,0.221069,0.251881,0.500527,0.512761,0.317198,0.474973,0.228911,-0.099892,0.160012,-0.280460,-0.117331,-0.285426,0.270122,-0.167316,-0.300497,-0.345187,0.320751,0.414599,0.385943,-0.402190,0.022736,-0.431852,-0.341937,0.372978,0.394159,-0.066151,0.399964,0.404676,0.145870,0.424462,0.280946,-0.199798,0.472897,0.048917,-0.204255,-0.459068,-0.050178,-0.239085,0.434609,0.120168,0.522761,0.140433,0.265880,-0.156161,0.355056,-0.079586,0.108205,0.457870,-0.275311,-0.214996,0.192647,0.400855,-0.014903,0.489137,-0.061214,0.419169,0.461138,0.120603,0.028562,0.439609,-0.009504,0.160878,0.142138,0.016780,0.125761,-0.344216,-0.099430,-0.386825,0.072153,-0.463605,0.002330,-0.042884,0.073424,-0.618840,-0.229617,-0.300583,0.137774,-0.016254,-0.314857,-0.278308,0.045554,0.342686,-0.210467,-0.506776,0.164563,0.402609,0.323790,-0.034192,-0.278326,-0.414483,0.319471,-0.036123,0.156026,0.289505,-0.025855,-0.165529,-0.212768,-0.053812,-0.008379,-0.203739,-0.135073,-0.437057,-0.407711,-0.178650,0.317493,-0.325202,0.457253,-0.397418,-0.367649,0.356448,-0.201357,0.179678,-0.187266,0.222611,0.288075,-0.124762,-0.507965,-0.451420,-0.103283,-0.084177,0.291661,-0.329195,0.138472,-0.260885,-0.095706,-0.440172,-0.329827,0.182981,-0.415317,-0.441534,-0.459032,0.410990,0.427952,-0.230682,0.243465,0.067405,0.205792,-0.032341,0.379349,-0.213140,0.270934,-0.293802,0.198780,-0.067456,0.383599,-0.436275,-0.517242,-0.292719,0.532578,0.170368,-0.142075,-0.232591,0.599322,-0.302942,-0.038008,-0.396845,0.386160,-0.296113,-0.099370,0.463901,0.013941,-0.109666,0.281095,-0.068704,-0.061107,0.118100,-0.164082,0.084904,-0.280607,0.113831,0.043164,0.238095,0.155845,0.440047,0.523631,-0.045582,-0.403605,-0.466459,-0.320746,-0.311344,0.193693,0.430167,-0.189530,0.133638,0.171057,-0.528935,-0.133018,0.002122,-0.081656,0.208260,0.056351,-0.283155,-0.256671,0.221397,0.457506,0.107334,0.287890,0.178952,-0.412208,-0.486886,-0.308023,-0.248557,-0.417989,-0.418811,0.404386,-0.367813,0.452702,0.203243,-0.038344,-0.350256,-0.117266,-0.329468,0.070288,-0.182993,-0.422780,0.092048,-0.010290,0.345289,0.094495,0.360034,-0.350545,0.241356,0.421570,-0.215273,0.282263,0.335905,0.002244,0.183464,0.212525,0.084426,0.446010,-0.450482,-0.017325,-0.445498,-0.143739,-0.137720,0.009799,-0.177517,-0.018574,-0.416386,-0.424876,0.447221,-0.245385,-0.122191,0.439470,0.135455,-0.378121,-0.030460,0.322710,-0.266523,0.120050,0.434821,-0.277338,-0.030640
-0.219514,-0.120830,0.168765,0.226614,-0.191699,0.326367,0.488373,0.124121,0.333413,0.119021,0.059724,-0.301710,-0.400640,0.112304,0.076675,-0.104709,-0.335610,0.377503,0.593076,0.342298,0.375132,0.056151,0.337249,0.073934,0.318868,-0.092460,-0.159057,0.133869,0.206848,-0.530679,0.047699,-0.015371,-0.176020,-0.223057,0.293759,0.353784,-0.109342,0.171875,-0.020600,-0.304689,0.440062,0.369401,-0.075361,0.139215,-0.206401,0.149091,0.188462,-0.346686,-0.399974,-0.438813,-0.170721,0.198542,-0.003509,0.238628,-0.455872,0.580695,0.372867,0.376939,-0.378044,0.350487,0.244508,-0.129720,-0.021452,0.390354,-0.007687,0.031004,0.259844,0.205943,-0.045431,-0.006997,-0.255971,0.098606,-0.413693,0.302669,0.341261,0.259595,-0.172806,-0.444504,0.533025,-0.376853,-0.033888,-0.362060,0.199236,-0.403575,0.001445,0.081999,-0.039009,-0.189268,0.404454,0.295427,-0.250008,-0.140103,0.048670,-0.467055,-0.378919,0.433374,-0.254205,-0.329459,0.405220,-0.379802,0.191972,-0.120119,-0.367547,0.442394,0.026825,-0.184017,0.086915,-0.363068,0.241329,0.227558,-0.073517,-0.238037,0.040333,-0.542306,0.020079,0.282649,-0.430385,-0.188063,0.556190,0.382691,-0.296135,-0.123427,0.287540,-0.215551,-0.283271,0.259656,-0.193019,-0.167140,-0.078240,-0.008935,0.359705,0.203721,-0.038699,0.228628,-0.301896,-0.391908,0.257429,-0.067010,0.437577,-0.203159,0.174420,-0.284191,-0.140656,-0.120139,-0.496315,-0.536033,-0.737828,0.063307,-0.199954,0.297188,-0.030299,0.438778,-0.192414,0.266585,-0.396841,0.349377,0.003766,-0.343574,-0.072120,0.448137,-0.388457,-0.345872,-0.042458,0.291733,-0.001428,0.383187,0.174378,-0.145286,-0.298141,-0.177795,-0.601578,-0.510147,-0.563985,-0.014545,-0.435088,-0.407853,-0.368798,-0.514765,-0.109111,-0.130230,-0.313812,0.392089,-0.318279,-0.329072,-0.481604,-0.077419,-0.554008,0.285980,-0.486974,0.243651,0.162394,-0.288769,0.373406,-0.199104,-0.538030,-0.217225,-0.240945,0.426156,0.291701,-0.331849,-0.047738,0.274344,-0.550906,-0.059899,-0.065116,0.149718,0.297453,0.435795,-0.117477,-0.210423,-0.384968,-0.535190,0.224757,0.366833,-0.592817,0.102959,0.324648,-0.017673,0.278873,0.291090,-0.084515,-0.264783,0.395009,-0.274287,0.492213,-0.373042,-0.242819,0.203645,-0.376772,-0.575603,-0.255948,0.291041,0.287923,-0.354079,0.162315,0.061684,-0.095297,0.209744,0.277437,-0.372292,0.673471,0.447151,0.419584,-0.374842,-0.542857,0.308566,0.302388,-0.308750,0.289556,-0.531744,0.097246,-0.318830,0.533938,0.368056,-0.354704,0.515370
0.339027,0.036132,-0.079607,-0.312672,0.673244,0.390051,-0.080187,-0.148011,-0.004131,0.175165,-0.196934,0.318756,0.290918,-0.481499,-0.538365,0.118336,0.239423,-0.150131,0.388801,-0.398756,-0.190007,-0.369354,0.453845,0.409782,-0.465135,-0.022754,0.282812,-0.126892,-0.322407,-0.200706,-0.194418,0.080708,-0.262012,-0.288951,-0.403570,-0.493054,0.347775,-0.137182,0.120089,0.206480,0.278280,0.146011,-0.365433,0.043420,0.121688,-0.115039,0.229110,-0.352275,-0.326658,-0.328857,0.211255,0.192177,0.160857,0.304582,0.068083,-0.012531,-0.031699,0.443695,0.208935,0.015496,0.433826,0.014377,-0.220215,0.202824,-0.269200,0.268693,0.022271,0.089187,-0.406312,0.086142,-0.158232,0.488170,0.268698,-0.144619,-0.268881,0.336685,-0.461545,-0.404574,0.345399,-0.220363,-0.331249,0.265510,0.082766,-0.341876,-0.643104,-0.438459,-0.287714,-0.095122,0.260937,-0.028039,-0.232149,0.383025,-0.015718,-0.262114,0.415622,0.208017,0.102151,-0.201048,0.077509,0.402711,-0.319233,0.287517,-0.277798,-0.287979,0.347045,0.360527,0.030418,0.258449,0.025841,-0.255553,0.358335,-0.119481,-0.420941,-0.041235,0.229990,0.051702,0.337902,0.033866,-0.216680,0.092438,0.404377,-0.451127,-0.148362,0.264732,-0.395025,0.048870,0.090953,0.077396,0.102798,0.398509,-0.271778,0.063954,0.320547,0.021924,-0.276331,-0.021585,-0.313233,-0.305298,0.254938,0.359172,-0.339220,0.404948,-0.474961,0.156990,-0.112113,0.437426,-0.566654,0.221052,-0.395641,0.269702,-0.491901,-0.149061,0.045698,0.044690,-0.320746,0.196859,-0.402620,-0.396869,-0.180690,0.207873,0.025261,-0.192602,-0.065178,-0.611968,-0.268041,-0.477545,-0.006735,-0.146866,-0.370551,-0.557217,-0.412321,0.103844,0.136205,0.288672,0.023956,0.409704,-0.157019,-0.285825,-0.236605,-0.123992,-0.310777,0.150807,0.306811,0.288167,-0.438141,-0.369068,0.397421,0.313681,-0.309836,-0.376901,0.244245,-0.001364,0.101991,-0.265790,-0.643794,-0.527106,0.092723,0.179471,0.245291,-0.458102,0.488800,0.278449,0.410170,-0.267895,-0.369079,0.419370,-0.205915,0.341528,0.215877,0.067075,-0.137510,0.304408,0.373850,-0.162044,0.346730,-0.258669,-0.162043,0.405290,0.139076,0.484577,0.412938,0.322543,-0.251391,-0.280570,0.459543,0.367637,0.585946,0.141010,0.461852,0.140724,-0.046124,-0.366668,-0.167679,0.288448,-0.210052,-0.187409,-0.001787,0.153174,0.601704,-0.018600,0.308224,0.305097,0.113143,-0.037116,0.451470,-0.160325,0.089999,-0.180775,-0.431077,0.264040,-0.378494,-0.305811,0.035631,-0.056016,0.129078,0.004865
0.189677,0.031479,-0.186380,0.135781,0.458364,0.085636,-0.097725,0.071785,0.372883,-0.529314,-0.420759,-0.085508,-0.407021,-0.155909,-0.486850,0.104459,0.324693,0.613110,0.222819,0.108467,-0.278949,-0.126526,-0.258524,-0.342372,-0.416913,-0.372776,0.305485,-0.255931,-0.475935,0.009222,-0.298601,-0.406113,0.266198,0.291070,-0.339309,0.449475,0.219634,0.139327,-0.491482,-0.440727,0.369288,0.179934,-0.467161,0.226446,0.318703,-0.112782,-0.026057,-0.039922,-0.046191,0.340547,-0.066268,0.415150,-0.385827,-0.237650,-0.274362,0.372197,-0.224408,-0.081636,-0.124569,0.298861,-0.279951,0.326703,-0.157379,-0.245437,-0.206666,0.122514,0.072469,0.200861,0.001352,0.199615,-0.315888,-0.263706,0.369241,-0.136277,-0.165564,-0.396124,-0.286080,-0.460972,0.032128,-0.388426,-0.098735,-0.033220,-0.319833,0.355545,0.159895,0.233336,-0.424580,0.302525,-0.478244,-0.312458,-0.269790,-0.270065,-0.519453,0.195863,0.191638,0.175052,0.538603,0.013133,0.302513,-0.020692,-0.352783,0.558253,0.566414,-0.173177,0.211697,-0.296206,-0.079099,0.134479,-0.468593,-0.034811,0.172324,0.167284,0.165770,-0.354588,-0.081105,-0.375124,-0.316795,-0.359150,0.399058,0.008365,-0.465176,0.312493,-0.289092,-0.343551,-0.379012,0.283051,-0.186656,0.044672,0.247842,0.288070,-0.045113,-0.290663,0.030818,-0.328639,0.011063,0.259601,-0.350965,-0.322887,-0.342755,0.135583,0.353654,0.302403,-0.430358,-0.048898,0.082076,0.270631,-0.349749,0.399041,-0.222124,0.514724,0.193321,-0.067458,-0.269659,0.320713,-0.010787,-0.114325,-0.378808,-0.361937,0.476670,0.150624,0.443714,-0.218555,-0.578299,0.003716,0.306586,-0.252525,0.411139,0.147495,-0.194244,-0.152007,0.552216,0.598015,0.216153,0.157410,0.453413,-0.065981,-0.387875,0.457307,0.439610,-0.452433,0.455744,0.166961,0.319190,-0.495258,0.630578,-0.037892,-0.003001,-0.311164,-0.027561,0.191506,-0.447711,0.585596,-0.101690,0.113646,-0.216782,0.061120,0.167709,-0.066697,-0.500986,-0.169722,0.038007,-0.228272,-0.171991,0.184644,0.043569,-0.188090,0.375255,0.027840,-0.478342,-0.331269,-0.097110,-0.490561,0.107631,0.216707,0.182847,0.322691,-0.018640,0.096013,0.009240,0.305022,0.045118,0.376424,-0.391738,-0.083920,0.211943,0.398489,0.395593,-0.506182,-0.369418,0.385909,0.393011,0.366852,0.397770,-0.197004,0.435658,0.098766,0.037353,-0.029454,-0.438851,-0.374799,0.289435,0.195233,-0.099536,-0.168996,0.539610,-0.375851,-0.256090,0.257919,0.191992,-0.042302,-0.216857,0.424549,-0.130922,0.391776,0.161248,0.238434
-0.018405,0.030934,0.243293,-0.420891,0.497126,-0.361461,0.370293,0.327437,-0.371893,0.215979,-0.046053,-0.134733,0.340762,0.521006,0.424324,0.201570,0.050499,0.322730,0.125523,0.097696,-0.162245,0.365419,0.383590,-0.388458,0.050802,0.405196,-0.238047,-0.226010,0.459434,0.519859,-0.007706,-0.184114,0.041505,0.295464,-0.331421,0.328422,-0.035453,-0.478963,-0.096763,0.558537,0.028748,0.328690,-0.184467,0.368099,0.430751,-0.271792,-0.007135,0.580553,0.012407,-0.147516,0.024375,-0.018103,-0.425635,-0.033522,-0.242301,-0.228548,0.373155,0.112973,-0.371732,-0.582597,-0.201392,-0.177598,0.253549,0.112003,-0.123956,0.466639,-0.191833,0.490858,-0.071827,-0.192318,0.572036,-0.253490,0.182969,0.112871,0.508900,-0.451456,-0.218775,-0.191813,-0.304351,0.043671,0.026362,0.228113,0.090452,0.291703,0.008951,-0.289873,-0.058033,0.365617,-0.396117,0.399695,-0.038540,-0.500209,0.229557,0.029016,0.119812,-0.039775,0.491275,0.042665,0.360153,-0.239458,-0.325633,-0.157488,0.355772,-0.365952,-0.197817,0.181857,0.422624,0.348869,-0.588055,-0.255577,0.086072,0.401112,0.121091,-0.148491,-0.133136,-0.021186,-0.205354,-0.330317,-0.515190,0.263665,0.114948,-0.520630,0.348630,-0.573324,-0.206172,0.305735,0.277765,0.122822,0.091190,0.126568,0.404945,0.374026,-0.095093,-0.507475,-0.062145,-0.315735,-0.320841,0.241282,0.033875,-0.395470,0.420793,0.084040,-0.006542,0.103409,-0.465240,-0.562331,-0.141305,-0.441685,0.058192,-0.247293,0.355231,0.444314,-0.450486,0.360668,-0.546820,-0.376701,-0.357784,-0.411718,0.073825,-0.398353,0.352421,0.299783,-0.101025,0.380441,0.213835,0.395222,-0.325821,0.200013,0.469735,0.420154,0.098200,-0.353487,-0.555980,-0.219911,-0.282789,0.021625,0.339505,-0.048911,-0.291520,-0.334809,0.102124,-0.439744,0.217480,-0.359733,0.419196,0.108878,0.281689,-0.049419,-0.510620,0.052806,-0.296510,-0.354483,0.157248,0.187142,-0.169302,-0.187649,-0.518000,0.162427,0.300316,0.122197,-0.164439,-0.307701,0.258703,-0.516976,-0.206402,0.258237,0.232694,-0.060991,-0.331078,-0.524288,-0.054151,0.057212,0.461345,0.272410,0.080167,0.040124,-0.452544,0.020565,-0.250066,0.329605,-0.258672,-0.049445,0.062956,-0.183770,0.229056,-0.306588,0.380200,0.033229,-0.012912,-0.503595,-0.004968,-0.107897,0.344260,-0.456136,-0.339027,-0.034303,0.060948,-0.411392,-0.505539,-0.169607,-0.190891,-0.515659,-0.266674,0.525277,0.088391,0.066565,0.029097,-0.021852,-0.498754,-0.106459,-0.223690,-0.429342,0.132779,0.042398,-0.063552,0.438996
0.011528,-0.212019,0.172889,0.168487,-0.094808,-0.425286,-0.409344,-0.205843,0.502521,0.117514,0.420982,0.215724,0.102929,0.462833,-0.364614,-0.308026,0.235111,-0.283434,0.254358,0.255234,0.284940,-0.435793,0.479772,0.299002,0.367985,0.069573,-0.052385,-0.078547,-0.472574,-0.168242,0.475930,-0.406835,-0.390187,-0.011860,-0.113019,0.343867,0.367614,0.337026,0.019792,0.009447,-0.135362,-0.522235,0.210330,0.041365,-0.402037,-0.118127,0.001544,0.496992,0.033695,0.580843,-0.007926,0.153034,0.211417,-0.338346,-0.230793,0.345441,-0.188325,0.253310,0.368843,0.090677,0.171518,-0.225421,0.165090,0.407615,0.483484,-0.280245,-0.346712,0.422999,-0.074994,-0.396721,-0.314877,-0.347455,0.314398,0.056266,-0.238341,0.417894,-0.378469,0.236830,-0.019707,-0.019551,0.090626,0.455703,-0.246106,-0.332022,-0.171749,0.454904,-0.173517,-0.390918,-0.073242,0.016073,0.232462,-0.409834,0.458073,-0.144751,0.135960,-0.382378,-0.254275,-0.264159,0.478589,0.032416,0.253568,0.084146,0.292627,-0.268782,-0.422801,0.001540,0.108687,0.464530,-0.160091,-0.262279,0.393834,0.035886,0.247750,0.166745,-0.113166,-0.339090,0.241167,-0.352406,0.291834,0.321064,-0.226586,-0.057004,0.179499,-0.201407,-0.118334,0.206664,-0.436247,0.444493,0.112891,0.075622,0.377959,-0.480031,0.274067,-0.390819,-0.060720,-0.324445,0.173157,-0.104471,-0.212067,-0.028502,0.315586,0.148741,0.233060,-0.054414,-0.190323,-0.333740,0.303785,-0.029570,-0.270940,-0.042021,-0.125500,0.036040,-0.178331,-0.399534,0.074205,-0.087252,-0.289300,0.103442,-0.034543,-0.303780,0.533085,0.000668,-0.120509,0.369317,0.195897,0.376247,0.278120,-0.481045,0.061389,-0.479128,-0.474993,0.088415,-0.072605,0.171850,-0.275595,0.276774,0.194953,0.052849,0.301659,-0.209938,-0.396027,0.524164,-0.192732,0.237798,-0.086679,0.070112,0.335750,-0.644449,-0.255073,-0.131149,0.416441,-0.511094,-0.115756,0.388391,-0.064021,-0.339272,-0.496467,-0.502435,0.306245,-0.038481,0.233070,-0.504716,-0.466230,-0.036513,0.268597,-0.156549,0.156318,0.072118,-0.459832,0.032649,-0.350405,0.002617,0.096092,-0.298598,-0.118677,0.048316,-0.352064,-0.406460,0.247871,0.495606,-0.349177,-0.333319,-0.089512,0.260041,0.450047,0.343414,0.177413,0.499196,0.244950,0.447928,0.513803,-0.450520,0.000726,0.543567,0.495036,0.357187,-0.381515,-0.209431,0.250147,-0.013045,0.180262,-0.070908,-0.327122,0.442399,-0.316717,0.313314,-0.101376,0.415414,-0.168160,0.364096,0.424371,0.165086,0.080094,0.119396,0.267632,-0.181689
-0.300353,-0.296632,0.041136,0.090903,0.444701,0.404420,-0.134865,0.191761,0.165033,-0.320772,0.122868,0.257537,-0.283414,-0.434849,0.423172,0.386581,-0.018899,-0.031864,-0.185908,-0.325994,-0.368591,-0.044231,0.321878,0.142083,0.179143,-0.326883,-0.284541,-0.105174,-0.207178,0.153329,0.115369,0.615557,-0.197398,0.301842,-0.406723,-0.336831,-0.110760,-0.031231,-0.461864,0.110089,0.049218,0.314936,0.018584,-0.030855,-0.412969,0.607830,-0.016652,0.351489,0.148355,-0.444384,-0.331367,-0.377296,-0.331061,-0.008589,-0.024250,0.239787,-0.165666,0.120356,-0.094071,-0.211209,0.140586,0.322810,-0.003340,0.298083,0.084852,-0.325794,0.278497,-0.483102,0.354502,-0.016760,0.390172,0.484289,-0.129626,-0.179360,0.078411,-0.422010,0.499545,0.113140,0.087698,-0.501083,-0.575632,-0.376834,0.172319,-0.461753,0.250640,-0.081434,-0.262750,0.175508,-0.181762,0.264825,-0.345811,0.033214,-0.253683,-0.418964,-0.049346,0.121910,-0.542367,-0.283830,-0.432310,0.233998,0.432399,-0.045550,0.601375,0.281021,-0.137214,0.529221,-0.265886,-0.303063,0.257628,-0.314348,-0.449623,0.307183,-0.257147,-0.739301,-0.347582,-0.001208,0.230304,0.666540,0.518995,0.723771,0.012327,0.591567,0.131024,0.373143,0.272305,-0.055485,0.082614,-0.359942,0.013701,-0.312502,0.071410,-0.074647,0.509773,0.610927,-0.029113,0.338230,-0.044396,0.289702,0.334169,-0.581675,-0.484845,0.282752,0.284500,0.233629,-0.593924,0.245308,0.413970,0.418526,0.427977,-0.090692,0.012708,-0.048190,0.597670,0.157147,0.134522,0.304854,0.024397,-0.527713,0.313324,-0.328675,0.438327,0.282054,0.126397,-0.291988,0.022639,-0.385202,0.395337,0.391019,0.184884,-0.164032,0.136881,-0.681631,-0.583832,0.296704,-0.215739,-0.361066,0.288984,0.331928,-0.002663,-0.651426,0.008519,-0.472241,-0.042893,-0.169357,-0.189211,-0.194714,-0.388978,-0.212024,0.350056,-0.161566,0.085447,0.012995,-0.209709,0.327091,-0.056642,0.260182,-0.159416,0.270648,-0.133758,0.153603,0.544513,0.186633,0.173297,-0.114858,-0.570186,-0.241761,0.195430,0.284749,0.016439,0.033524,0.243465,-0.142267,-0.058002,0.420487,-0.148018,-0.280728,-0.278798,-0.559330,0.027750,-0.395243,0.200589,0.143424,0.067881,0.080235,-0.114715,0.147931,0.178177,0.035882,0.210354,0.090191,0.248329,-0.087138,-0.516035,0.487385,-0.259752,-0.169476,0.319156,-0.540350,-0.293715,-0.164381,-0.234046,-0.072473,0.624984,0.548616,0.012782,-0.339367,0.362936,0.286095,0.036857,-0.014267,-0.287431,-0.030123,-0.401748,-0.523434,0.243157,0.203199
-0.084900,0.506722,-0.016899,0.323758,0.059965,-0.319009,0.377265,0.177380,-0.605661,-0.581712,-0.400722,-0.139255,0.089952,-0.295995,0.142721,-0.010367,-0.342364,0.348415,-0.182435,0.344178,-0.340188,0.212036,-0.279375,-0.094622,0.137309,0.157086,-0.056974,-0.282122,-0.223970,0.103946,-0.073253,0.193094,0.046293,-0.406516,0.218709,0.087274,-0.163106,0.190899,-0.304133,0.391395,-0.547595,-0.351761,-0.383844,0.273781,-0.029054,-0.225863,0.142264,-0.318074,-0.146091,0.242515,-0.243747,0.352838,0.500900,0.355468,0.029263,-0.400530,-0.432135,-0.101084,0.154353,0.061334,0.307445,-0.408871,0.219723,-0.406151,-0.213198,-0.204081,-0.301726,-0.546697,0.268632,-0.136514,0.569688,0.142439,0.077527,0.136070,-0.163624,-0.049358,0.004273,-0.531678,0.137485,0.060133,-0.196380,-0.179030,-0.157453,-0.372672,-0.091830,-0.152293,0.393324,-0.239639,-0.050337,0.274793,-0.040511,0.161265,0.437966,-0.403387,0.415348,0.000836,-0.310116,0.183801,-0.189121,-0.074771,-0.179080,-0.114939,-0.129476,-0.532248,-0.439474,0.095632,-0.046235,-0.237384,0.107057,0.093579,-0.338421,0.491882,0.377424,0.503627,0.200762,-0.255937,-0.322626,-0.403307,0.222495,0.063754,0.073768,0.217421,-0.411778,0.023455,-0.423801,0.347138,0.495762,-0.254413,0.084514,0.108074,-0.144005,-0.453326,-0.345089,-0.269568,0.396869,0.562914,-0.082654,-0.092327,0.442419,0.173620,0.423936,0.459023,0.176956,-0.105812,-0.286479,-0.240346,0.042969,-0.303444,-0.028867,-0.284223,-0.245074,0.407536,-0.376934,0.007747,0.120500,-0.387260,-0.231086,-0.037057,0.082950,0.188758,0.149186,0.343814,-0.410765,-0.085666,-0.072786,0.416194,0.327504,-0.295147,0.037735,0.154153,-0.376483,0.248100,0.039207,-0.051351,0.170758,0.210893,-0.040783,0.260193,0.042062,0.489872,-0.368265,0.421463,-0.326601,0.519373,-0.117945,0.012870,-0.046519,-0.048187,-0.294856,-0.186939,0.046847,-0.376363,0.465660,-0.156127,0.173502,-0.086286,0.162271,0.669728,0.379862,-0.312003,-0.284267,-0.115345,-0.176878,-0.408588,0.088497,0.225209,0.272135,-0.496676,-0.042641,0.127209,0.109317,-0.304962,-0.040906,0.235833,0.096673,0.508265,0.127729,-0.179296,-0.444400,0.132863,-0.408954,-0.390924,0.113790,0.418132,0.235750,-0.216209,-0.039320,-0.507545,-0.189961,0.501754,0.262867,-0.079724,-0.582932,-0.480032,-0.017121,0.151965,-0.241347,-0.215394,0.319798,0.067289,-0.509759,-0.358800,-0.453004,-0.483233,0.159532,-0.511256,0.440466,0.211403,-0.293318,-0.297934,-0.479236,-0.561300,-0.166264,0.362243,-0.241581,0.030658
0.537583,-0.181279,-0.294057,-0.186777,0.682671,0.298886,0.433783,0.437950,0.383340,0.059099,0.102395,-0.083554,0.499760,-0.325623,0.565603,-0.070732,0.486016,-0.067076,0.204877,0.245483,-0.274013,0.325144,-0.259019,0.423229,0.187687,-0.242503,-0.317278,0.528167,0.388321,0.122266,-0.133876,0.478188,0.228577,0.440741,0.047657,-0.089103,0.055547,-0.086693,0.509704,-0.452975,-0.042427,0.453023,-0.026726,0.514435,0.197598,-0.211527,0.079496,0.340736,0.055120,-0.237749,-0.297785,0.023331,0.268159,0.157101,-0.037449,0.354818,0.162789,0.225431,-0.067820,-0.325987,-0.297369,0.119140,0.610823,-0.234351,-0.250436,-0.489027,-0.320355,-0.053015,0.345123,-0.039457,-0.534894,-0.338008,-0.123424,0.367182,-0.396937,-0.226979,-0.242458,0.220994,0.410187,-0.008934,0.076315,-0.016984,0.151888,0.006925,-0.451366,0.141832,-0.300176,0.007561,0.133325,-0.467861,0.108374,-0.329577,0.354871,0.039166,0.333865,-0.238859,-0.216532,0.406188,-0.298436,0.055283,0.239559,0.083923,-0.160806,0.268504,0.231099,0.136081,-0.049095,-0.313267,0.264244,0.136241,-0.273510,-0.245624,-0.372482,0.101138,-0.157802,0.117633,0.478051,0.455428,-0.087188,0.173655,0.440878,0.157636,0.170855,-0.329417,0.260382,0.115985,0.450801,-0.066080,0.282436,0.153790,0.222392,-0.402757,-0.169321,0.358217,-0.191655,-0.428484,-0.121864,-0.331690,0.194613,-0.521365,-0.447733,0.250345,-0.321043,-0.294607,-0.286801,0.256093,-0.162729,-0.303601,-0.094007,-0.585219,-0.416560,0.264110,-0.341481,-0.404167,-0.623445,-0.021900,-0.375020,-0.100163,0.003078,-0.416458,0.154518,0.343276,0.057674,-0.274244,0.414326,0.061744,-0.404402,-0.185566,0.325164,0.348120,-0.243133,0.333378,-0.106080,0.080207,-0.397224,-0.053404,-0.106758,0.420456,0.328141,-0.044316,0.179122,0.208388,0.198883,-0.414692,-0.360503,0.353225,0.011656,-0.123106,0.233597,0.326013,-0.533942,0.056603,0.001975,0.141568,0.469949,-0.335385,0.267441,0.396794,0.016325,0.239550,-0.095532,0.301343,-0.013177,0.415154,0.107196,0.022514,-0.116815,-0.428376,0.236364,0.316227,0.010088,0.147400,-0.439985,0.130339,0.363247,0.350750,-0.048870,0.047451,0.104357,0.540030,0.014240,0.039512,-0.134077,-0.010404,-0.270217,-0.143246,-0.094924,0.287837,-0.247279,-0.400191,-0.479808,0.380964,0.514500,0.163838,0.381574,-0.270688,-0.157435,0.387040,-0.494446,-0.230646,0.166090,-0.210027,-0.155970,0.409608,-0.184713,0.423316,0.416671,-0.260647,-0.397356,0.385103,0.545845,-0.362286,-0.207593,-0.320518,0.070834,-0.092150
0.302078,0.527364,-0.154896,-0.265283,0.390970,-0.583749,-0.383336,0.122677,-0.277666,0.278171,-0.204071,0.046909,-0.107580,0.120148,0.151515,0.261114,0.037400,-0.048084,0.141440,0.379606,-0.162327,0.089983,0.159050,0.254587,-0.148212,0.560472,-0.344092,-0.311369,0.122341,-0.185371,0.435375,-0.412921,-0.232124,-0.282931,-0.241066,0.287243,-0.008605,-0.003744,-0.164491,0.024403,0.037387,0.480956,-0.352289,0.217412,-0.313965,0.333840,-0.477431,-0.134292,0.120826,-0.071317,-0.622139,-0.220424,0.353041,-0.419703,0.285059,0.307166,-0.253019,-0.003838,0.456555,0.348817,0.029733,0.357152,-0.152224,-0.196553,-0.044242,-0.356241,-0.111396,-0.535295,0.090596,-0.371051,0.340223,0.106801,0.500541,-0.122936,0.256049,0.321876,0.477584,-0.475175,0.145955,0.120388,-0.007258,-0.507659,0.252009,0.067215,-0.131415,0.077803,-0.507529,0.275321,0.202442,-0.118510,0.236231,-0.206696,0.289658,0.232548,-0.214398,0.107769,0.114512,-0.164751,-0.068478,-0.114680,-0.242297,0.271947,-0.216785,-0.557226,-0.096442,-0.583249,-0.063018,-0.309228,0.270549,0.178272,-0.556880,-0.321064,-0.107891,0.455327,0.390392,0.255480,0.326971,-0.272933,-0.382008,-0.152207,-0.384615,0.119580,0.011785,0.017549,-0.391983,-0.504860,-0.158613,-0.092255,-0.343923,0.409862,-0.281450,-0.381797,-0.192541,0.267662,0.206464,0.308555,-0.102211,0.363657,-0.557294,-0.502848,-0.257618,-0.387373,-0.214827,-0.021073,0.430241,0.239425,0.013181,-0.106239,0.024722,-0.336335,0.267042,-0.302742,0.098756,-0.290118,-0.262805,-0.319897,0.199608,-0.156577,-0.327062,0.325952,0.036116,-0.521131,-0.079355,0.233674,0.501769,0.104615,0.559182,0.049583,0.071381,0.159360,-0.539104,0.357465,-0.153957,0.239898,0.259542,-0.301415,-0.430446,-0.474201,-0.409689,-0.434659,-0.257260,0.464925,-0.306135,-0.087133,-0.324497,-0.563998,-0.589269,-0.204876,0.192582,-0.463985,-0.177085,0.000327,-0.256501,-0.126974,0.017923,0.262696,0.388305,0.440503,0.079401,0.148825,-0.439852,-0.179400,-0.271159,0.173987,-0.249697,0.126354,-0.342920,-0.409009,-0.074433,-0.241675,-0.055991,-0.244386,0.329164,-0.172604,-0.391016,0.344483,-0.086663,0.220917,0.053100,-0.564835,0.097643,0.263817,-0.453370,-0.244525,0.167957,-0.187808,-0.000071,0.498926,0.598692,-0.042492,0.507930,0.432765,-0.476735,-0.489812,-0.054781,-0.384638,-0.001820,0.518720,-0.128180,-0.298289,0.339191,0.032399,-0.106081,0.037087,-0.304662,-0.457845,0.018053,0.093422,-0.274716,-0.011033,0.339082,0.148008,0.388505,-0.224804,-0.484692,-0.466481
0.269940,0.053810,-0.245692,0.009470,-0.112784,-0.025250,0.123884,0.063161,-0.363451,-0.020548,-0.179570,-0.138005,-0.359012,0.249237,-0.312449,-0.121809,-0.384887,-0.066023,0.241250,-0.097220,0.330828,0.063496,-0.257275,0.253125,-0.307262,-0.169706,0.305938,0.214140,-0.108010,0.178400,0.457301,-0.271202,-0.488643,-0.326859,0.090949,-0.388974,0.355835,0.415486,0.163953,0.212585,0.119778,-0.109984,-0.300066,-0.173626,0.475047,-0.302868,0.353212,-0.151153,0.302880,-0.017417,0.231809,0.096320,0.389541,0.062719,-0.058879,0.174572,-0.372458,-0.419445,0.350151,0.106223,-0.391079,0.269279,0.112427,-0.163904,-0.471221,-0.625428,-0.336984,0.061167,-0.180704,-0.390416,-0.006317,0.412551,0.171700,-0.178216,-0.047355,-0.456918,-0.121029,0.271502,0.387682,-0.488196,0.299138,-0.600604,0.320318,-0.362697,0.028761,-0.216562,-0.112147,-0.256886,-0.059305,-0.263810,0.283005,0.122058,-0.455240,0.097918,0.227295,-0.007995,-0.507218,-0.288673,-0.480775,-0.130102,0.340377,-0.253634,-0.213117,-0.704183,-0.227488,0.198425,-0.297929,-0.390040,0.247932,-0.000036,-0.377798,-0.196966,0.299001,0.070376,0.054566,-0.344403,0.250895,-0.037391,0.297180,0.382934,0.044482,0.443200,0.460716,0.025260,0.112962,0.027685,-0.045623,0.488962,0.307782,-0.018652,0.249961,0.290014,0.292728,-0.101815,0.330929,0.656426,-0.068286,0.219811,-0.062376,-0.081637,0.349011,-0.069827,0.057051,-0.217768,-0.334464,0.476904,0.253131,-0.310415,0.086069,-0.354902,0.103584,-0.404411,-0.167918,0.447041,-0.206912,0.054848,0.086639,0.100953,0.594386,-0.261851,0.209750,0.047083,0.332701,-0.435762,-0.008049,0.337155,-0.225444,-0.240362,-0.048174,-0.425984,-0.316190,0.368496,0.061491,-0.101358,0.403591,0.413301,-0.280630,-0.182564,0.358928,0.393307,-0.187356,0.049902,-0.310749,0.425234,0.126897,0.295599,-0.253885,0.515607,-0.018849,0.446605,0.306629,0.422010,-0.346485,-0.284253,-0.026914,-0.271181,0.488200,0.350168,-0.179911,-0.363592,-0.111081,0.321326,0.553640,-0.225189,-0.475975,0.042455,-0.445988,-0.158685,-0.257346,0.078329,0.319411,-0.349325,0.383119,-0.413207,-0.160606,0.554429,-0.224012,-0.153511,0.180579,-0.456857,-0.150618,-0.441341,-0.438914,-0.025969,0.373605,0.027871,-0.225957,-0.380602,0.302385,-0.373824,-0.328510,-0.028161,0.509227,0.280327,0.341909,-0.294764,-0.583216,-0.337485,-0.586001,-0.057576,-0.265707,0.174534,0.421237,0.184706,-0.008078,-0.130025,-0.229308,0.204181,-0.129582,-0.310906,-0.123832,-0.402957,-0.248382,0.428609,-0.487448,-0.617306
-0.282978,0.186292,-0.358051,0.486319,0.177056,0.355746,0.121696,0.204892,-0.029517,0.371236,0.087735,0.199818,0.297056,-0.084936,0.031711,-0.179718,-0.529629,-0.295976,0.224030,0.119866,0.442084,0.209517,0.067325,-0.094692,0.120100,-0.246575,0.104369,0.022964,-0.171461,0.153223,0.334416,-0.360930,0.060510,0.120055,-0.049570,0.275265,-0.007715,-0.192815,-0.185911,0.040081,-0.231514,0.343289,0.526047,-0.333414,-0.265769,0.163347,0.364391,-0.163382,-0.247868,0.149622,-0.088501,-0.028041,0.278782,-0.273320,-0.269279,-0.121636,0.466495,-0.107048,-0.000810,-0.219071,0.405770,0.192437,-0.252146,-0.113646,-0.300013,0.423865,0.482338,-0.045225,0.092152,-0.179630,-0.289860,0.235858,0.185531,-0.427946,-0.360736,0.140792,-0.154931,-0.298825,0.473327,-0.381862,-0.103632,-0.138407,0.248436,-0.371009,0.106372,0.349942,0.023038,0.378168,0.013282,-0.045758,0.423508,-0.281999,-0.072500,0.441482,0.073843,0.378997,-0.304851,-0.060275,0.290162,0.230826,0.344381,-0.092606,-0.206778,-0.200111,-0.467689,-0.068761,-0.264931,0.199987,-0.361872,0.084325,0.296439,-0.426663,-0.146761,0.057373,-0.380416,-0.279908,-0.447910,-0.184861,-0.085821,0.040183,0.126106,0.475511,0.359411,-0.396675,-0.370160,0.394850,-0.387800,0.210133,0.340289,0.252199,0.221827,0.250990,0.111528,0.497285,-0.111081,0.434684,0.368241,0.203078,0.518369,-0.219253,-0.323289,-0.062355,-0.298198,0.338548,-0.194606,0.375008,0.541023,0.353079,0.509603,0.574204,-0.312258,0.497917,0.035701,0.307123,-0.087315,-0.018368,0.187023,0.314350,0.272456,-0.041565,-0.003634,0.308535,-0.318440,0.573337,-0.436820,-0.173761,0.610660,-0.108326,0.103306,-0.417024,-0.327086,-0.168383,0.271767,-0.388498,0.095703,0.182152,0.247633,0.174775,0.225906,-0.088735,0.442199,-0.305329,0.299399,0.067125,-0.510067,-0.185866,-0.452696,0.126276,0.365911,-0.455252,0.259267,-0.085815,0.007599,0.244133,0.560709,0.015740,0.393559,0.511567,0.414897,0.001753,-0.290493,-0.286958,0.154331,-0.097981,-0.270104,0.126479,0.117175,0.218833,0.140256,0.452346,0.042904,0.291925,0.140074,0.010756,-0.359755,-0.006578,-0.016920,0.344913,0.004880,0.025804,0.011676,-0.196111,-0.278909,-0.246937,0.042147,0.196913,0.248441,0.425094,0.116817,0.328275,0.041933,-0.154484,0.276340,0.190320,0.159246,0.148463,0.005880,0.004849,-0.323474,-0.125206,0.373348,0.266435,-0.372442,-0.155629,-0.262082,0.530929,-0.059882,-0.276019,0.224400,0.271202,-0.333456,-0.166414,0.365767,0.201335,-0.022964,0.441798
