0.433379,0.189653,0.289413,0.788805,-0.023987,-0.295715,0.064373,-0.270236,-0.012463,-0.409430,-0.202747,-0.040627,0.243185,0.314192,-0.174287,0.195725,0.341557,-0.166307,-0.604418,0.290627,0.299647,0.416906,0.342186,-0.220108,0.142842,-0.160946,0.142848,0.127184,-0.225374,0.321785,0.436767,0.178231,0.250400,0.271495,-0.590039,0.196612,-0.095464,0.406977,-0.459945,0.001923,-0.038073,0.074313,0.332286,0.151115,0.091863,-0.186723,-0.052780,-0.174000,-0.231000,-0.395662,-0.517037,-0.617872,-0.290096,-0.183159,-0.257968,-0.065617,-0.256557,0.158558,0.555996,0.670513,-0.358203,0.455717,-0.583936,-0.609833,-0.326985,-0.685915,-1.014063,-0.103794,-0.448394,0.104982,-0.692949,0.324886,0.105358,0.130657,-0.228908,0.014450,-0.084647,-0.134057,-0.111680,-0.208524,-0.476161,-0.075156,-0.234823,-0.696954,-0.716761,-0.717260,-0.074051,-0.286350,-0.269800,-0.218124,-0.319958,-0.308543,-0.616797,-0.104445,0.299808,-0.137321,-0.380034,-0.021891,-0.439965,-0.304220,0.101740,-0.563923,-0.318309,0.433164,0.391121,-0.093013,-0.311859,-0.570635,-0.458751,-0.492247,0.251788,0.172554,0.502447,0.578227,0.550934,-0.244288,-0.244888,0.295125,0.174681,0.318802,0.101046,0.054455,0.501462,0.129643,-0.222486,-0.946654,-0.240982,0.684129,0.159546,0.831624,-0.306323,-0.470771,-0.268356,-0.402546,-0.680556,0.108138,0.079831,-0.208873,0.190150,0.060582,0.211938,0.309990,-0.004864,0.816296,0.015922,0.207638,0.447914,-0.724839,-0.348202,-0.689264,-0.610757,-0.366251,-0.326545,-0.362018,0.164277,0.415000,-0.111177,0.246658,-0.182964,0.192558,0.496028,-0.204381,-0.320129,0.252368,-0.546712,-0.589692,-0.373819,-0.044968,0.279365,-0.246857,0.181625,0.391530,0.218063,0.071524,0.273279,0.227679,0.088854,0.235752,-0.175529,0.118942,0.192501,-0.443251,0.663564,0.271136,0.469784,-0.183765,-0.317978,0.283352,0.351746,0.124694,0.326324,0.314301,-0.250159,0.161830,-0.134565,0.057196,0.684357,0.375642,0.519459,0.646848,0.300849,-0.120464,-0.124606,0.108590,-0.676426,0.289863,-0.528266,-0.293195,0.514298,-0.212128,0.529543,0.460448,0.291165,0.271581,0.300158,-0.017486,-0.044037,-0.243471,0.211457,-0.042345,-0.338381,-0.184765,0.063891,-0.209181,-0.080957,0.157790,-0.505561,-0.202185,-0.349247,-0.107632,-0.137676,0.479281,0.246149,0.167009,0.155428,-0.548982,-0.378019,-0.115127,0.255384,-0.429148,-0.227825,0.490157,0.672523,0.198712,0.204482,-0.151827,-0.110755,0.361507,-0.087931,-0.284256,-0.541156,-0.558351,0.029056,-0.281216,-0.000331,0.135628
-0.359148,-0.072990,-0.286559,-0.791363,-0.038090,0.490773,0.447724,0.229548,-0.460970,0.427981,-0.266585,0.234787,0.355994,0.007308,0.363443,-0.109837,-0.557979,-0.670942,-0.619437,0.007434,0.186684,0.039619,-0.496263,0.111021,-0.438710,-0.355281,-0.269535,0.212467,-0.391234,0.080536,-0.415334,0.203747,-0.958574,-0.005822,-0.389252,-0.382048,-0.536680,-0.569010,-0.360220,-0.615395,-0.071642,-0.113246,0.425111,-0.506567,-0.657050,-0.575265,-0.211747,0.181554,-0.631870,0.124759,0.165310,-0.448290,-0.058944,-0.803628,-0.429670,-0.359440,0.222371,-0.538579,-0.628342,0.250567,0.179241,-0.316189,-0.281217,-0.550541,0.334715,-0.042757,0.370980,-0.641808,-0.578355,-0.062580,-0.342722,-0.452393,0.196257,-0.719060,-0.518181,-0.061442,-0.628106,-0.577637,-0.082766,-0.442934,-0.160598,-0.281640,0.091324,-0.653231,0.196119,-0.238685,-0.000376,-0.274043,0.198594,-0.037282,-0.351521,-0.271088,-0.592923,-0.418008,-0.079022,-0.551577,0.020433,0.100958,-0.375344,-0.708572,0.132533,0.414702,0.418011,0.198831,0.081839,0.202113,-0.125836,-0.279327,-0.092366,-0.467923,-0.259141,-0.087341,-0.339305,-0.179803,-0.000861,-0.724758,-0.392389,0.332604,0.283492,-0.252830,-0.408901,0.160396,0.415715,-0.128451,-0.600897,-0.631738,-0.139399,0.078879,0.442778,0.076888,-0.148491,0.537095,0.126107,0.071573,-0.179362,0.140533,-0.290556,0.562635,0.018720,0.120496,-0.389923,0.069012,-0.319603,-0.174690,0.234065,0.274484,0.737892,-0.129557,-0.404390,0.407211,-0.072256,-0.391683,-0.063125,0.053854,-0.039225,-0.542095,-0.422881,0.159075,0.131940,-0.577824,-0.083872,0.344564,-0.234500,0.160655,-0.202736,0.088450,-0.480267,-0.422133,0.087864,-0.476162,-0.250901,-0.093064,-0.028299,0.001645,0.153909,-0.293619,0.054707,0.508778,0.252675,0.332814,0.319453,0.060233,0.009114,-0.143885,-0.309501,0.090248,0.335049,-0.050465,-0.176027,0.187278,-0.060752,-0.313375,0.061451,0.477914,0.239673,0.015626,-0.354363,-0.184885,-0.139962,-0.211688,-0.105184,0.077697,0.360306,0.214681,-0.354101,0.108762,0.602214,-0.415742,0.115622,-0.509183,-0.158907,-0.168832,0.251760,-0.065788,-0.113374,-0.028186,-0.224756,-0.622852,0.380575,0.038317,0.026503,0.284559,0.181322,-0.261012,0.024666,0.336333,0.339067,0.047308,0.036710,0.388915,0.153920,0.341594,-0.281367,-0.230865,0.111958,0.047900,-0.179712,-0.586914,-0.238672,-0.716380,-0.234412,0.031020,-0.655917,-0.701623,-0.753167,-0.477118,-0.270255,0.304754,0.252225,-0.031410,-0.184159,-0.461004,-0.665437,-0.487654,-0.164854,-0.954182
-0.053181,0.255495,-0.106718,0.158899,0.449063,-0.041888,0.719269,0.897049,0.397029,0.760769,0.692467,0.598830,0.920702,0.210255,0.276558,-0.340930,0.146423,0.310456,0.189917,0.085823,0.136945,0.182340,0.501579,1.020171,0.911155,0.256149,-0.303404,0.322145,-0.054605,0.166125,-0.294812,-0.451155,0.497250,0.845187,0.147484,0.989528,0.544921,0.516590,0.112775,0.052135,-0.435639,-0.031735,0.033055,-0.801160,-0.829252,-0.965525,-0.213192,-0.163946,0.487995,0.225285,0.736276,1.010969,1.093765,-0.278047,-0.267809,-0.124174,0.031337,-0.332142,-0.612868,-0.658784,-0.870223,-0.801277,-0.165698,-0.094163,-0.247970,0.295733,-0.082431,0.855795,0.510544,0.154461,0.514251,-0.178905,-0.416291,-0.203416,-0.838297,-0.628264,-0.021518,-0.512007,-0.601104,0.286659,0.047912,-0.061838,0.027998,0.494432,0.023751,0.295532,0.465339,0.156349,-0.746695,-0.463069,-0.563434,-0.163468,-0.429835,-0.376164,-0.008631,0.654262,0.230634,-0.203030,0.488620,0.068572,0.279762,0.796413,0.307156,0.612478,-0.213456,-0.044489,0.031014,0.093630,-0.659552,0.230706,0.004753,-0.002598,0.636237,0.462036,0.359560,0.036359,0.377203,0.199109,0.097381,0.425813,0.241729,0.412656,-0.085161,-0.455979,-0.597203,-0.498701,-0.260124,0.543102,0.564077,0.314849,0.773405,0.094488,0.004582,-0.384451,0.329251,0.348888,0.128661,-0.108884,0.333953,0.216293,-0.211655,-0.140566,0.309057,-0.238643,0.081546,0.019249,0.249552,0.401432,-0.282707,-0.165056,-0.351746,-0.323310,0.640251,0.840513,0.183437,-0.211023,0.084463,0.336721,0.562586,-0.463214,-0.323703,0.688600,0.511001,0.326993,-0.120976,-0.136712,-0.236131,0.226677,0.266367,-0.246838,0.058528,-0.114304,0.033587,0.983854,0.959610,0.379255,0.788725,0.540840,0.483864,0.495386,-0.218905,0.019469,-0.378832,-0.467997,0.348311,0.698076,-0.390219,-0.519609,0.337796,0.391399,0.449669,0.135082,0.922639,0.503250,0.844491,-0.097528,0.200155,0.105390,0.072299,0.134606,-0.022409,0.406398,-0.412251,-0.291750,0.055189,0.403284,0.352850,0.420253,0.265545,0.615335,0.290626,0.047456,0.335497,0.486616,0.085029,-0.327317,-0.317062,0.582596,0.238984,-0.160819,-0.945095,-0.099320,-0.013065,0.460222,-0.033999,0.065843,0.576317,0.619277,0.476290,0.275312,0.232558,0.776798,0.114927,0.112806,0.031131,0.323199,0.037409,-0.210499,-0.310962,-0.743732,-0.015008,0.494247,0.005651,-0.020983,0.735022,0.494964,0.969488,0.093241,0.756296,0.643892,0.007969,-0.215038,-0.294036,-0.249312,-0.011746,-0.229624
-0.281159,-0.157812,0.243935,0.273082,0.247919,0.162226,-0.009831,-0.085532,-0.564762,-0.300799,0.081104,-0.042154,0.222664,0.533626,0.388374,0.460626,-0.273962,-0.204678,0.024058,-0.177096,-0.064205,-0.901164,-0.889188,-0.177585,0.161938,-0.248831,0.061919,-0.132846,-0.386863,-0.132113,0.184213,0.443607,0.267094,-0.199603,-0.382464,-0.226376,-0.107267,-0.351592,0.490334,0.135746,0.510437,-0.138988,0.097308,0.462204,0.150716,0.230767,-0.287162,0.493186,-0.456392,-0.386314,-0.455966,-0.637163,-0.025281,-0.113078,-0.089346,0.518889,0.669612,0.181163,0.730956,0.438945,0.063320,-0.451604,0.013237,-0.379345,0.055072,-0.234292,-0.527331,-0.112055,-0.130269,-0.192693,-0.297992,0.324140,0.470942,0.244755,0.552883,0.387564,-0.041779,0.494978,-0.485598,-0.039222,-0.213760,-0.611829,-0.389709,0.125191,-0.135101,0.280394,0.529187,-0.111551,-0.389771,-0.135020,0.208000,0.782736,0.335179,-0.182100,-0.374208,-0.102281,-0.647383,-0.713825,0.446591,0.381667,-0.217270,-0.160821,-0.299827,-0.456417,0.046742,0.039889,0.167698,-0.044530,0.416266,-0.142518,-0.163442,-0.201965,0.094763,-0.177194,0.130240,0.335222,0.319682,-0.349135,0.411966,0.343101,-0.141588,-0.332995,0.303008,0.521241,0.091831,0.211517,-0.243642,-0.120948,-0.426071,-0.178968,-0.563244,0.383398,0.361621,0.261762,0.799210,0.234953,0.677572,0.897493,0.161438,0.877440,-0.023301,0.289462,-0.252115,-0.204623,0.215754,-0.572074,-0.639495,-0.141401,0.265244,-0.014329,0.348752,0.341013,0.052854,0.741690,0.106294,0.153384,0.619197,0.109442,-0.259538,-0.634886,-0.360098,-0.087160,0.336249,0.122492,0.082251,0.341503,-0.388018,0.370251,0.556927,-0.403548,-0.370644,0.005889,-0.139930,0.465414,-0.099331,0.412684,-0.152783,0.239889,0.331072,0.002589,0.196359,-0.474943,-0.023315,-0.359544,0.381665,0.126150,-0.255852,0.162486,-0.455639,0.311765,-0.437191,-0.288778,0.367074,-0.049377,-0.044298,-0.215919,-0.084271,-0.605768,-0.123593,-0.391956,-0.412886,-0.077776,-0.029447,-0.081156,0.137555,0.145312,-0.087311,-0.024363,-0.298026,0.311678,0.321411,0.004655,0.201004,-0.316785,0.018690,-0.511539,-0.584905,-0.440852,-0.395179,-0.277397,0.123830,-0.726028,-0.216784,-0.165857,-0.291194,0.466212,-0.124102,-0.120132,0.454463,0.440631,-0.108571,0.166704,0.016007,0.136563,0.294323,-0.088609,0.026673,-0.028466,-0.525241,0.242215,0.324753,-0.028212,0.392657,0.553608,0.552421,-0.030729,0.182559,0.578784,0.373575,0.289383,-0.222786,0.867097,-0.314035,-0.228285,-0.503168,0.556745
-0.017370,0.270410,-0.091625,-0.063721,0.271004,0.334525,-0.511032,0.015426,0.279424,0.068462,-0.474071,0.853276,0.132444,-0.207412,0.291086,0.215709,0.007327,-0.267167,0.481102,0.151975,-0.407110,0.600343,0.177096,0.184665,0.167714,-0.590349,-0.366610,-0.067891,0.430485,-0.302144,-0.222097,0.027664,-0.161805,0.661610,0.022007,-0.010684,0.078558,0.056492,-0.069910,0.350872,-0.266740,-0.631212,-0.324444,-0.024480,-0.001135,0.411946,0.111713,-0.098934,-0.408921,0.211741,0.478601,-0.094453,-0.148312,0.165940,0.364505,0.287811,0.224912,-0.615165,0.071191,-0.743414,-0.524940,0.436476,-0.030694,-0.067722,-0.293780,0.545092,0.627095,0.623740,-0.029136,0.379159,-0.449390,-0.497773,-0.575405,-0.367657,-0.158108,0.063620,0.200366,0.764309,0.479142,-0.114781,-0.364374,0.445212,0.135548,0.462607,-0.199428,0.028950,0.109276,-0.604024,-0.228276,0.293069,0.010295,-0.282174,0.442804,0.082823,-0.393091,0.313232,-0.092490,-0.231056,0.241022,0.177008,-0.192523,0.042685,-0.745371,-0.570976,0.044463,0.660421,0.192232,0.292981,0.391087,-0.301429,0.183597,-0.174070,-0.126080,0.130248,-0.267894,-0.123195,0.270850,-0.368380,0.520454,0.518098,-0.173237,-0.390489,0.436335,-0.019100,-0.356924,-0.017000,-0.288233,0.018558,-0.379895,-0.017686,-0.136278,-0.187885,-0.174936,0.318569,0.389933,0.301852,0.510310,-0.614905,-0.572222,-0.400113,0.179174,-0.097611,0.153838,0.218124,0.020716,0.673629,0.134335,0.404067,-0.215037,-0.268095,-0.241618,-0.084728,-0.267671,0.107909,-0.028735,0.300003,0.083645,-0.099523,-0.526411,-0.128426,0.117037,0.389813,-0.393131,0.506490,-0.346939,0.344528,-0.105679,0.622831,0.123322,0.373383,-0.307354,0.498043,0.349395,-0.317853,-0.046750,-0.475672,0.580525,0.528927,-0.039375,-0.086197,-0.445733,0.268645,-0.058782,0.016743,0.617225,0.154696,-0.285933,-0.077858,-0.337088,0.252591,0.059351,-0.528004,-0.214966,0.223726,0.141413,-0.322941,0.176252,-0.198767,0.014750,0.333675,-0.531618,-0.323432,-0.219028,0.280192,-0.174172,-0.680821,-0.288618,-0.647156,-0.666970,0.098071,-0.684732,-0.436125,-0.298972,-0.435426,-0.506088,-0.743951,-0.533011,0.143025,0.340532,-0.003415,0.071110,-0.600713,0.397258,-0.569155,-0.539002,-0.799206,-0.190475,0.246162,0.211375,-0.273121,0.345362,-0.328516,0.016339,-0.010700,-0.258387,-0.003645,-0.364279,-0.032419,0.195983,-0.223987,-0.902715,-0.905467,-0.330703,0.168377,0.451865,0.641107,0.399853,-0.438842,-0.618797,-0.143797,-0.022200,-0.140897,0.526116,0.071782,-0.381305,-0.535351
0.770897,0.598230,0.507830,0.436908,-0.376209,0.916058,0.493907,0.212248,-0.247988,0.459145,-0.153346,-0.137258,1.014447,1.267169,0.410304,1.095670,0.374189,-0.257710,0.198188,0.353155,0.416310,-0.220864,-0.161802,-0.408844,-0.639565,-0.701692,0.425601,0.049227,0.596949,0.883699,-0.141424,0.065269,0.786665,0.307758,-0.158557,-0.290918,0.327055,-0.599167,-0.671183,-0.608502,-0.592727,0.189378,0.709104,0.913406,0.621517,0.059238,-0.266744,-0.531851,-0.270449,-0.123712,-0.450476,-0.017687,-0.016067,-0.295152,-0.355908,0.200579,-0.413718,0.302219,0.180562,0.727637,0.324948,-0.127447,-0.544080,0.129718,-0.018461,-0.638842,-0.189438,-0.208062,0.601725,0.603396,-0.225615,-0.535924,0.126621,0.242826,0.490379,-0.275230,-0.483511,0.144022,0.227670,-0.243614,-0.424490,-0.226774,0.096150,-0.287582,-0.064368,0.488762,-0.754409,-0.520627,-0.593474,0.317261,-0.301914,-0.474984,0.224940,-0.336596,-0.416920,-0.079679,-0.833379,0.158867,0.077210,0.576039,-0.075478,-0.434618,-0.848100,-0.016089,0.487458,0.036302,-0.392593,-0.223333,-0.214970,0.192291,-0.387796,-0.435017,-0.048872,0.224854,0.420748,0.779925,0.247148,0.049505,0.153204,0.139095,0.544837,0.314457,0.303417,-0.705180,-0.305752,-0.035706,-0.009647,-0.590518,-0.240788,0.207805,-0.156906,-0.358848,-0.303416,-0.091858,-0.021036,0.540138,0.656219,0.574747,0.252241,0.084701,-0.402509,-0.342995,-0.292195,-0.428988,0.417290,-0.099049,-0.018757,-0.054967,0.070320,0.059558,0.220295,0.381636,0.328421,-0.158107,0.230593,-0.036142,-0.433599,0.084803,-0.197447,0.671421,0.219801,-0.566864,-0.245333,0.767536,0.568960,0.367786,0.280871,-0.128091,-0.499118,-0.554249,-0.211630,-0.408045,-0.040488,0.222545,-0.004871,0.363137,-0.455144,0.030200,0.259371,0.531283,-0.006783,0.162525,0.240848,0.295205,-0.659010,-0.901773,-0.068473,-0.624984,-0.247240,-0.099828,0.415483,0.068948,-0.055736,-0.460004,0.195117,-0.202917,-0.173606,0.532171,-0.229839,-0.408994,0.739371,0.221645,-0.098003,0.132242,0.041798,-0.434955,-0.372398,-0.527840,0.040942,0.174652,-0.365609,-0.142928,0.620977,0.355468,-0.139038,0.009390,0.735305,0.115740,-0.332174,-0.284658,0.021398,0.157777,-0.454280,-0.154463,0.080312,0.558687,-0.034384,0.677261,-0.014976,0.299868,-0.043461,-0.267291,0.432530,-0.581220,-0.343511,-0.376664,-0.691424,0.205725,-0.085800,0.023063,0.313521,0.689984,0.251267,0.895144,0.798786,-0.143593,-0.081936,0.444479,0.409664,0.096912,-0.251528,-0.720916,-0.157984,-0.334828,0.051834,0.513921
-0.063174,-0.086050,-0.123593,-0.050376,-0.163063,0.072523,-0.210655,-0.569842,-0.061526,0.072836,0.109145,-0.211605,0.373323,0.427936,0.594374,0.717379,0.031112,0.398344,0.324464,-0.393943,0.002724,0.574901,0.137824,0.580153,0.072040,-0.470161,-0.407022,0.150346,-0.079327,0.549729,0.476283,0.348604,0.264397,-0.561728,-0.504250,-0.209411,0.550014,0.172078,0.490909,0.081695,-0.658481,0.337429,-0.138134,0.239497,0.289138,0.611998,0.108186,-0.029887,-0.297487,0.249350,0.388015,0.158768,0.099577,0.181930,0.359693,-0.547265,-0.088085,0.537345,-0.495989,-0.245121,0.247742,0.157705,0.537296,-0.150603,-0.256353,0.668822,0.698727,0.539099,0.370115,0.571129,0.585377,0.308652,-0.229107,-0.225171,-0.108620,-0.489151,-0.161313,0.005951,0.208759,0.137013,0.428388,0.352284,0.414391,0.795202,0.334620,0.980520,0.024748,-0.042183,-0.173968,-0.206704,-0.521916,-0.375903,0.280212,-0.152777,0.675577,-0.173235,0.093041,0.313856,0.020513,0.765613,0.474291,0.475706,0.481530,-0.392461,0.143198,0.081988,-0.372635,-0.138595,0.001002,0.186927,-0.087937,-0.099222,-0.390718,0.471354,0.025215,0.083939,-0.338805,0.227000,0.341789,0.093256,-0.156127,-0.014616,0.723948,0.469386,0.657151,0.619294,-0.385230,-0.299797,0.314786,-0.418096,-0.453452,0.300582,-0.505933,0.292135,-0.172231,-0.170063,-0.388242,0.283758,-0.196858,-0.008810,-0.219732,-0.100804,-0.367111,-0.245977,-0.372998,-0.347463,0.167692,0.291769,0.128463,-0.365294,0.259937,-0.529274,0.007103,0.264948,0.161474,0.359078,0.589110,-0.001768,-0.686245,0.303717,0.245810,-0.283758,-0.064131,-0.468179,-0.514744,0.050499,0.340223,-0.250073,0.304021,0.247309,0.037075,0.011514,0.515245,-0.215466,-0.649047,-0.250934,-0.274970,-0.321122,0.035154,-0.132065,0.157355,-0.227499,0.014801,0.261839,-0.161416,-0.080185,-0.278519,0.455508,0.664778,0.220616,0.012796,-0.310982,0.088780,-0.287169,0.380239,0.536604,0.376323,0.801784,0.475514,0.353284,0.413203,0.032027,0.436033,-0.045791,0.245689,-0.466864,-0.606986,0.158416,-0.373631,0.069251,0.669053,0.168281,0.181433,0.038724,-0.069856,0.060847,-0.123763,-0.305616,-0.199965,0.304733,-0.367299,-0.338185,-0.460894,0.577222,0.356050,0.004587,0.336445,0.402011,-0.235594,0.223799,-0.193291,-0.400708,-0.365716,-0.376222,-0.449473,-0.118858,0.365794,-0.244176,0.175562,0.145061,0.278786,0.806595,-0.411944,0.034830,-0.090199,0.325157,0.238321,-0.013301,0.165130,-0.289890,0.139074,-0.133971,0.041181,0.005662,-0.097466,-0.137157
0.168779,-0.008036,0.348708,-0.138928,-0.113159,0.156394,-0.049947,-0.720382,-0.305155,-0.259352,-0.209380,-0.612227,-0.402387,-0.242553,0.102390,0.096770,-0.341906,-0.081411,-0.552904,-0.386748,0.061608,0.170747,-0.004295,-0.069282,0.233281,-0.229957,0.008972,-0.148057,-0.185601,-0.037132,0.046852,-0.415787,-0.042122,0.265766,0.371355,-0.065175,0.405039,0.261433,-0.082616,0.366774,-0.272683,-0.034973,0.115286,0.482927,0.288593,-0.174594,0.128443,-0.175870,-0.315844,-0.207427,-0.080187,0.464006,-0.412226,-0.206514,0.336343,0.433811,-0.199141,-0.421625,-0.011621,0.383037,0.066379,0.252238,-0.026352,0.160073,0.092014,-0.330456,-0.291657,-0.237543,-0.067620,0.238472,0.275383,0.296248,0.305343,-0.057724,-0.103181,0.080920,-0.342319,0.142921,-0.186642,-0.047326,-0.493177,0.297247,-0.299922,0.096591,0.377556,-0.718329,-0.208907,-0.380561,-0.096237,-0.461658,-0.139941,-0.308044,-0.329589,0.437950,0.479705,0.102896,-0.241876,-0.245220,-0.552265,-0.324951,-0.743804,0.127641,-0.719784,-0.151540,-0.345587,0.452197,-0.562264,0.025257,-0.091713,-0.036543,0.056327,0.225923,-0.110604,-0.390783,-0.027227,-0.250256,-0.536995,-0.445122,-0.022869,0.375442,0.136368,-0.038991,-0.215929,-0.301683,-0.011873,0.467595,0.238709,0.724356,0.264865,0.238120,0.149043,0.346752,0.260140,-0.172793,-0.079379,0.584652,0.153051,0.455536,-0.304844,0.008777,0.256476,0.113520,0.085935,0.333239,0.344568,0.183209,-0.637270,-0.126667,0.350371,0.611652,0.103472,-0.289807,0.159740,-0.382803,-0.222345,0.462712,0.487949,0.631677,-0.206569,0.473679,-0.329540,-0.378639,-0.321165,0.079059,0.553087,0.621610,0.325040,0.259546,-0.486424,0.053942,-0.173904,0.574880,-0.306188,-0.298951,-0.085441,0.431313,0.170844,0.132297,0.366271,-0.184677,0.731741,0.170095,0.301195,0.576871,-0.250344,0.629672,-0.054008,0.023201,-0.356455,0.198723,-0.172103,-0.315239,-0.165818,0.361880,0.035077,-0.385192,0.091009,0.294506,0.553724,0.304016,-0.061956,0.491373,-0.362732,0.309122,-0.013314,0.208340,-0.112026,0.292784,-0.317619,-0.159091,-0.191167,-0.127345,0.160466,0.134136,0.656720,0.166445,0.198577,-0.452975,0.357874,0.578544,0.051013,-0.154760,-0.237045,-0.656523,-0.549269,-0.202819,-0.472924,-0.145095,-0.630189,-0.700095,-0.487962,-0.547366,-0.691945,-0.854785,0.104282,-0.025762,0.320104,-0.007806,-0.090145,0.268440,0.269380,-0.283429,-0.234813,-0.675183,0.286510,0.169953,-0.358343,-0.334512,-0.611194,0.266870,-0.345978,-0.221718,0.365591,0.103910,0.307772,-0.001922
-0.633263,-0.160785,-0.498255,0.262305,0.059669,-0.429644,0.525022,0.530567,0.566850,-0.023499,-0.471028,-0.213492,-0.460015,-0.462931,-0.815207,-0.685270,-0.045520,-0.296718,-0.009297,0.104899,-0.413559,0.410951,0.167385,-0.029739,-0.470576,0.068724,-0.080125,-0.008352,-0.169217,0.473651,-0.133601,-0.028961,-0.398441,-0.183828,0.341539,-0.162485,-0.039471,0.250728,-0.010364,0.068998,-0.125079,-0.705366,-0.123706,-0.261810,-0.306506,-0.485073,0.276642,-0.724976,-0.086047,-0.502819,-0.226377,0.164285,-0.069717,-0.056696,-0.093796,-0.120025,-0.468960,-0.316680,-0.126692,0.224631,-0.087389,-0.194759,-0.321035,-0.454542,0.045532,-0.132927,0.319497,-0.243421,-0.286813,-0.631334,0.029716,-0.705657,-0.571396,-0.267673,0.203661,-0.671518,-0.543027,-0.049237,0.008688,0.058865,-0.281186,-0.061820,0.235076,-0.077518,-0.653512,0.027581,-0.164276,0.017527,-0.620609,-0.228089,-0.059590,-0.482462,0.080993,0.579156,0.655270,-0.068452,-0.511607,0.356645,-0.777068,-0.816306,-0.413654,-0.513203,-0.310465,-0.603669,-0.378647,-0.261955,0.341517,-0.433435,0.406549,0.326857,0.289546,-0.424871,-0.017882,0.217498,-0.562533,-0.013417,-0.501846,-0.008579,-0.408876,-0.892494,0.055617,0.024105,-0.452051,0.247802,0.529125,0.009599,0.228189,-0.130943,-0.346313,-0.037091,0.263403,0.553807,-0.076853,0.208193,-0.091009,0.154308,-0.193768,-0.506527,0.350072,0.574502,0.670918,-0.153999,-0.472196,-0.133306,0.091792,-0.224410,0.287047,0.280232,-0.048465,0.249140,-0.372803,-0.308505,0.175388,-0.446225,0.096608,-0.140351,0.028495,0.429601,-0.505561,-0.656832,0.162113,0.077279,-0.308508,0.336077,-0.042207,0.104890,-0.315531,0.023857,-0.639720,-0.540954,0.393466,0.035833,0.247149,0.394548,-0.016917,0.034610,-0.257930,0.087745,0.008792,-0.019021,-0.250019,-0.544915,-0.337810,-0.498080,-0.705761,0.311659,-0.134918,-0.216968,-0.472696,0.217640,-0.629453,0.123018,-0.076302,0.085120,-0.277321,-0.110595,-0.328148,-0.562254,-0.340421,-0.755295,-0.604280,0.227999,0.447518,0.055264,-0.326644,-0.226508,-0.058591,-0.642431,-0.500952,0.445045,0.241942,-0.358594,-0.440453,-0.350211,0.302657,-0.395689,0.100648,0.286223,0.543849,-0.289217,-0.078083,0.087999,-0.407791,0.190892,-0.562424,-0.431402,-0.297060,-0.476952,-0.204438,0.258867,0.018127,-0.135272,0.419317,-0.133029,0.137537,0.699418,0.175332,0.224392,0.337716,0.016576,-0.244714,-0.146279,-0.026521,0.099389,-0.535857,-0.486335,0.025927,0.178035,0.053512,-0.341541,0.457877,-0.242176,-0.270133,0.029993,-0.349042,-0.783777
0.176641,-0.378694,-0.215845,-0.500059,0.042032,-0.149109,-0.334955,0.297322,-0.213794,-0.121420,0.245818,-0.008797,-0.089626,-0.398720,-0.090839,-0.282812,0.321272,-0.368658,-0.239359,0.371726,0.223960,0.100080,0.330533,-0.041467,0.174333,-0.577064,-0.240280,0.118400,0.516445,1.045753,0.495402,-0.569405,-0.323320,-0.315875,0.245656,-0.350811,0.226568,0.648611,0.217487,0.143567,-0.191306,-0.470654,0.397558,-0.046055,0.115069,0.791521,-0.147454,-0.237737,-0.413417,-0.109918,-0.204572,0.081390,0.237012,-0.285471,0.204090,-0.472359,-0.073533,-0.102619,-0.037003,0.322906,-0.577425,0.401570,0.309925,-0.331386,-0.545436,0.006510,-0.186705,0.180740,-0.288006,0.061567,0.194604,-0.419766,-0.155020,-0.036595,0.006048,-0.211103,-0.010844,0.330187,0.504509,-0.277821,-0.382274,-0.167563,0.205201,0.231552,0.018849,0.005981,0.176071,-0.496810,-0.559301,0.088713,-0.414524,-0.790153,-0.436986,-0.248402,0.155065,0.836376,0.092327,-0.057325,0.320617,-0.110687,-0.104146,-0.262571,-0.047670,-0.413457,0.393162,-0.024110,-0.703810,-0.747615,0.075787,0.248702,0.809243,-0.010753,-0.250629,-0.162103,0.676108,0.413425,0.122536,-0.210283,-0.115562,-0.221962,-0.022576,0.331017,-0.494753,0.033361,0.161821,0.377228,0.599846,0.315268,0.113105,0.068776,-0.013667,-0.236973,-0.214233,-0.315394,0.035944,0.050734,0.318467,-0.016722,-0.502687,0.208010,0.284796,0.754071,0.276941,0.376158,-0.735845,-0.710899,-0.154323,0.285795,-0.423059,-0.317760,-0.301325,0.748558,-0.125829,0.364888,0.337582,0.117537,0.004713,0.433290,-0.265960,0.262150,-0.179650,0.119689,-0.655493,-0.065911,-0.345886,0.120822,0.241663,0.114526,0.973750,0.278567,0.588708,0.485749,0.291732,-0.279030,-0.363001,-0.526016,-0.161372,-0.473640,0.378686,0.054362,-0.336512,-0.012719,0.096343,-0.263632,0.321105,0.458216,0.218857,0.378533,0.074479,-0.473033,-0.347247,-0.024429,-0.559004,-0.622754,0.251643,-0.526302,-0.341319,-0.215433,-0.560926,0.290127,0.426820,-0.075803,0.564142,-0.028086,-0.643103,-0.339406,-0.781568,-0.573997,-0.890668,0.054097,0.183579,0.211315,-0.077383,-0.243501,0.571810,-0.035394,0.280935,0.098216,0.253533,-0.363936,-0.474555,-0.917328,-0.612551,0.222778,-0.302566,0.111561,-0.395440,0.109143,-0.020065,0.224165,-0.223634,-0.529522,0.108796,-0.571245,-0.143967,-0.028008,-0.456935,-0.604765,-0.635494,-0.412289,-0.108461,0.109096,0.142820,0.215033,-0.102994,-0.056610,-0.729004,-0.411237,-0.117611,-0.569952,-0.173527,-0.333314,-0.302904,-0.454742,-0.801823,0.164427
-0.441304,0.057468,0.176877,-0.371982,0.106314,0.584380,0.792488,0.382797,0.152027,-0.411543,-0.015549,-0.417352,-0.236476,0.186631,-0.072607,-0.356161,0.419883,0.293184,-0.188051,-0.142286,0.626641,0.161731,-0.000002,-0.257576,-0.179454,-0.110170,-0.121234,-0.206484,0.625021,-0.233351,-0.030538,-0.544295,0.043001,0.336722,-0.295858,-0.288726,-0.232100,-0.680325,-0.778276,-0.493742,-0.015646,-0.060243,-0.162657,0.259312,0.025447,0.416195,-0.339594,-0.443254,-0.512292,-0.318835,-0.362747,-0.568727,-0.001728,-0.075494,-0.033898,-0.368378,-0.167416,0.241028,0.445216,0.096834,0.409873,0.191763,-0.288752,-0.190724,-0.345454,-0.262241,-0.437454,-0.068639,0.210327,-0.222424,-0.022724,0.032911,0.384180,-0.087274,0.587553,0.213798,0.369755,0.271019,0.354992,-0.537513,0.203840,-0.703491,0.163335,-0.797143,-0.070920,-0.119321,-0.214694,0.090250,0.347376,0.108678,-0.190884,-0.504178,0.440493,0.552829,-0.143938,-0.466392,-0.004283,0.270045,-0.018418,0.135240,-0.182446,0.182064,-0.232267,-0.295415,0.533082,-0.238584,0.549952,-0.192395,0.534282,-0.316920,-0.136033,-0.031131,-0.247212,0.146309,-0.309448,-0.749642,-0.356159,-0.161999,0.258751,0.024810,-0.031927,0.917134,0.088130,0.147202,0.470482,-0.122933,-0.346516,-0.136745,-0.758623,-0.544161,-0.243770,0.329145,-0.336311,0.656923,0.100843,0.532669,0.038019,0.165611,0.520265,0.705861,-0.533651,0.197243,-0.108804,-0.136681,-0.099402,-0.229983,-0.138538,-0.135698,-0.498286,0.376529,0.258567,0.165975,-0.056708,0.236765,-0.369442,-0.273920,-0.207605,-0.439877,0.303529,-0.402634,-0.951117,-1.107530,-0.922639,-0.205031,0.036396,-0.328104,0.323498,-0.025583,-0.557622,-0.564351,0.166716,-0.477980,-0.987524,-0.104650,0.397178,0.152692,-0.327752,-0.844476,-0.576131,0.059947,-0.116660,0.121907,0.078374,-0.473958,0.268076,-0.336820,0.348973,0.111925,-0.919508,-0.074298,0.367231,-0.189636,-0.476412,-0.137519,0.097867,-0.661425,-0.699639,-0.290863,-0.157617,-0.437770,-0.145836,0.023598,0.393366,-0.599751,-0.080465,0.410915,-0.222360,-0.283473,-0.022013,-0.375268,0.262659,-0.542727,-0.241202,-0.024155,-0.403929,0.184366,0.134977,0.547053,0.013991,0.045850,-0.776130,-0.087328,-0.051664,0.020076,-0.771481,0.508600,0.688862,0.138922,0.777760,0.128321,0.029717,-0.035457,0.093792,0.014515,0.149539,0.281963,-0.376467,-0.238933,-0.258402,-0.308230,-0.546377,-0.322909,-0.235061,-0.118472,-0.379552,-0.105742,-0.372182,-0.212127,0.028742,-0.105349,0.105150,-0.581971,-0.012704,0.217934,-0.611855,-0.739350
0.244951,0.489930,-0.102002,0.477498,0.081563,0.383083,0.628358,0.455968,0.547392,-0.139026,0.455796,-0.045649,-0.371878,0.297350,-0.094916,-0.104231,-0.058050,0.585947,0.418633,0.298830,0.500426,0.065244,-0.314742,0.139199,0.173239,0.260279,0.257545,-0.036537,0.425134,0.363866,-0.037217,-0.259762,0.456371,0.492121,0.471719,0.636313,0.197889,0.231905,-0.409692,-0.108811,-0.139409,0.377168,-0.210748,0.639574,0.305399,-0.069891,0.076144,0.013363,0.300088,-0.058483,0.330176,-0.031286,-0.041871,0.103860,-0.140603,-0.246318,0.020651,0.129656,0.508325,0.246311,-0.365110,-0.478631,-0.077018,0.019970,-0.678680,0.118833,0.048190,0.295736,-0.126210,0.113329,0.199972,-0.300236,0.268603,0.065310,-0.052456,-0.132041,-0.326750,-0.651008,0.047156,0.163703,-0.456157,-0.116986,-0.069121,0.024774,0.349639,0.148444,0.217051,-0.472973,-0.015015,-0.347170,0.171894,-0.144201,0.294299,0.103493,0.136838,0.146312,-0.709972,-0.721727,-0.360254,-0.174647,-0.736857,0.074624,-0.279340,0.469669,0.229837,0.250277,0.199071,0.116643,0.086669,0.522812,0.428882,-0.421759,-0.697143,-0.155168,-0.403497,-0.358305,0.446036,0.104491,0.382376,-0.052951,0.104124,0.308268,0.145408,0.320561,-0.025955,0.356721,0.171850,-0.214867,-0.719282,0.028151,-0.090438,0.218666,0.682008,0.602658,-0.015038,-0.138211,0.138612,0.059810,0.303670,-0.191622,0.109945,-0.303100,-0.354896,-0.285048,0.016962,-0.526840,-0.881878,-0.030056,-0.008178,-0.577633,-0.438799,-0.095739,-0.581010,0.045832,-0.300859,0.595072,-0.142258,0.066876,-0.208970,0.053370,0.093362,-0.180869,-0.400134,-0.470648,0.054497,-0.146132,0.408984,-0.382071,0.206551,0.119418,-0.321318,-0.034419,-0.248310,-0.353720,-0.013395,-0.657802,-0.023621,0.149144,-0.328662,-0.028848,-0.351721,-0.416439,-0.332874,-0.800350,-0.458771,0.525875,-0.279075,0.144726,0.136395,-0.044643,0.076299,0.308859,0.434633,0.346763,0.227755,0.570297,-0.005623,0.234363,0.073283,0.749662,-0.144090,0.087164,0.228891,0.007091,0.009473,-0.233148,0.441150,0.068198,0.383377,-0.128050,0.112148,-0.024600,0.547884,0.220738,-0.531747,0.353631,0.754530,0.078961,0.408251,-0.531873,-0.409298,0.550077,0.518196,-0.082042,0.242617,-0.228133,-0.156279,0.481666,-0.091446,-0.302919,0.067048,0.674173,0.144162,0.932038,0.294862,-0.041478,0.022089,0.756579,0.309354,0.147277,0.357051,-0.244529,-0.329935,0.257724,0.271958,0.373198,-0.021404,-0.012837,0.347189,0.377510,0.322971,0.306055,0.398354,0.469103,0.952779,0.118294
-0.301369,0.095358,-0.127977,-0.297226,0.257988,-0.480692,-0.376565,0.221470,-0.953665,-0.548948,-0.767550,-0.382999,-0.475422,0.310513,0.107403,0.366678,-0.136769,-0.460484,0.051379,-0.333823,0.029757,-0.405601,0.237380,-0.981718,-0.740075,0.732579,-0.070186,-0.106883,0.723402,-0.542330,-0.258707,-0.402471,0.012517,-0.321102,0.307378,0.030770,-0.035503,-0.164054,-0.981304,-0.053229,0.714395,0.380832,0.294672,-0.261809,0.447623,-0.178424,-0.813966,-0.582102,-0.476381,0.308641,0.026614,0.546070,0.107654,0.029213,-0.563710,-0.588470,0.410753,0.022352,0.126045,-0.125629,-0.480203,-0.079537,-0.547660,-0.605867,-0.327662,-0.412557,-0.059009,0.070991,0.134225,0.466971,-0.460023,0.188103,-0.380506,-0.209162,-0.516368,-0.831616,-0.047754,-0.714210,-0.891897,-0.515203,0.041290,-0.072055,0.658112,0.058311,0.321659,-0.513364,-0.640503,-0.051364,-0.119918,-0.155457,-0.136612,0.402940,-0.540628,0.065110,-0.246974,-0.170890,-0.307564,0.391494,0.550678,0.152805,-0.012504,0.114309,0.221276,0.137756,-0.294755,0.194112,-0.136759,0.265786,-0.114628,0.185934,-0.678221,-0.111975,-0.453869,0.187690,0.682839,0.754713,0.945924,0.241670,1.073463,0.458297,-0.138667,-0.205957,-0.306427,0.047685,-0.078789,0.134638,0.339268,-0.217244,0.552093,0.140690,0.576880,0.203159,0.856635,0.505136,0.756286,0.374189,-0.346204,0.061820,0.571760,0.421793,0.468178,-0.437495,0.015231,-0.022326,0.807102,0.321852,0.549074,0.392555,0.518801,0.472602,0.589306,0.534616,0.285885,0.155915,0.127382,0.758727,0.529594,0.481051,0.152334,-0.104868,0.334448,-0.003780,0.374805,0.012119,0.607843,0.346019,0.250756,-0.216805,0.201396,0.020096,0.082958,0.230317,0.417242,-0.202502,0.298395,0.439769,0.600253,0.188117,0.167579,0.463993,0.232679,-0.243325,0.257073,-0.232294,0.040248,0.443686,0.770335,0.118853,0.073114,-0.463348,-0.437991,-0.082663,0.295527,-0.513740,-0.205565,0.579756,0.203266,0.226553,-0.614751,-0.058080,-0.382398,-0.382106,-0.077880,0.444428,-0.155151,-0.024948,-0.654592,-0.282206,-0.681338,0.002275,0.061479,-0.236651,0.031325,-0.000693,-0.202885,-0.480691,0.185300,-0.296428,-0.173844,-0.685011,-0.524404,-0.488943,-0.114704,-0.240074,-0.464990,0.420496,-0.201944,-0.330470,-0.695127,-0.412850,-0.108654,-0.003961,-0.293371,-0.160180,-0.502827,-1.181813,-0.630249,-0.565280,0.053739,-0.332184,-0.861177,-0.049030,0.143603,0.170914,0.090365,-0.119886,-0.113032,-0.416530,-0.663663,-0.563014,-0.414434,0.066113,0.320238,-0.086499,-0.016260,0.108791
-0.617720,-0.259401,0.398697,0.217826,0.165944,-0.287357,-0.412744,0.118736,-0.101735,-0.933661,-0.517388,-1.031443,-0.706386,0.072085,-0.346349,-0.233137,-0.204254,-0.389787,-0.171503,0.018494,-0.178294,-0.645670,-0.503339,-0.167940,-0.543220,-0.631343,-0.737913,-0.685104,-0.084135,0.118491,-0.188160,0.201261,0.079961,0.284843,-0.043132,0.146578,-0.492164,0.413612,-0.052205,-0.017514,-0.057228,-0.661301,-0.188625,-0.404522,0.533740,0.502132,-0.183884,0.332359,-0.597925,-0.118946,-0.666160,-0.288720,0.093319,-0.689175,-0.773378,0.318822,0.086670,-0.295018,-0.842694,0.279880,0.119306,-0.370607,-0.214981,0.068069,0.008432,-0.110706,-0.027920,-0.393338,-0.366403,-0.676444,-0.335027,-0.833732,-0.158503,-0.320036,0.131985,-0.332620,-0.370591,-0.163485,-0.225468,-0.315195,-0.643024,-0.049948,0.396826,0.437303,-0.192356,-0.524647,-0.202754,-0.175303,-0.156667,0.163723,-0.048057,-0.397909,-0.145375,-0.334774,0.298501,-0.585464,-0.633722,-0.697446,-0.481890,0.071450,-0.166546,0.253233,-0.655153,0.064694,0.353800,0.001239,0.083620,-0.239231,-0.865727,0.008036,-0.515861,0.190536,0.119611,0.231047,-0.168365,-0.620321,-0.203041,-0.193883,0.275158,0.190736,0.556549,0.508436,0.651766,-0.648347,-0.523105,-0.567650,-0.159847,-0.616714,0.223613,0.058527,0.179423,0.652423,0.399812,-0.158196,0.903729,-0.184746,-0.230879,0.750909,-0.141480,0.119953,0.245096,0.357939,-0.166262,-0.291587,0.265655,0.155888,0.575306,0.153424,0.012828,0.125522,-0.440430,-0.393546,0.027713,-0.068479,0.062546,-0.454053,-0.514058,-0.844734,-0.051810,-0.377421,0.409235,0.135632,0.108555,0.206828,-0.290062,-0.561010,0.510471,0.374977,0.692347,-0.271888,-0.202392,-0.527269,0.515084,0.032495,-0.211408,-0.807096,0.069671,0.408211,-0.259969,-0.524452,-0.125514,-0.021342,0.325905,0.339390,0.187300,0.003999,0.353181,-0.300953,-0.353731,-0.256844,-0.597261,-0.034832,-0.171787,0.106001,0.280462,0.296697,0.203340,0.302921,0.085988,0.241579,-0.031782,0.024229,-0.010729,0.193588,-0.365394,-0.449569,-0.170292,-0.276482,-0.640812,-0.198640,-0.265261,-0.022762,-0.201732,-0.031728,0.252919,0.141978,-0.270792,-0.377954,0.362756,-0.557939,0.069152,-0.181448,-0.158321,0.305836,-0.339041,0.028878,-0.462331,0.265722,-0.052183,-0.077773,0.309557,0.134887,-0.165394,-0.596082,-0.316147,-0.668079,0.128108,-0.698920,-0.730832,-0.028973,-0.116516,-0.181232,-0.547258,-0.532958,0.322541,0.203334,0.584883,0.431009,-0.006878,0.321860,-0.568272,-0.114382,-0.013648,-0.613301,-0.517867,-0.284543
0.667801,0.501814,0.063250,-0.114063,0.380204,0.039672,0.174138,-0.114436,0.065782,0.212966,0.537016,0.223728,0.473772,0.011941,-0.527591,-0.181536,-0.220364,0.304210,0.769499,0.649821,-0.353231,-0.396712,0.060753,0.410503,0.345297,0.293325,0.595651,-0.166353,-0.431990,-0.400247,-0.343913,0.180631,-0.085137,0.185871,0.480002,0.081769,-0.192017,-0.101701,0.040810,-0.273793,-0.272559,0.268727,-0.450671,0.117397,-0.407970,0.279635,0.263257,0.377059,0.283372,0.524550,0.232499,-0.326426,-0.568875,-0.124322,-0.405955,0.354624,0.054058,-0.158897,0.231355,-0.493769,0.147960,-0.640752,0.505503,0.639405,0.140786,0.365485,-0.202446,-0.320421,0.091931,-0.601312,0.443807,-0.180361,0.705638,-0.034207,-0.111210,-0.099481,-0.663722,-0.283667,-0.488207,0.365735,-0.163587,0.057585,-0.430120,0.320728,-0.126879,-0.293105,0.136591,0.866411,0.657681,0.195590,-0.248678,0.405147,0.480819,-0.059607,-0.201728,-0.359995,0.426897,0.266654,0.163979,-0.075259,0.043721,0.812061,0.297432,0.744491,-0.251342,0.194523,-0.080667,0.054419,0.127677,-0.224819,0.231253,-0.000039,-0.341084,0.182874,-0.156628,0.003677,0.003312,0.507585,0.658137,0.356346,0.381226,-0.037904,-0.080468,-0.019646,0.539880,0.002949,0.052213,-0.429499,-0.451703,0.091663,-0.356428,-0.269302,0.181659,-0.341131,-0.245671,0.333946,0.312495,-0.037614,0.453610,0.048575,-0.061156,-0.091568,0.332893,0.040341,-0.237993,-0.415393,0.095226,-0.171287,-0.030346,-0.028112,0.048867,-0.710114,0.120779,-0.306064,-0.421168,-0.359297,0.609654,0.358123,0.279711,0.402811,-0.380145,0.021828,-0.234963,-0.571926,-0.725794,-0.025994,-0.256603,-0.031191,0.046991,-0.078216,-0.195791,-0.149989,-0.081879,0.408437,0.470206,0.086602,-0.386390,-0.210601,-0.663489,0.126728,0.174988,-0.278685,-0.237926,-0.237268,0.120229,0.124659,0.255483,-0.139118,0.692758,0.008858,0.592230,0.351250,-0.634827,-0.562262,-0.522997,0.304291,0.426066,-0.011165,0.208262,0.012804,0.053254,0.042490,-0.416630,0.342319,-0.060447,0.473240,0.351399,-0.010401,0.187381,-0.078523,-0.546143,-0.161119,0.545011,0.101149,-0.405594,-0.446893,-0.317819,-0.518247,-0.371842,0.260003,-0.244445,-0.194889,-0.244947,0.169803,0.202526,0.142657,-0.359344,0.296528,0.394894,0.154241,-0.408725,0.442340,-0.156483,-0.427836,-0.340101,-0.456199,0.067847,0.279471,-0.553837,-0.583966,-0.004616,-0.306723,0.214038,0.151878,-0.072540,-0.033322,0.291441,0.305076,0.137061,-0.137308,-0.148998,-0.625646,0.224232,0.036879,-0.404032,0.203830
-0.397884,0.290284,0.508820,-0.242518,-0.125854,0.029253,-0.008563,-0.190290,-0.161559,0.286893,0.238342,-0.296512,-0.289079,-0.204111,-0.337773,0.095636,0.366467,-0.092279,-0.159155,-0.483021,-0.413933,-0.534013,0.077342,-0.116968,-0.554015,0.378108,0.525878,0.494155,0.162936,-0.277751,0.102787,-0.081016,-0.532872,-0.353692,0.226152,0.149178,-0.410674,-0.758178,0.070356,-0.304715,-0.087484,0.573227,0.334602,0.474757,0.011549,0.083995,-0.918885,-0.416989,-0.230039,0.128544,-0.466728,-0.439864,-0.576987,-0.539953,-0.102258,0.185177,0.051980,0.677833,0.669039,0.140254,0.022064,-0.469743,-1.231311,-0.708290,-0.282172,-0.372094,-0.229812,-0.703336,-0.154250,0.041097,0.628016,0.337464,0.364403,0.077118,0.667568,-0.135950,0.158272,-1.012084,-0.575633,-0.506572,0.001173,-0.375004,0.086949,-0.504210,-0.835275,-0.111007,0.062604,-0.065673,0.479275,0.617167,0.344690,0.355879,-0.266927,-0.861811,-0.858411,-0.832358,-0.384040,0.012883,0.253555,0.156482,-0.237572,0.545412,-0.063845,0.743537,0.882881,0.486142,0.146880,0.131467,0.330302,-0.082705,-0.743503,-0.884263,0.131732,0.222124,0.087828,0.159931,-0.226610,0.142135,0.784320,0.341120,0.543892,0.448281,-0.131943,-0.238119,0.032134,-0.215968,-0.102521,-0.043511,-0.784016,-0.028768,-0.731330,-0.185377,0.356932,0.460396,-0.250206,0.137654,-0.354929,0.172991,-0.398310,-0.684301,-0.273082,0.152491,-0.031178,-0.170363,-0.095186,-0.292151,-0.384733,-0.336653,-0.569403,-0.174215,0.037117,-0.071141,-0.142668,-0.344240,0.035838,-0.178630,0.302857,0.113448,0.638489,0.389632,0.057661,-0.000799,-0.253301,-0.392861,-0.527801,0.420737,-0.007972,0.223333,0.182687,-0.100475,-0.559777,-0.154209,0.019071,0.079649,0.361990,-0.243350,-0.283791,-0.231376,-0.146254,-0.129811,-0.128352,-0.085845,-0.021549,0.167490,0.276738,-0.754187,-0.085248,-0.025193,-0.369187,-0.296464,-0.060366,0.202846,0.042392,-0.185893,-0.122118,0.245936,-0.301371,0.401534,0.480909,0.014413,-0.128406,-0.389645,-0.408174,-0.004733,0.220774,0.137360,-0.010339,0.422407,0.306319,0.432286,0.344352,-0.006097,-0.045639,0.331939,0.405962,-0.317746,-0.293503,0.227632,-0.103026,-0.042605,0.446196,0.214785,-0.100320,-0.450459,-0.212324,0.627383,0.522440,-0.128594,0.817374,0.520693,-0.033764,0.030800,-0.171703,0.449546,0.591519,0.405714,-0.214815,-0.370189,-0.473520,-0.329639,0.548331,-0.263257,0.080614,-0.156488,-0.002612,0.035320,-0.170926,0.482419,-0.099130,0.238989,0.339602,-0.441437,0.186609,-0.406543,-0.369624,-0.358361
0.491730,0.056762,0.270242,-0.101737,0.670342,0.857690,0.055373,0.186807,-0.308266,-0.538731,-0.223050,-0.341567,-0.162402,0.194563,0.410539,-0.029739,0.328033,0.130770,0.024784,0.377732,0.384041,0.121352,0.255931,-0.437216,0.397014,0.037647,0.099360,0.365932,0.214250,-0.220005,0.224239,0.486700,-0.200187,0.408411,0.629888,0.060087,-0.166241,-0.025955,-0.438620,-0.164979,-0.006826,0.110511,-0.256034,0.385310,-0.335620,-0.032301,-0.268606,0.337849,0.266888,-0.121471,0.601281,0.227040,-0.565430,-0.266473,0.544235,0.720558,-0.227821,0.698258,0.124106,0.281666,-0.170594,0.181256,-0.187354,0.375502,-0.247267,0.384416,0.360204,-0.173685,-0.172236,0.240193,-0.016121,0.722894,-0.027468,0.126536,-0.315051,-0.631344,-0.370524,0.106433,-0.112684,0.375360,0.269930,0.059638,-0.430115,0.384902,0.519896,0.344314,0.675391,0.406486,0.450577,-0.304577,-0.057198,-0.151042,-0.315221,0.335481,-0.327577,-0.464837,0.130179,-0.084637,-0.044288,0.586912,0.658042,-0.158916,-0.263684,0.481950,0.192136,-0.259070,0.088692,-0.287598,-0.069225,-0.192695,-0.309937,0.313478,-0.062355,-0.428719,0.175665,0.031128,0.425587,-0.221345,0.082060,0.083677,-0.277157,-0.480553,0.492408,-0.042844,-0.144877,-0.212434,0.161477,-0.308933,-0.014034,0.073664,-0.321985,-0.430101,-0.243818,-0.224682,-0.259479,-0.634792,-0.632908,-0.621655,-0.115719,-0.285677,0.079595,0.089694,0.544502,0.206732,0.421234,0.448328,-0.001325,0.204814,-0.166406,0.200884,-0.091664,-0.183498,0.149481,-0.244179,-0.225943,-0.232551,-0.271197,0.189431,0.300729,0.286836,0.152258,0.570983,0.448917,0.549014,-0.329523,-0.024292,0.326306,-0.100300,0.331824,0.507151,-0.310515,0.563140,0.173862,0.052134,-0.363778,-0.137314,0.538954,-0.054734,0.359853,-0.245993,0.411504,0.030417,-0.300432,-0.029852,0.100773,-0.345757,-0.152278,0.417234,-0.392504,0.496887,-0.169591,0.455307,0.382842,-0.360792,0.155561,0.410678,0.379581,-0.068619,-0.070318,0.012181,-0.143859,0.092122,0.645317,-0.383856,0.075057,-0.146546,0.432482,0.872528,0.293743,-0.325792,-0.453647,-0.170565,-0.287099,0.268565,-0.110291,0.340415,0.403219,-0.355629,-0.221904,-0.536522,0.399255,-0.273660,0.348072,0.063907,-0.131193,0.427065,0.425613,0.375567,-0.185782,-0.325065,0.536626,-0.392396,0.112246,0.165894,-0.624444,-0.223536,0.330284,-0.274661,-0.138226,0.006715,0.343056,-0.076325,0.253811,0.592626,0.001425,0.517166,0.200631,-0.557193,0.169854,-0.190428,-0.538844,0.168477,0.364338,-0.029096,0.303549,0.561868
-0.088483,0.046589,0.321697,-0.225769,0.262087,-0.097331,-0.073168,-0.150132,0.263498,-0.060807,-0.021352,-0.059766,0.257563,0.384398,-0.204151,0.606704,0.523667,-0.335374,0.022470,0.146625,0.049588,0.201355,-0.354735,0.432888,0.033058,-0.052177,0.005922,-0.318010,0.160091,0.156780,0.254242,-0.229230,-0.078141,0.307174,0.298599,0.253645,-0.136813,0.061034,-0.218495,0.352670,0.207515,-0.023543,-0.337682,0.264045,0.372708,0.352453,0.075790,0.311417,0.187944,0.167914,0.162677,0.540120,0.322337,0.337851,-0.353319,0.048859,-0.158567,0.331069,-0.279668,-0.333349,0.567972,-0.460444,0.385533,0.297916,0.372716,-0.424837,-0.463782,0.527044,0.544587,0.413370,-0.136733,-0.137826,-0.085339,0.341052,0.087032,-0.213063,0.051274,0.439312,0.281839,0.338637,0.042879,-0.235836,-0.437778,-0.009206,0.134584,0.055052,0.349845,0.044050,-0.182385,0.135136,0.154336,-0.369650,-0.312112,-0.224878,-0.086090,-0.118183,0.412045,0.046207,-0.199875,-0.271881,-0.024990,-0.051817,0.470336,0.221884,0.179423,-0.210379,0.455141,0.247866,0.268174,0.200070,-0.090629,0.278185,-0.201137,0.164896,-0.199518,-0.075855,0.467066,-0.066103,0.317897,0.686349,-0.199944,-0.126686,0.154624,0.071433,-0.368397,0.377802,0.082260,0.607264,0.132713,0.062289,-0.154773,0.084805,-0.242892,0.610514,0.780968,-0.139077,-0.057957,0.133744,0.321240,-0.006040,-0.471497,0.397730,-0.373379,0.319003,0.310187,-0.300057,0.491058,-0.133318,0.192189,-0.062750,0.028802,0.677707,0.219433,-0.023987,0.148671,0.335036,-0.383626,-0.360849,0.295297,-0.355653,-0.340911,-0.010791,-0.100634,-0.097625,0.051240,0.318404,0.350694,0.515554,-0.062441,0.506333,0.296625,0.231065,0.028764,0.158011,0.116697,0.273250,0.232598,0.201040,0.342479,0.599732,-0.445989,0.160236,0.289514,0.016259,-0.081025,0.115663,0.211049,0.392541,0.443142,0.364039,0.125340,0.561164,0.444759,0.098320,0.413120,0.256365,0.527238,0.005914,-0.283251,0.023249,0.553811,-0.436184,-0.476338,-0.280019,0.309371,-0.268438,0.173396,0.099529,0.231043,0.135428,-0.133080,0.267285,-0.462057,-0.154092,0.572694,-0.002019,0.236106,0.355462,-0.363345,0.404754,0.432491,-0.129216,0.170004,0.204365,0.385478,0.170809,0.061588,-0.326072,0.263464,-0.102776,0.472560,0.013040,-0.462076,0.153905,-0.280168,0.058370,0.132429,-0.424268,0.417708,0.055968,0.081135,-0.195722,0.491911,-0.299488,-0.281319,-0.185632,-0.084968,0.157616,0.189300,0.225782,-0.172931,0.479493,0.247779,0.320337,-0.056285,0.206767
0.058813,-0.178754,-0.089515,-0.478647,0.044794,-0.069772,-0.290346,-0.236280,-0.946870,-0.716789,-0.013249,-0.335590,1.099226,0.365331,0.410506,1.132479,-0.097889,0.488284,0.154973,0.155034,0.164159,-0.249603,-0.063462,-0.008674,-0.119327,-0.138962,-0.355684,-0.454912,-0.447604,-0.186167,0.557115,-0.157559,0.095109,-0.012082,0.108443,-0.070682,0.602020,-0.244463,0.305085,-0.461293,0.002407,-0.460047,-0.333175,0.038528,-0.345314,-0.294493,0.229999,0.046896,0.211448,0.267441,-0.096937,0.291082,0.197879,0.148581,-0.338296,-0.540819,-0.199313,0.576619,0.219351,-0.621116,-0.388364,-0.056971,-0.073237,0.269438,-0.053389,-0.091185,-0.192425,-0.552676,0.366476,-0.498884,0.163478,-0.303608,0.070780,-0.307300,-0.667181,-0.388835,-0.507794,-0.284637,0.041165,0.245204,0.078157,-0.472169,-0.588042,0.134154,0.158553,-0.544357,-0.175808,-0.088042,-0.196631,-0.464652,-0.271909,-0.373863,0.077629,0.152087,0.242536,-0.094757,-0.108173,0.150610,-0.489165,0.023460,-0.616471,-0.356338,0.061463,-0.342063,-0.264845,0.388822,0.209031,-0.209246,0.088334,-0.018748,0.423974,-0.348410,0.314285,0.189157,-0.362431,-0.468685,-0.276642,-0.379418,0.332605,-0.033743,0.809736,0.440617,0.228633,-0.154150,0.108824,0.181922,0.561043,0.445466,-0.563252,-0.468795,-0.912799,-0.111579,-0.043561,0.193056,-0.368508,0.547716,0.259807,0.559026,0.859322,-0.329021,0.370833,0.558349,0.020612,0.440799,0.253696,-0.427902,-0.317882,-0.061678,-0.226077,0.284366,0.290176,-0.102076,0.297861,0.444054,0.189391,0.018775,0.091850,-0.220929,0.169799,-0.056372,-0.541254,-0.336509,-0.648583,-0.609512,-0.659127,0.085704,-0.162843,-0.111317,0.480497,0.615275,0.210527,-0.187570,0.378599,-1.020515,-0.432735,0.218335,-0.625985,-0.655010,0.233954,-0.371177,0.278142,-0.086697,-0.294693,-0.051197,0.423862,0.597005,0.149518,0.838461,0.514896,-0.175693,-0.790231,-0.721500,-0.418612,-0.348284,0.006405,0.133402,-0.114488,0.296147,0.268510,0.558934,0.106959,0.201082,-0.324103,0.287065,-0.439237,-0.663261,-0.717786,0.198332,-0.088805,0.013208,0.336564,-0.285884,0.493378,0.386080,-0.251759,0.765217,0.028756,0.093527,-0.277999,0.235965,-1.010814,-0.238845,-0.174879,-0.006374,0.015358,-0.099516,0.134229,-0.123158,0.259907,-0.558740,0.062362,-0.295379,0.013032,0.080769,-0.090565,-0.960706,-0.330692,-0.868871,-0.636425,-0.039749,-0.416052,0.163208,0.674278,0.255989,-0.543720,-0.340727,-0.872278,-0.743237,-0.403808,-0.254462,-0.151595,0.102065,-0.400496,0.294150,0.024942,-0.070456
-0.015270,0.113649,-0.727547,-0.634049,-0.482956,0.041083,0.685389,0.273251,0.482863,0.003987,0.705322,-0.074225,-0.396283,-0.502540,-0.408374,-0.364754,-0.446938,-0.024639,0.243974,0.096952,-0.304488,0.364278,0.153018,-0.605728,-0.328248,0.496187,-0.349232,0.483012,0.100282,-0.229579,-0.396540,0.070133,-0.254414,0.152034,-0.088795,-0.232475,-0.021419,-0.716290,-0.715649,-0.821915,0.003917,0.124985,-0.424431,0.099782,0.249620,-0.346998,0.149124,0.059129,-0.393578,0.444579,0.485166,0.124225,-0.435434,-0.050519,-0.350502,0.047349,0.288094,0.286029,0.439670,-0.209694,-0.014813,-0.266135,0.264988,0.115164,-0.344097,0.030166,0.347346,0.347730,-0.408842,-0.239934,-0.372977,-0.067613,-0.053557,-0.078542,-0.019320,-0.258611,0.029243,-0.123060,-0.200363,-0.099023,-0.349366,0.215600,-0.351033,-0.361626,0.034682,0.231887,-0.045400,-0.449979,-0.426437,0.157978,0.129180,0.035838,0.031581,-0.353335,0.194114,0.241512,-0.014248,-0.367077,-0.129630,-0.256217,0.105426,-0.465283,-0.435484,-0.529064,-0.202522,-0.209004,-0.000049,-0.248936,0.349516,-0.515787,-0.393436,-0.477441,-0.549625,-0.189321,0.353258,-0.051984,0.399141,0.800817,0.347245,-0.135489,-0.252419,0.460956,0.155288,0.607014,-0.376047,0.216564,-0.130128,-0.004925,-0.049767,-0.481320,0.207329,-0.313539,-0.093598,0.469045,-0.232205,0.331395,0.171501,-0.651888,-0.677486,-0.403938,-0.097136,0.136373,0.274208,-0.406034,-0.500629,-0.115422,-0.518944,0.210088,-0.022269,-0.833560,-0.293290,0.034167,-0.057400,-0.441163,-0.137470,-0.604051,0.048455,-0.198914,0.027433,-0.262098,-0.117307,0.251193,-0.399858,0.546536,0.047105,-0.527979,-0.303717,-0.415528,-0.138480,-0.403704,0.107583,-0.599188,-0.670526,-0.639883,0.345635,0.102210,-0.116051,-0.062885,0.783992,0.254889,-0.016054,-0.230776,-0.351953,-0.518769,-0.587218,-0.360946,-0.375292,-0.262482,0.076547,-0.005203,0.193051,0.147676,-0.249957,-0.129257,0.309682,0.408551,-0.157097,-0.322928,-0.315077,0.273793,0.257989,-0.080465,-0.173658,0.559928,-0.112211,0.626957,-0.423509,-0.590839,-0.014380,0.200093,-0.787663,-0.667812,0.074480,-0.090664,-0.265486,0.511919,-0.081155,0.181764,-0.293399,-0.116592,0.227828,0.268911,0.106370,0.030551,-0.345968,-0.338886,-0.518619,0.098223,-0.148375,-0.427546,-0.195702,0.314815,0.085055,0.021469,0.068010,0.047282,0.385997,0.321911,0.252225,-0.305990,-0.457559,-0.070301,-0.258382,0.631564,0.238154,0.143985,0.681521,0.854802,0.613924,0.249584,0.076229,0.351879,0.475254,-0.086868,-0.283008,-0.393999
0.179614,-0.170482,0.524760,-0.243570,0.047217,-0.327997,0.035768,-0.152057,-0.202299,0.522659,0.672905,-0.030381,0.005446,-0.584425,0.157994,-0.539197,-0.052234,-0.220322,-0.478047,-0.101879,-0.213360,0.075911,-0.623462,-0.360125,0.120858,0.097156,0.783749,0.375947,0.391081,0.360948,-0.001436,-0.827004,-0.155775,0.127611,0.216045,-0.252540,-0.477359,-0.181679,-0.317465,0.285936,-0.131149,0.341396,-0.222152,0.280729,0.277752,0.104873,0.297314,0.264515,0.111273,0.098955,0.064263,-0.030412,-0.140948,-0.129661,-0.397740,-0.286055,0.331978,-0.282095,0.393461,-0.513818,-0.457498,-0.224019,-0.467081,-0.205784,0.278341,-0.113836,-0.362344,0.318726,-0.370147,-0.176693,-0.591013,0.215956,-0.240351,-0.116906,0.498128,0.615495,-0.012763,-0.401065,0.287200,-0.000839,0.543786,0.437045,-0.089066,-0.414044,0.085165,-0.272435,-0.011867,-0.428301,-0.312431,-0.511023,-0.590738,0.027690,-0.421910,0.018066,-0.249166,-0.657754,0.106852,-0.248970,0.035735,0.176979,0.067532,0.575823,-0.284288,0.626374,-0.296558,-0.004098,-0.238803,-0.208283,0.145969,-0.295254,-0.512843,0.102062,0.151447,0.056587,0.342604,-0.093922,0.554589,0.377257,-0.162092,-0.006537,0.026128,-0.080788,-0.065319,-0.458574,-0.782858,0.330009,0.084810,-0.304846,0.252961,-0.010773,0.044564,-0.316686,-0.130345,0.030810,0.227346,-0.074627,-0.005333,-0.135820,0.549303,-0.339988,-0.012066,-0.080021,0.367907,-0.032797,-0.647285,-0.366620,-0.465073,-0.240517,-0.667519,-0.500571,-0.100943,-0.221663,0.265179,-0.228518,-0.640200,-0.305695,-0.881428,-0.387741,0.323989,0.237818,-0.590970,-0.813628,0.015494,-0.254848,0.110199,0.461701,0.104722,0.091911,0.070746,-0.624164,-0.645429,-0.541002,-0.710476,-0.313367,0.499372,0.591289,-0.185567,-0.884604,-0.292132,-0.009731,-0.075289,0.008718,0.381587,0.155278,-0.133653,-0.604216,-0.699732,-0.309623,-0.571717,-0.294889,0.257099,0.170601,-0.123032,0.052364,0.301353,0.307107,-0.067187,-0.018610,-0.457524,0.114110,-0.408720,0.037124,-0.554658,0.237760,0.219306,-0.177353,0.272696,0.103178,0.039709,-0.344307,0.772656,-0.129241,0.402295,0.034797,0.133132,0.690281,0.278537,0.354500,-0.241897,-0.280970,0.665476,0.404160,0.598444,0.450248,0.099759,0.635023,0.664719,0.089606,0.306540,0.790277,0.165742,0.163342,-0.277589,-0.228305,-0.140292,0.545553,0.019631,0.247366,0.401697,0.141713,0.039580,0.549001,0.313890,-0.007011,0.240446,-0.081647,0.020301,0.517558,-0.021536,0.134992,-0.107244,-0.018869,-0.264441,-0.546185,-0.080196,-0.067516
-0.337678,-0.744467,-0.483850,0.118181,-0.321086,-0.051836,-0.639822,0.221379,0.129896,0.448667,0.126924,-0.107883,-0.029481,0.316652,-0.343793,0.277840,-0.173557,-0.533263,0.098359,0.174066,-0.400971,-0.109340,-0.101009,-0.244689,0.041685,-0.346104,0.283641,-0.358455,0.284489,0.130933,-0.186026,0.065971,-0.521133,-0.644775,-0.685179,-0.362192,0.480558,0.092526,-0.067997,-0.265557,-0.314596,-0.051961,-0.087846,0.186524,-0.443106,-0.206169,-0.167037,-0.385488,0.098859,-0.132078,-0.167990,0.187733,-0.632931,-0.707391,0.095797,-0.080986,-0.609137,-0.269046,0.192565,-0.878311,0.253644,0.029708,0.208127,-0.646623,-0.109426,0.294939,0.316612,0.293894,-0.212044,0.357404,-0.601793,0.229461,-0.526052,-0.068624,0.095415,0.284193,0.120520,0.025925,-0.068981,0.046056,-0.157548,-0.259940,-0.250405,-0.086533,0.143113,-0.373252,0.142018,0.240398,-0.695564,-0.496446,0.141523,0.154076,0.213830,0.243539,-0.278635,-0.209219,-0.534379,0.316950,0.242183,0.391668,-0.035840,0.157051,-0.553718,-0.372872,0.109765,-0.121236,0.537731,-0.408207,-0.505791,0.049867,-0.371130,-0.102849,0.231990,-0.473333,-0.385866,-0.072140,-0.328733,-0.217871,0.301775,-0.117332,0.411240,0.010789,0.202660,0.186410,-0.034604,0.020710,-0.526639,0.044208,-0.024356,-0.395773,-0.454325,0.025983,-0.236968,0.259172,-0.266205,-0.114903,0.392755,-0.607345,0.130169,0.059705,0.011913,-0.199606,-0.355220,-0.457540,-0.069636,0.069696,-0.689114,-0.046181,0.157630,0.314329,-0.236359,-0.294795,-0.522996,-0.441217,-0.006349,-0.462469,0.002867,-0.337256,0.244345,-0.194086,-0.438257,-0.123876,0.131285,0.230114,-0.085879,0.097508,0.102709,-0.281203,-0.572871,-0.500513,-0.484851,0.288434,-0.548449,-0.595663,0.389422,-0.187393,-0.204641,0.542094,0.104278,-0.267417,-0.164181,-0.589097,-0.207775,0.123152,-0.396615,-0.636321,0.092439,-0.651547,-0.426948,0.165085,0.043350,-0.609702,-0.116027,-0.270973,-0.329593,0.125291,0.054349,-0.613542,-0.075886,0.093762,0.109349,-0.660532,-0.264484,-0.372726,-0.437032,-0.643339,-0.142048,0.171923,0.149984,-0.087320,0.246535,-0.222423,0.245073,-0.066608,-0.725876,-0.526296,0.019383,-0.238761,-0.338647,-0.194681,-0.336859,-0.111062,-0.413032,-0.194062,-0.034162,0.028301,-0.229066,-0.043617,-0.219496,0.214246,0.203928,0.219117,0.199784,0.585786,0.401174,-0.162826,0.290290,0.258005,-0.184375,0.081730,-0.586491,-0.417093,-0.269581,-0.220715,0.029059,0.106692,0.453391,-0.574167,-0.374139,-0.116988,-0.104686,-0.229166,-0.413647,-0.446373,0.014319,-0.713341
0.753620,-0.122347,0.217595,0.039369,0.624681,0.447325,0.129297,0.218145,-0.430606,0.155983,0.460869,0.283072,-0.428118,0.216046,0.423064,0.874090,-0.044360,0.539978,0.536562,-0.314204,-0.240147,0.438831,-0.057668,-0.667834,0.033478,-0.507472,0.106635,-0.031510,-0.124031,0.140519,0.268339,0.501696,-0.252601,0.510686,0.634757,0.179716,0.104505,0.496671,0.081213,0.404791,0.376971,0.210306,0.541631,0.499829,0.477665,0.214878,-0.456347,-0.113005,0.056800,0.194674,-0.138101,-0.088293,0.497818,0.063686,-0.064915,0.320560,-0.216163,-0.276736,0.225049,-0.123022,-0.052528,0.451647,0.313966,0.096666,0.001156,-0.456759,-0.052554,-0.004837,0.233418,0.130617,0.011468,0.099185,-0.042829,0.291588,0.287575,-0.033773,0.481354,-0.173128,0.174967,0.414292,0.194928,-0.195715,-0.007869,0.397640,-0.147300,0.181612,-0.010943,0.040649,-0.324479,-0.169432,0.086735,-0.183176,-0.339356,0.186112,0.444936,0.155407,0.268513,-0.016987,0.224495,0.310905,0.172134,0.418411,0.180788,0.059767,0.164705,0.477852,0.158332,-0.307546,0.199619,0.362857,0.214197,0.228942,0.184083,0.221713,0.017259,0.302246,0.577788,0.012205,-0.291502,0.034793,0.234953,0.241073,0.519282,0.355128,-0.248700,-0.035348,-0.035422,0.394153,-0.054422,0.099930,-0.002239,0.110484,0.364018,0.365295,0.274045,-0.165864,0.113852,-0.329343,0.373990,0.125046,-0.295315,0.285749,-0.028540,-0.319971,0.259791,-0.413215,0.413806,-0.348540,-0.067343,0.144463,0.259260,0.544773,-0.133033,-0.356739,0.435233,0.457517,-0.419476,0.088429,0.228610,-0.197266,0.472839,0.294148,-0.218707,0.219598,0.093239,0.264333,-0.222475,-0.271989,0.538419,0.186534,-0.428019,-0.113562,-0.096107,-0.433053,-0.236456,0.478371,0.344316,0.442019,-0.026127,0.026494,0.604396,0.359864,-0.036690,0.302957,0.338962,-0.102634,-0.083819,0.301366,-0.312102,-0.434155,0.361135,0.522868,-0.307998,-0.652394,0.358995,-0.291731,-0.020246,0.215186,0.201690,-0.065203,-0.015556,-0.141994,0.291859,-0.241730,0.199554,0.276836,0.400965,0.626881,0.086378,0.216919,0.180255,0.288500,-0.440027,0.422585,-0.042648,-0.250847,-0.075039,0.450419,-0.023535,-0.310240,-0.007593,-0.129804,-0.232706,0.406953,-0.159839,0.211622,-0.504504,-0.376237,0.145809,-0.750993,-0.458021,-0.035645,0.234056,-0.372634,0.183933,-0.318235,0.115399,-0.135531,0.087720,0.720748,-0.013751,0.242163,0.435029,0.003535,-0.173534,0.043310,-0.415893,-0.130979,-0.275497,-0.104748,-0.197703,-0.016393,0.232353,-0.086489,0.830680,0.078270
-0.744657,0.024763,-0.311784,-0.160732,-0.449478,-0.269221,-0.417355,0.344137,0.280707,0.106190,-0.304314,0.367947,0.249616,-0.034057,-0.100726,0.297485,0.331348,-0.384614,0.550184,0.343839,-0.509073,-0.455035,-0.412890,0.001458,0.344198,-0.375661,-0.010023,0.176027,0.128065,-0.342092,-0.403713,-0.296999,-0.549765,-0.209076,-0.177361,-0.423184,-0.590785,-0.232610,-0.456773,-0.289580,-0.052664,-0.424393,0.442124,-0.349560,-0.022971,0.447133,-0.397868,-0.530797,0.327143,-0.439675,-0.636820,-0.333631,-0.464539,-0.282817,-0.224595,0.058789,0.383504,-0.018694,-0.316396,0.250434,-0.164503,-0.329997,0.110273,-0.307531,-0.218984,0.167929,0.413326,-0.577050,-0.589382,-0.206478,-0.022839,0.615245,0.429330,0.086053,-0.433289,0.455057,-0.297249,-0.032429,0.366118,-0.198080,0.239175,0.450239,-0.292514,0.076747,-0.015735,0.388447,0.706538,0.030365,-0.016156,0.375989,-0.019911,0.491318,-0.220683,-0.253995,-0.248846,-0.431111,0.038960,-0.336773,0.274625,0.328589,0.433115,0.467268,-0.314069,0.382378,0.223979,-0.186419,0.465583,0.247747,0.012304,0.278109,0.359703,-0.208432,0.075696,0.598503,-0.093275,0.343116,-0.250966,0.421458,-0.419238,0.085520,0.163192,-0.059503,0.360491,-0.212664,0.314854,-0.088692,-0.211886,-0.059575,0.516237,0.287035,-0.178650,-0.041918,-0.509392,-0.218830,-0.712857,0.409204,0.142088,0.085686,-0.003618,0.459394,0.919244,0.156566,0.564408,0.266655,0.095932,0.240489,-0.095047,-0.328433,-0.511187,-0.160366,-0.142269,-0.940992,-0.244470,-0.591280,0.231756,-0.051719,0.835307,0.083991,1.087358,-0.040851,0.041931,-0.377128,-0.097452,-0.461659,0.008214,-0.482019,-0.072139,-0.016021,-0.547017,-0.027713,-0.144852,0.248475,0.322096,0.888508,0.481124,0.352420,0.468806,-0.150756,-0.258409,0.093742,0.476051,-0.317319,-0.057693,-0.609902,-0.452749,0.095030,0.034925,0.018242,-0.143598,0.211660,0.761522,0.420168,-0.121832,0.532949,-0.253424,0.033312,0.207061,-0.447270,-0.524225,-0.068115,0.276650,0.076722,0.656427,0.359457,-0.237041,0.242598,0.952373,0.859581,-0.004301,-0.184571,0.057195,0.374531,0.111642,-0.086407,-0.107776,-0.202323,-0.090465,0.416877,0.121999,-0.186561,0.556764,0.039676,0.359107,0.794508,0.080724,-0.530992,0.031776,-0.144408,0.879180,-0.113697,0.078955,-0.187914,0.482785,0.028994,0.383982,0.600309,0.528585,0.235933,0.558072,0.319273,0.402964,-0.295200,0.176945,0.752866,-0.233364,0.569867,0.008738,-0.075623,0.492642,0.424118,0.576558,-0.118861,0.169467,0.128330,-0.103334,0.279904
-0.249252,-0.165679,-0.231254,0.468872,0.690904,0.114767,0.127486,0.505773,0.672654,0.391590,0.165781,0.420351,-0.116177,-0.621023,-0.336196,-0.768152,0.567787,0.249503,0.029257,0.375793,0.572641,0.163081,0.371156,0.433120,0.329116,-0.176720,0.431566,-0.224492,-0.227905,-0.004143,0.226564,-0.459398,-0.008128,0.014004,-0.586171,-0.064373,0.403876,0.264156,0.641599,0.430129,0.072917,0.485988,0.603195,0.091648,-0.252546,0.104121,0.217092,0.213264,0.483874,-0.625581,0.142451,0.110312,0.099425,0.396668,0.359084,0.186874,0.237947,-0.304751,0.439712,0.034748,0.416240,-0.060488,-0.012175,0.077854,-0.428500,-0.812335,-0.273485,-0.377053,0.067463,0.124764,0.327373,0.435025,0.443602,0.083288,-0.457956,-0.003484,-0.064909,0.002670,0.396800,0.450984,-0.220693,-0.335250,-0.734128,-0.321263,-0.126761,0.148283,0.216800,0.420449,0.477559,-0.167541,-0.067897,-0.127471,-0.272698,-0.501951,-0.482574,-0.152516,-0.324165,-0.590525,-0.112261,0.265746,-0.137307,0.376134,0.037517,0.003721,0.164228,-0.090640,-0.290960,-0.211819,-0.124425,0.156251,0.235149,0.182760,-0.195811,-0.470098,-0.186463,0.003096,0.258659,-0.062497,-0.286493,-0.045541,0.305349,-0.400988,-0.138063,-1.108226,-0.087052,-0.924468,-0.194382,-0.227074,0.238125,-0.269085,0.471251,0.226894,-0.414994,0.167363,0.215597,0.401768,0.023782,-0.219704,0.014475,0.124555,-0.576175,-0.936537,-0.074095,0.398706,0.649304,0.434735,0.646974,-0.591362,0.238462,0.242557,0.487637,0.353089,0.081090,0.499246,0.037979,0.356161,-0.231185,0.277413,0.188014,-0.428890,0.960052,0.279114,0.155582,-0.505693,-0.530380,-0.383320,0.479127,-0.003418,0.140001,-0.172169,-0.018034,-0.262928,0.462551,-0.289640,0.013855,-0.063064,0.180137,0.978428,0.293965,-0.077712,0.337624,0.611695,0.806715,-0.112030,0.429982,-0.224536,-0.652963,-0.849721,-0.639884,0.220336,-0.000241,0.053818,0.456124,0.423416,0.261937,-0.072218,-0.199340,0.450054,0.503548,-0.054611,0.158476,0.491915,-0.627513,-0.576128,-0.337991,0.497242,0.501904,0.499464,0.535718,0.329489,-0.014001,0.609762,0.491426,0.359281,0.029453,-0.175866,-0.451657,-0.351129,-0.035626,0.269328,-0.377473,-0.280692,0.466802,-0.142717,0.295381,-0.447076,-0.320402,0.384778,1.017646,1.042155,0.401386,0.190652,-0.050035,0.636680,0.239792,0.624531,-0.350326,-0.369520,0.144927,-0.505549,-0.220222,-0.127261,-0.147778,0.278406,0.269454,-0.108881,0.488476,0.344519,0.586439,-0.218012,-0.228922,-0.779917,-0.476236,-0.187312,0.182136,-0.226005
-0.192932,-0.026514,-0.523396,0.135280,-0.191444,0.515556,0.721952,0.040734,0.690358,0.029491,0.636130,-0.007674,0.867414,0.010341,0.110463,-0.314461,0.231225,0.199811,-0.531852,0.288134,0.661516,0.029717,0.342614,0.029776,0.296220,0.012728,0.040150,0.164716,0.073527,0.215923,0.338516,-0.203997,-0.233706,-0.426932,0.184916,0.306566,0.633558,0.125965,-0.172729,-0.483203,-0.072587,0.276249,0.005248,-0.602257,-0.071318,-0.197230,-0.057319,-0.180368,-0.335573,-0.088671,0.011436,-0.098345,0.658383,-0.002137,0.053531,-0.245318,0.258359,-0.279056,-0.394658,-0.284733,0.381112,0.290480,0.429428,0.277217,0.557576,0.558216,0.162284,-0.172833,0.142140,-0.436688,-0.074817,-0.536059,0.302145,-0.515359,0.084446,0.388299,0.094691,0.188701,-0.479239,0.332787,0.455075,0.360412,-0.066910,0.506517,-0.235003,-0.035841,-0.208405,-0.484131,-0.521012,-0.397114,-0.145799,0.171348,-0.376436,0.171837,0.097250,-0.282781,0.033778,0.105257,0.225981,-0.348601,-0.229574,-0.146021,-0.099248,0.290824,0.272616,-0.314628,-0.160941,0.078989,-0.623869,-0.157959,-0.299345,-0.424523,0.530590,-0.117702,0.052242,-0.299691,-0.275587,0.176193,0.498845,-0.116896,0.066211,-0.189004,0.281266,-0.155639,-0.188266,0.070813,-0.543624,0.073839,-0.362338,0.008006,0.411156,-0.269318,-0.209755,0.175868,0.442072,0.088589,0.253087,-0.686464,0.157683,0.359468,0.178730,-0.125506,-0.227444,-0.071633,-0.232874,0.326186,-0.174695,-0.453429,-0.442070,-0.678955,-0.605152,-0.720071,-0.377708,-0.105532,0.052318,-0.519322,-0.296514,-0.123819,0.089468,-0.339510,-0.161121,-0.238704,0.056681,-0.783695,0.195476,-0.163287,-0.083001,0.006399,-0.350860,-0.048461,-0.496360,-0.054145,-0.712499,-0.379730,0.188228,-0.387994,-0.546179,-0.806313,-0.420187,-0.363043,-0.538175,-0.271991,-0.240256,0.069992,-0.559648,-0.450590,0.073346,0.028867,-0.485842,0.039162,-0.053033,-0.091530,-0.438030,0.044927,-0.327832,-0.618422,-0.157022,0.268168,-0.035571,-0.030945,-0.588213,-0.431187,-0.411379,-0.644877,0.261379,0.045551,-0.473013,-0.447944,0.075422,-0.261823,-0.217259,-0.162150,0.277425,-0.097538,0.170187,0.126849,-0.588364,-0.303803,-0.353566,-0.039721,-0.143488,-0.579177,-0.232141,-0.019546,-0.182510,-0.191477,-0.642226,-0.598257,-0.177154,-0.013432,-0.343366,-0.045687,0.480118,-0.194114,0.018852,0.264328,0.174939,0.237967,-0.335699,0.137520,-0.238186,0.538564,0.203604,0.231707,0.523242,-0.126143,-0.053445,0.293525,0.357690,0.192834,-0.332511,-0.205976,-0.096959,-0.450293,-0.183811,-0.151302
-0.194482,-0.200639,0.047954,0.539012,-0.153649,0.062101,-0.261096,0.198320,0.188349,0.710476,0.432546,0.597642,0.229737,0.028999,-0.037223,-0.382256,-0.633560,0.485456,0.402387,-0.070811,-0.580019,-0.317820,-0.463505,-0.241872,0.498217,0.521707,0.624743,-0.264744,-0.334340,0.212829,-0.443468,-0.028786,-0.415319,0.425521,0.029617,-0.153148,-0.183989,0.205914,0.430509,0.515037,0.287365,-0.500166,-0.354146,0.367944,0.082841,-0.512183,-0.905245,-0.767797,0.418801,0.304867,-0.334711,-0.488281,-0.188540,0.347586,0.355041,0.285295,-0.295543,-0.968997,-0.405266,-0.359805,-0.019716,-0.724826,-0.390464,-0.382692,0.169533,0.565129,-0.143097,-0.036014,0.045859,0.458927,-0.127975,-0.351255,-0.814146,0.091351,-0.515716,0.026697,0.199301,-0.223917,-0.906567,0.251248,0.165138,-0.023634,0.363830,0.587669,-0.139646,-0.283171,-0.247648,-0.381193,-0.844481,-0.035946,-0.476112,-0.563847,0.286217,0.006311,-0.773449,-0.320688,0.298871,0.176273,0.303464,0.550516,0.539368,0.325858,0.144126,-0.054099,-0.562821,-0.374613,-0.251594,0.139736,-0.908504,0.119484,-0.372987,-0.279800,-0.299600,0.213621,0.174886,0.509556,-0.254904,0.332323,0.222525,-0.101121,-0.196522,-0.015513,0.480689,-0.010604,0.051271,0.112254,0.110786,0.245625,-0.236261,0.266998,0.227022,-0.702686,-0.577009,-0.077889,0.133292,-0.038903,0.099347,0.816340,0.390243,0.120593,-0.061267,-0.845681,-0.305878,-0.026000,0.066542,0.394351,0.328136,-0.854663,0.061089,-0.155090,-0.340401,0.501984,0.669964,-0.417977,-0.149308,-0.561915,-0.315601,-0.791252,0.015788,-0.249735,-0.450270,-0.339728,-0.272853,-0.303967,0.187793,0.027907,-0.088710,0.595321,-0.029153,0.172636,0.189764,-0.281825,-0.245920,-0.388661,-0.266041,-0.120305,-0.046388,0.241848,-0.594104,-0.379495,-0.085279,0.337050,0.073440,-0.108759,-0.044681,-0.498245,-0.157119,0.029128,-0.825667,-0.366677,-0.488663,0.279357,-0.683947,-0.939929,-0.369751,0.117659,0.299316,-0.233503,-0.331344,0.180030,0.305896,0.014145,0.175277,-0.240966,-0.532998,-0.048174,-0.509986,-0.505586,-0.758201,-0.415627,-0.559203,-0.525658,0.010665,0.204473,0.097628,0.133309,0.419261,0.568460,-0.140790,-0.023107,0.198853,0.122202,-0.708539,-0.372057,0.461275,-0.532653,0.126536,-0.035017,-0.005320,0.297043,0.460334,0.484655,0.457295,0.255585,-0.004428,-0.237703,-0.938829,-0.354806,-0.805316,-0.236980,0.323869,0.045718,0.371751,-0.145223,0.186857,0.241734,0.240132,-0.637905,0.334847,0.210483,0.359333,-0.606895,-0.326910,-0.823579,-0.730107,-0.766473
0.009944,0.671212,0.561763,0.419754,0.753094,-0.116797,0.767369,-0.113260,-0.011412,0.060883,0.124670,0.174592,-0.065925,-0.165039,-0.529874,-0.732870,0.321707,1.011452,0.817247,0.441655,0.166995,-0.299646,0.387798,0.249604,0.157241,0.423939,0.123341,0.749940,0.245636,-0.107528,-0.290118,-0.661164,0.383523,0.645609,0.536010,0.815888,0.577505,-0.073617,-0.319979,-0.228157,0.149572,0.182952,-0.073910,0.060991,0.666517,0.182044,0.054710,-0.447890,0.091165,0.262328,0.580688,0.555353,-0.217632,-0.188094,0.132357,-0.233322,-0.478423,0.126581,0.318838,0.436655,0.208005,-0.292669,0.274189,-0.046662,-0.192047,0.875724,-0.104196,-0.204158,-1.005352,-0.543435,-0.257535,-0.477439,0.292380,-0.104508,-0.408151,0.388281,0.261547,0.196499,-0.525562,-0.555541,0.377002,0.064641,-0.540403,-0.592426,-0.050609,-0.443412,0.136028,0.323687,0.388842,-0.112939,-0.707871,0.025112,0.083323,-0.150254,0.056683,-0.385507,0.485695,-0.485738,-0.535168,0.036571,0.709693,0.027890,0.278200,0.673816,-0.495018,0.277144,-0.160250,-0.004560,0.084244,0.237872,-0.022069,-0.343996,-0.699218,0.056735,0.192658,1.034891,0.278415,0.055581,0.295169,0.024995,-0.217079,-0.372037,0.739870,0.667066,-0.277446,-0.490889,-0.485908,0.346690,-0.377038,0.092024,0.454580,0.136023,0.528290,-0.752032,0.066221,-0.125661,-0.995164,-0.104518,0.134591,0.822643,0.216003,0.215254,-0.173569,0.214048,-0.335358,0.045043,0.231162,0.058265,-0.051628,-0.793512,-0.041202,0.164314,-0.431177,-0.322061,-0.103969,0.169756,0.514372,0.027860,-0.300193,0.185435,-0.481664,-0.540635,-0.684762,-0.607623,-0.828318,-0.419693,-0.434974,0.324011,0.384118,0.658437,0.588439,0.249994,0.486069,0.149269,0.173481,-0.097776,-0.108397,-0.443181,0.386145,-0.334695,-0.455722,-0.042731,-0.393745,-0.371287,0.282748,0.006045,0.244079,-0.142916,0.483516,0.117401,0.295487,-0.254340,-0.508250,-0.310391,-0.290619,-0.105299,-0.096621,0.006231,0.084558,-0.135344,-0.577927,-0.671326,-0.273404,0.097957,0.425464,0.246994,-0.064786,0.198447,-0.948217,-0.501737,-0.192464,-0.334480,-0.542086,0.143426,-0.343974,-0.117623,-0.223878,0.146998,0.206021,-0.259663,0.576779,0.608494,-0.137288,-0.005018,-0.876241,-0.118602,-0.477458,-1.192374,-1.064004,-0.764215,-0.861648,-0.361456,0.144288,0.480409,0.044214,0.051368,-0.222189,0.488381,0.614971,0.416184,0.087827,-0.092279,-0.600619,-0.959369,-0.661462,-0.775205,-0.345999,0.201389,-0.732257,-0.045587,-0.333878,-0.067692,-0.248664,0.773333,0.011100,0.177144
0.029882,-0.544811,-0.714938,-0.156757,-0.243814,0.195271,0.051189,-0.454752,-0.119022,0.370398,0.129730,0.097137,0.009115,0.099860,0.037792,0.006505,0.164662,-0.077616,0.531123,0.149579,-0.035566,-0.000699,0.676701,-0.207164,0.125060,-0.136547,0.217168,0.794890,0.262488,-0.152208,0.306448,-0.034422,-0.293907,0.448099,0.495582,-0.023011,0.502367,-0.144560,0.337058,0.007737,0.568406,0.542678,-0.334387,-0.491642,-0.325324,0.089123,0.142837,0.236657,0.129569,0.055703,-0.213281,0.301780,0.228012,0.030320,0.488265,0.120706,-0.464708,0.087882,0.386786,0.329570,-0.463239,-0.166691,0.321490,0.069777,-0.352359,-0.091306,-0.174303,-0.005606,-0.204274,0.077884,0.142499,-0.597993,-0.627767,-0.180187,0.543095,-0.297787,0.319542,-0.199066,0.250752,-0.342378,0.103131,-0.117363,-0.299202,-0.264420,-0.319784,-0.122322,0.017127,0.029355,0.195393,-0.350752,-0.106877,-0.084809,0.365041,-0.287555,-0.605853,-0.406563,-0.557510,-0.310849,-0.364918,-0.352425,-0.035693,-0.509620,-0.517131,-0.329441,0.007883,-0.527019,-0.276070,-0.508200,0.006484,0.114485,0.343777,-0.406289,0.230196,0.197767,-0.121159,0.319861,0.056538,-0.136583,-0.503025,0.017567,-0.183215,0.270898,0.123368,-0.252510,-0.339000,-0.067146,0.330640,0.094749,-0.419262,-0.209747,-0.583498,0.488350,0.185562,-0.437797,-0.317580,-0.298190,-0.163367,-0.140971,-0.185418,-0.011653,0.498590,0.282835,0.582752,0.360559,-0.394469,0.019272,0.478955,0.657220,0.303466,-0.176638,-0.485267,-0.265980,-0.359566,0.162414,-0.154309,0.186248,0.740163,0.480895,-0.080576,0.108731,-0.261241,0.734036,0.088078,0.244379,-0.444768,0.284889,0.166751,-0.240847,-0.329376,-0.154447,-0.372569,0.178027,-0.008624,-0.437734,0.331515,-0.047016,-0.271202,0.008346,0.041480,-0.115297,-0.161183,-0.261258,-0.123571,-0.323381,-0.481501,-0.701384,-0.298912,0.217452,-0.505355,0.267468,-0.131708,0.092474,0.101335,-0.127129,0.376833,-0.015510,0.190852,0.444572,-0.202785,-0.297599,-0.133467,-0.521107,-0.290179,0.299989,0.229126,-0.191093,-0.066226,-0.348249,-0.234972,-0.013755,-0.231737,0.249315,0.572383,-0.028301,-0.032760,-0.284312,-0.249475,0.237846,-0.277283,0.058638,0.082021,-0.102046,0.534148,-0.459230,0.020686,0.060642,0.636585,0.615790,-0.375511,0.226286,-0.199528,-0.034422,0.335295,0.430521,0.591422,0.069708,0.439829,0.296598,-0.261918,-0.256826,0.330226,0.027016,-0.403459,0.168608,0.330903,-0.115305,-0.301769,-0.645239,-0.121489,0.092585,-0.107057,-0.362678,0.060165,-0.386349,0.397660,0.036350
-0.078787,-0.113675,0.396060,0.081432,0.531745,0.125055,-0.194690,-0.115802,-0.102581,0.094577,-0.219958,-0.022426,0.347840,0.700393,-0.187274,-0.145317,0.221504,0.014015,0.083880,-0.081518,0.037584,0.310799,0.503654,0.265611,0.586381,0.669979,-0.268150,0.247299,0.167711,-0.023231,-0.429056,-0.091905,-0.053319,-0.466315,-0.520570,0.400929,-0.364219,0.676156,0.583429,0.136793,0.595594,-0.240471,-0.016013,-0.530829,0.036233,0.220749,-0.116788,-0.301101,-0.037629,-0.148072,-0.696948,-0.825384,0.289504,0.260983,0.462299,0.293003,0.013145,0.395015,-0.185351,-0.687596,0.190038,-0.369755,-0.193810,-0.464005,0.068300,-0.412334,0.197277,-0.836950,0.132528,0.194423,0.808265,0.364549,0.266670,-0.048324,-0.458287,-0.518114,-0.588053,-0.686164,0.477431,0.243290,-0.381476,0.072938,0.306805,-0.719232,-0.561483,-0.235798,0.114927,0.264038,-0.026900,0.020457,-1.224471,-0.802625,0.055592,-0.074795,0.048005,0.749913,-0.316310,-0.451756,-0.239846,0.162907,0.657955,-0.196790,-0.095681,-0.304716,-0.459302,-1.115644,-0.530649,-0.607613,-0.126049,0.103569,0.038602,0.503292,0.780477,-0.458683,-0.400859,0.120299,-0.365655,-0.167744,-0.449617,-0.518564,0.069870,0.032101,-0.778765,0.237375,0.210476,-0.020949,0.491368,0.222917,-0.040607,0.519455,-0.309540,0.227153,-0.426915,0.024641,-0.116062,-0.134331,0.684587,-0.157801,-0.349313,-0.002044,0.223178,0.248586,-0.343136,0.180032,-0.534464,-0.320593,-0.065717,-0.027914,-0.303276,-0.356599,0.716389,0.647751,0.241466,0.457923,0.189195,-0.388034,-0.392443,-0.218357,-0.010371,0.546093,-0.759508,-0.604073,0.398597,0.802909,0.087489,0.449101,0.610050,-0.245451,0.319960,-0.325194,0.057299,0.521627,0.172421,-0.761617,-0.519775,-0.440020,-0.042599,-0.057678,0.481279,0.070230,0.666861,-0.080332,-0.311594,-0.693082,0.201078,-0.247189,-0.308314,-0.247921,-0.036269,-0.430133,-0.024454,-0.301783,-0.257954,-0.008923,0.167858,0.393792,0.158766,-0.171399,0.214757,-0.065192,0.169609,0.643684,-0.022136,0.307635,-0.271614,0.422819,-0.060650,-0.636272,0.118567,0.146435,-0.595105,0.746889,-0.218796,0.325027,0.401996,-0.433399,-0.346949,-0.097948,0.156000,0.154770,0.193378,0.100539,-0.498721,-0.341229,-0.373699,0.407179,-0.239318,0.019111,0.478239,0.243867,0.006509,-0.557104,-0.526751,0.253884,-0.077596,-0.353724,-0.283014,-0.206941,-0.321059,0.186996,-0.360560,-0.163404,0.408803,0.341773,-0.157128,0.332569,0.108590,0.204411,0.187810,-0.439078,0.270782,0.190934,-0.107726,-0.002743,-0.159437,-0.360824
0.595276,-0.161806,-0.025074,-0.125518,0.708030,-0.036270,0.448910,-0.016272,-0.496438,0.128925,-0.661456,-1.129202,-0.488078,-0.401684,-1.205066,-0.875157,0.444972,-0.021321,0.020782,0.543148,0.487027,0.016824,0.779163,0.926085,0.373395,0.770288,-0.379234,0.124923,-0.250786,-0.547656,-0.056597,0.017550,-0.009851,-0.302056,0.088317,0.094982,0.381152,0.543556,-0.168602,0.240891,0.701517,0.333231,-0.215246,0.012551,-0.441835,-0.811452,0.304099,-0.541951,-0.529069,-0.418528,0.477763,-0.070695,-0.390728,-0.102150,0.487537,-0.117260,0.555878,0.788058,0.944048,0.437309,-0.481259,-0.600669,0.252292,-0.439950,0.162173,-0.307909,0.135690,-0.575350,-0.157263,0.011945,-0.253304,0.770857,0.563213,0.368643,0.575479,-0.106019,-0.751695,-0.716592,-0.081639,0.316604,-0.008983,-0.343430,-0.241330,0.087661,0.187519,0.071945,0.258314,-0.017207,0.629203,-0.382279,-0.718157,-0.278496,-0.852300,-0.107011,-0.313629,0.360229,0.356331,-0.396732,0.213294,0.182970,-0.441350,-0.294060,0.134369,0.235419,-0.768150,-0.825156,-0.505416,-0.951433,0.239612,-0.029191,-0.118578,0.263608,0.595946,0.113777,0.665557,-0.089740,0.102695,-0.216300,-0.286756,-0.552471,-0.455092,-0.599385,-0.372405,-0.490114,0.154969,-0.113822,0.489861,0.534835,-0.726371,-0.082120,0.351323,0.310052,0.196874,-0.066496,0.043499,0.477164,-0.255012,0.547192,0.005039,0.062501,0.499640,0.196566,0.080739,0.258195,0.230904,-0.239285,-0.009470,0.370639,-0.021805,0.436457,0.146117,0.071237,0.011646,0.225730,-0.106377,-0.130245,-0.140002,-0.681496,-0.151292,0.397702,-0.148186,-0.154987,-0.141284,0.411952,-0.157268,-0.214457,0.424415,0.225991,-0.152450,-0.617706,-0.296739,-0.399339,0.170070,-0.043551,-0.326912,-0.084324,-0.215113,0.031227,1.040611,0.560359,0.414037,0.318515,-0.023085,-0.089253,-0.561364,0.034520,-0.022938,-0.615177,-0.137243,-0.621125,-0.198772,-0.480657,-0.134716,-0.318072,0.810872,1.153677,0.336741,-0.489776,0.306343,-0.082950,-0.109043,-0.081641,0.357392,-0.061015,-0.002617,0.052450,-0.205598,0.244110,-0.032326,0.165490,0.866729,0.593329,0.199927,0.386932,0.404504,0.396972,0.233911,-0.374159,-0.035962,-0.824722,-0.472882,0.206439,-0.058975,-0.265038,-0.777903,-0.233179,-0.339576,-0.386530,-0.615874,-0.168489,-0.746923,-0.228851,0.437204,0.328887,-0.161721,0.494249,0.254859,0.110919,0.057909,0.560392,0.379822,-0.273972,0.031909,-0.188354,-0.750057,-0.216053,-0.399192,-0.584653,-0.046674,0.851872,0.428252,-0.182832,0.308387,-0.177138,0.222459,0.149611
0.055422,0.189302,-0.066628,0.316988,0.443361,0.183558,-0.148756,0.015443,0.603812,-0.048436,0.014931,0.097744,-0.098399,0.190597,-0.080184,0.206950,0.710865,-0.403222,0.268957,0.605197,0.258319,0.213098,0.410017,-0.168427,0.263666,0.555047,0.821397,-0.234954,-0.550902,0.135147,0.025865,0.018392,0.575331,-0.232218,-0.033120,0.757533,0.020922,0.112001,-0.410519,-0.133621,-0.634834,-0.232672,0.456441,0.673889,-0.594111,-0.352644,0.080145,0.030191,0.538133,0.487994,-0.078397,0.091647,-0.044643,0.574465,0.305277,0.553728,-0.521342,0.176269,0.735749,0.449120,-0.141903,-0.285636,-0.273149,0.069683,0.759673,0.782446,-0.137086,0.318587,-0.548428,-0.034536,0.068104,-0.456259,-0.497265,-0.134619,0.391136,0.277833,0.539144,0.114195,0.203801,0.428022,0.752737,0.330410,-0.423065,-0.325681,0.175351,-0.174460,0.024284,-0.153006,-0.896967,-0.850833,0.309497,-0.288230,-0.350618,0.356436,0.068980,0.603428,0.932486,0.240505,0.220009,0.054107,0.059437,0.148381,-0.164897,-0.260513,-0.701643,-0.432255,0.397897,0.438154,0.618454,0.224535,0.321410,-0.257746,0.331386,0.681447,0.551384,-0.237207,-0.168718,0.158456,0.085268,-0.092166,-0.458250,0.680758,-0.313188,0.771726,0.321878,-0.203936,0.390897,-0.112333,0.862714,0.495731,0.552484,0.111795,0.550505,0.297400,0.383726,0.247324,0.496639,-0.153572,0.231734,0.032513,0.430222,0.679620,0.372086,0.914116,0.226061,-0.313160,0.262996,-0.329120,0.241662,-0.018493,0.053568,0.239548,-0.318295,-0.185920,-0.294020,-0.355349,0.194469,0.178098,0.818824,0.723548,0.526974,0.723573,1.078722,0.596425,0.220062,-0.077079,-0.566735,0.401634,-0.030245,-0.169823,0.592244,-0.370220,-0.015672,-0.133971,0.230354,0.332960,1.009169,0.707363,0.337928,0.718251,0.544102,-0.234114,-0.443405,-0.482546,-0.235589,0.372339,0.043193,-0.336561,0.246632,-0.316449,0.504481,0.449158,0.092889,0.002457,0.856916,0.579033,0.246480,-0.012205,-0.482221,0.241636,-0.183551,0.702267,0.007445,-0.492387,-0.232305,0.780750,0.728303,0.363941,-0.258005,0.578929,0.106913,0.918630,0.568356,0.199328,0.077582,-0.210352,0.341330,0.235625,-0.238365,0.326402,0.526979,0.273786,0.479867,0.175696,0.091472,0.158481,-0.317188,-0.196222,0.604077,-0.270259,0.229350,-0.143931,0.582664,0.464417,0.423991,0.396729,0.359928,0.087440,0.516964,-0.260767,-0.027488,0.138412,0.342501,0.336157,-0.385009,0.439175,-0.057101,0.016587,0.678189,0.513788,0.404842,0.727910,0.264107,0.128692,0.528814,0.677061
-0.264086,-0.916158,0.047810,0.175559,-0.082032,-0.209553,-0.370188,0.426889,0.396170,0.179757,-0.024502,0.103656,0.002952,-0.423117,0.395132,-0.050903,-0.324132,-0.615125,-0.094824,-0.523711,-0.346013,0.448473,-0.362999,-0.411823,0.189945,-0.605704,-0.658163,-0.623037,-0.821490,-0.397533,0.103512,-0.577477,-0.581637,-0.399343,-0.787810,-0.472212,-0.038641,0.157617,-0.285976,-0.600688,-0.336125,-0.064433,-0.356745,0.091644,-0.466204,-0.386339,0.104659,-0.486465,0.007095,0.049783,0.095022,-0.286371,0.388691,-0.244983,-0.297142,-0.404611,-0.059403,0.200875,-0.016665,-0.487300,-0.558845,0.106708,-0.535102,-0.041240,-0.462060,0.236768,-0.387395,0.433398,-0.163964,-0.090492,0.304401,-0.543499,-0.083365,0.193909,-0.635392,0.344016,-0.201592,0.247851,0.195217,-0.226390,-0.106285,0.651868,0.015285,-0.332107,-0.516347,0.262276,-0.454040,-0.106143,-0.594735,-0.158116,0.405043,0.433201,0.418692,-0.123916,0.284684,0.235906,-0.340193,-0.263586,-0.551091,-0.738961,-0.100659,-0.366975,0.389506,0.370326,0.104111,0.116753,-0.033839,0.122750,-0.192925,-0.099340,0.545517,-0.507230,-0.145001,0.187206,-0.751201,-0.091175,-0.632226,-0.539786,0.038071,-0.042554,0.210386,-0.664617,0.052683,0.459283,-0.054156,-0.279225,-0.277773,-0.472624,0.195896,-0.095348,-0.420172,-0.179349,0.037956,-0.062018,0.259600,-0.037994,-0.019174,0.254721,0.290085,-0.250385,0.059398,0.151149,-0.353431,-0.833317,-0.380801,-0.530291,-0.018276,-0.104617,-0.601288,-0.487779,-0.078871,-0.590713,0.177667,-0.146592,-0.083687,0.169618,-0.174214,-0.114284,-0.307405,-0.721033,-0.164567,0.245626,-0.670333,0.078723,-0.169445,-0.665608,-0.021528,-0.225746,-0.347346,-0.233635,-0.011255,-0.253204,-0.083779,0.284703,-0.443209,-0.500080,-0.033353,0.105318,0.152529,-0.420573,-0.520750,-0.574128,-0.544573,0.059891,-0.789679,-0.264838,0.016539,-0.226535,-0.156225,-0.555462,0.106657,-0.443147,-0.196149,0.381245,-0.364464,-0.202259,-0.269010,-0.851469,-0.453574,-0.453380,-0.758061,-0.179230,0.268074,0.534154,-0.273733,-0.346407,0.152055,-0.128458,-0.463193,-0.403605,0.127552,-0.403175,0.152141,0.114367,-0.257074,-0.072598,-0.260840,0.585140,-0.035468,-0.015762,-0.449587,0.180351,-0.394881,-0.634519,-0.640857,-0.603429,-0.517115,0.183875,0.040813,-0.031842,0.040794,-0.367186,-0.636656,0.209307,0.765716,0.233796,0.157464,0.245971,-0.040909,-0.167332,-0.639360,0.053550,-1.019261,-0.880406,-0.739590,-0.569003,-0.202423,-0.127574,-0.127079,-0.102700,0.419505,-0.464782,0.081106,0.005315,-0.582173,-0.824079
-1.086239,-0.769523,-0.858704,-0.537604,-0.225356,-0.541455,-1.142973,-0.166444,-0.396878,-0.401438,0.651956,0.523753,-0.385417,-0.366479,-0.374202,-0.559223,-0.357320,-0.149328,-0.217731,-0.261204,-0.588184,-0.404195,-0.353791,0.214979,-0.341379,-0.300409,0.273818,-0.484727,-0.391862,-0.084652,-0.519004,0.433125,-0.193572,-0.479898,0.252224,0.032071,0.207832,0.342820,0.742418,-0.070681,0.319879,-0.294286,0.133702,0.363414,0.337652,-0.129250,-0.037122,-0.321983,0.155007,-0.000589,0.148503,-0.356717,0.136568,0.098681,0.291200,0.809969,0.286387,-0.543025,-0.302198,-0.197377,-0.077664,0.299512,-0.199719,0.323568,0.190883,0.378548,0.261919,-0.010205,-0.116592,0.438808,0.462561,0.003899,0.171561,-0.318477,0.227042,-0.191952,-0.300634,0.455978,-0.099289,0.434159,0.524899,0.235153,-0.358016,0.160157,0.526991,0.558561,-0.280322,-0.679298,-0.809097,0.007286,-0.610645,0.312789,-0.474431,0.399237,0.424284,0.272523,0.705615,0.042625,0.184310,0.306721,-0.047288,0.418417,-0.035309,-0.397814,-0.770071,-0.627989,0.088256,-0.712308,-0.572915,-0.259788,-0.331237,0.368265,0.070051,-0.106850,-0.210730,0.592785,0.188139,0.198536,0.087750,-0.056813,-0.144947,0.108222,0.656571,-0.587869,-0.771393,-0.563027,0.204836,-0.681851,-0.456891,0.023777,-0.371305,0.511503,0.543512,-0.174861,0.098239,-0.111178,-0.262556,-0.334562,-0.748411,-0.582157,-0.322111,-0.800616,-0.486953,-0.720283,0.236322,0.399851,-0.101162,0.636626,0.313387,-0.667518,-0.187509,0.314591,0.164743,-0.237089,-0.280776,-0.371661,-0.246056,-0.283666,-0.525814,-0.553805,0.675243,0.678829,0.354933,0.167945,0.203987,-0.069410,-0.124398,-0.004927,0.286419,0.754129,0.077003,-0.396526,0.257381,-0.425995,0.466573,0.002968,0.420863,0.046383,0.137438,0.654765,-0.393973,-0.251931,-0.476720,-0.059736,-0.445208,0.040410,-0.441568,-0.100880,0.265128,0.361650,0.429516,-0.088872,-0.339856,0.709992,0.141414,0.822258,0.390225,0.232919,-0.612179,-0.865416,0.262373,-0.227108,-0.060815,-0.188139,0.223154,0.081804,-0.437504,-0.304126,-0.584516,0.534646,0.185340,0.730675,0.399832,-0.191408,0.348621,0.464692,-0.067770,-0.263798,-0.139596,-0.145222,0.150625,0.279414,0.475776,-0.173098,-0.348539,-0.153048,0.189105,-0.236088,-0.111639,0.175802,0.651477,0.398180,0.756232,-0.322127,-0.596803,-0.420061,-0.226543,-0.350528,0.518385,-0.304592,-0.160987,-0.447481,-0.553952,0.361906,0.785506,-0.107511,-0.059149,0.366212,0.165090,0.614956,0.601485,-0.158599,0.035306,0.258980,-0.767569,-0.655621
-0.053757,0.708611,0.452541,0.284463,0.446471,0.571652,0.520222,0.520738,0.780095,0.877495,0.428979,0.799740,0.373815,-0.082854,-0.335744,-0.275153,0.088058,0.432428,0.106994,0.391344,0.337417,0.034265,0.663050,0.263018,0.494995,0.687633,0.794921,0.090778,-0.098832,0.243424,0.840998,0.841205,-0.096258,-0.087640,-0.483103,0.178623,0.565680,-0.240756,0.027322,0.037696,-0.329304,0.375016,0.118010,0.453494,0.859631,0.548392,0.638957,1.046251,-0.228256,0.336752,0.033252,-0.430440,-0.044754,-0.641141,-0.454816,0.147210,-0.065163,0.344843,0.716910,0.732835,1.029275,0.122794,1.285346,1.031749,-0.669270,0.029034,-0.389684,0.211045,-0.189793,-0.584153,0.311321,-0.217050,-0.208454,-0.177061,-0.007949,0.520734,0.548335,0.758639,1.047845,0.592307,-0.414820,-0.235211,0.313039,-0.304351,0.050189,-0.126180,0.316090,0.812324,-0.073997,0.712899,0.170595,-0.048348,0.343212,0.132261,0.618109,0.507758,-0.398228,-0.319527,-0.554764,0.274257,-0.392583,0.365471,-0.197483,0.280608,0.327477,0.094256,0.056969,-0.213295,0.373705,-0.067704,0.264974,-0.052087,-0.758608,-0.169428,-0.391934,0.219047,0.462397,-0.195497,0.055159,-0.035714,0.271506,0.070077,-0.018825,-0.650880,0.408406,-0.055444,0.730294,-0.189895,0.252064,0.182802,0.059720,-0.303477,0.224548,-0.433726,0.700563,0.614707,0.157127,-0.335072,0.032674,-0.053807,-0.127163,-0.294036,-0.053071,0.056764,-0.035289,0.374672,0.093893,0.533640,-0.547878,-0.416297,-0.042000,-0.060286,0.321771,-0.128805,0.206189,0.155692,-0.151610,0.256235,0.039751,0.042175,-0.141685,-0.117391,0.294420,0.016347,-0.018219,-0.063718,-0.564549,-0.799069,-1.216426,-0.219156,-0.043727,-0.165411,-0.013375,0.136371,-0.322416,-0.338473,0.380923,0.125053,0.020398,-0.195716,-0.159350,-0.092741,-0.190196,-0.605689,-0.617136,-0.275198,-0.472753,0.304830,0.037831,0.549850,0.717265,-0.337107,0.123394,0.005352,-0.377627,0.453970,0.044324,-0.294940,-0.862528,0.131055,-0.226106,0.013230,-0.037971,-0.474898,-0.198412,0.168816,-0.315270,-0.960564,0.415347,0.248545,-0.528511,-0.143734,0.252367,-0.813921,-0.496245,0.132299,0.015801,-0.510798,-0.042937,-0.644917,-0.576599,0.384743,0.202409,-0.424311,0.219534,-0.015091,-0.094823,0.485257,-0.586184,0.115944,-0.113496,0.558540,-0.427617,0.039444,-0.499463,-0.159562,-0.161057,-0.110079,0.240578,-0.178404,-0.068080,-0.275776,-0.415189,0.457075,-0.925899,0.258047,0.692813,-0.525220,-0.068676,-0.382223,-0.359770,0.451035,0.127669,-0.038681,-0.467219,-0.372079
0.210523,0.740183,0.972937,0.720697,0.636169,-0.061387,0.749481,0.494855,0.298362,0.333199,1.035278,0.391223,0.142761,0.541223,1.014389,-0.225963,0.455705,0.038538,0.691106,0.312188,0.186785,-0.250790,-0.063179,-0.145294,0.411936,-0.111562,0.380859,0.052490,0.355337,-0.251314,0.374669,0.008557,0.309644,0.164915,0.443949,-0.608620,0.274820,0.236880,0.062874,0.445686,0.030408,-0.013356,0.178453,0.139753,-0.056103,0.528214,0.552738,0.246333,0.434179,-0.113612,0.386767,0.575542,-0.390957,-0.182472,0.386282,0.249882,-0.566050,0.105605,-0.493177,0.139274,-0.091839,-0.223228,0.040190,-0.016825,-0.296656,0.065723,0.033750,0.003475,0.257790,-0.159432,-0.195337,0.014262,-0.281770,0.060083,0.138644,0.066365,0.204575,0.331649,0.281553,0.298418,0.504219,-0.283817,-0.348700,0.614165,0.291177,-0.437450,-0.030093,0.442131,-0.360834,0.288613,0.477259,-0.493473,-0.447668,-0.122695,0.013367,0.080845,-0.212214,0.234314,0.206406,-0.492468,-0.012940,-0.049959,-0.259915,0.094801,0.774211,0.311305,-0.175096,-0.223245,-0.309588,-0.311744,0.283322,0.651994,0.628583,-0.450600,0.507649,0.413424,0.092753,0.379102,-0.303134,0.673020,-0.216945,0.638686,-0.303826,-0.426282,-0.002076,-0.592391,0.600263,0.683014,-0.042924,-0.289492,-0.107137,-0.230967,0.353827,-0.394801,-0.511139,-0.601984,-0.675206,0.251922,-0.644414,-0.466590,0.500357,0.452420,0.067516,0.435110,-0.362891,-0.477647,-0.260103,-0.249825,-0.020084,-0.532383,-0.729980,-0.185422,-0.239632,-0.507540,-0.335322,0.091821,-0.060173,-0.049002,0.911616,0.459134,-0.233859,-0.235110,-0.765110,-0.463334,-0.583582,0.028335,0.033867,-0.204765,0.215806,0.323131,0.111588,-0.143316,-0.704345,-0.220626,0.007738,0.194596,-0.292976,-0.128858,-0.702647,-0.182798,0.034990,-0.117690,-0.689682,-0.612263,0.176854,-0.391432,0.238570,-0.362200,0.022165,0.155839,0.863149,0.518536,-0.128354,-0.513084,-0.706157,-0.647825,-0.778569,-0.586222,-0.366721,-0.195567,-0.403774,0.200911,0.063320,0.077328,-0.272927,-0.095481,-0.327660,-0.038448,-0.565313,-0.166331,-0.497477,-0.342759,-0.748225,-0.125041,-0.217104,0.020071,0.111180,-0.702473,0.001236,-0.179018,0.088058,-0.520100,-0.287502,-0.581240,0.095626,-0.344339,-0.678790,-0.253766,-0.462808,-0.033139,-0.072883,-0.129378,-0.520282,-0.390592,0.334308,-0.233586,0.067345,-0.693138,-0.107424,-0.094319,0.103807,0.497068,-0.139453,-0.015681,-0.200028,0.094379,-0.467340,0.077112,-0.043418,-0.318543,-0.305172,0.147883,-0.556034,0.288689,-0.329888,-0.390988
0.049652,0.991462,0.842513,0.750318,0.479285,-0.090407,0.609777,0.094996,-0.554378,0.048359,0.293268,0.116258,-0.141790,-0.276380,0.105093,-0.381615,0.728484,0.315461,-0.266664,0.585466,-0.215658,-0.003984,-0.223276,-0.348292,-0.120027,-0.157872,-0.874843,-0.809155,-0.223047,-0.311657,-0.153614,0.094948,0.669817,0.447357,0.233813,0.351014,0.808857,0.298435,0.195071,0.286905,0.005686,0.251941,-0.164994,-0.383446,-0.521474,-0.281803,-0.134725,-0.275685,-0.019871,-0.094230,-0.188289,-0.033033,0.048744,0.560612,0.379823,0.050772,0.399871,-0.069670,0.327026,0.058907,-0.508616,-0.820119,0.151105,-0.356764,-0.094060,-0.234503,-0.344638,-0.275477,-0.357402,0.054119,0.121312,0.399519,-0.392902,-0.649491,-0.172323,-0.468982,-0.174449,-0.038525,-0.208613,0.577866,0.480782,-0.216019,-0.134715,-0.409243,0.118601,-0.451152,-0.212538,0.373949,0.090462,-0.214056,0.589557,-0.212292,-0.422344,-0.143615,-0.010373,0.399733,0.332739,0.511401,0.038669,-0.512882,0.159146,-0.645301,-0.537755,-0.840484,-0.528713,-0.040616,-0.193238,-0.109829,-0.100893,-0.268382,-0.609019,0.344160,0.272081,-0.190647,0.229125,-0.333403,-0.045145,0.035353,-0.030908,-0.400935,-0.032233,0.117865,0.523459,-0.023013,-0.116480,0.005500,-0.013863,0.261204,-0.127770,0.425335,0.678302,0.602052,0.718626,0.502451,-0.130687,0.026138,0.023780,-0.455599,0.219225,0.527965,-0.169010,0.236117,-0.221205,0.366295,0.326081,0.224239,0.463884,0.625734,0.423837,0.214924,0.319737,0.437748,0.107497,0.621165,0.376904,0.600112,0.246799,0.797786,-0.469122,0.788047,0.104419,0.300719,-0.627871,-0.273565,0.187793,0.108062,0.179739,0.595076,0.397175,0.253330,0.623245,-0.099241,0.021479,0.286151,-0.169015,0.134923,-0.314070,-0.104694,-0.422674,-0.281348,0.315611,-0.238992,0.061797,1.045312,0.515392,0.266848,0.666314,0.343168,-0.326001,0.101576,-0.134011,0.409996,-0.420452,-0.723618,-0.201095,0.180012,0.032516,0.249048,0.503734,0.149179,0.434694,-0.289716,-0.006906,-0.007364,-0.067652,-0.319587,-0.255071,-0.292231,-0.115915,-0.134393,0.166447,-0.555068,-0.510343,-0.207335,-0.199969,-0.294400,-0.148324,-0.066448,-0.656667,-0.000993,-0.353958,-0.423594,-0.095866,0.101538,-0.257951,-0.911216,-0.234235,-0.503068,-0.104839,-0.558497,-0.868270,-0.465295,-0.178975,-0.474267,-0.973384,-0.774247,-0.061908,-0.364221,-0.289119,0.289466,-0.331123,-0.496707,-0.104890,-0.665725,-0.180312,-0.608681,-0.272447,-0.105349,-0.075749,-0.317182,0.140326,-0.005658,-0.665704,-0.241602,0.312926,0.758303
0.022949,-0.213165,0.610766,0.461275,-0.047538,0.265914,-0.094624,0.211051,0.212762,0.512660,-0.026486,-0.169687,-0.298381,-0.484093,0.416009,-0.236663,-0.463598,0.484994,-0.295386,-0.002872,-0.865404,-0.800718,-0.501174,-0.566239,0.004563,-0.391314,0.345005,0.044197,-0.044387,0.186763,0.289849,-0.232257,0.110765,0.045616,0.042264,-0.082046,-0.034271,-0.387132,0.054111,-0.190027,-0.312213,-0.414553,-0.689161,0.044428,-0.380245,0.021616,0.023717,-0.009981,-0.510470,0.345162,-0.410408,-0.041597,0.105652,0.409779,-0.392411,0.152236,-0.075380,0.097031,-0.423670,-0.223682,-0.453165,-0.087265,-0.134683,-0.047361,0.145513,0.256049,0.580692,0.394447,0.100235,-0.187578,0.219440,0.001332,0.077135,-0.250237,-0.164980,-0.022814,0.026023,0.294721,0.557886,0.424624,0.348131,0.534057,-0.082209,0.427323,0.086026,0.028024,-0.244062,0.406389,-0.132259,0.002283,0.200633,0.349770,0.463813,0.439533,0.517895,-0.159190,-0.095762,-0.194654,-0.317017,0.254004,-0.273160,0.700264,0.015323,-0.407932,0.156793,-0.043201,-0.641322,0.070200,0.579820,-0.300624,0.584712,0.311678,0.366666,-0.197458,0.112228,-0.079390,-0.200754,-0.034943,0.466176,-0.676845,-0.554722,0.169609,-0.613667,-0.382439,0.442363,0.136161,0.643343,0.144926,0.286284,0.285688,0.429408,0.341509,0.519225,0.203806,-0.933871,-0.719741,-0.555460,-0.108358,-0.628955,0.538211,0.714030,0.028210,0.363522,0.556973,0.235116,-0.433035,0.049242,0.220023,-0.544160,0.451872,-0.485511,-0.442759,-0.134238,-0.193972,-0.453580,-0.173833,0.046732,0.608013,0.154770,0.789098,-0.159721,-0.134949,-0.913048,-0.252688,-0.314649,-0.600788,-0.320429,-0.129304,-0.292291,-0.249134,0.482892,0.021722,0.715874,0.269401,0.584150,0.327100,-0.114845,-0.603793,-0.857661,-0.154145,0.105283,-0.587255,-0.464046,-0.042813,0.586936,0.487434,-0.184336,0.715440,0.025831,0.552980,0.476461,0.652101,-0.404253,-0.095909,-0.139850,-0.317169,-0.580779,-0.201744,-0.302166,-0.513808,0.205677,0.396144,-0.035921,0.098683,0.140080,0.379612,0.267028,0.104065,0.343866,-0.010917,-0.634131,-0.312502,-0.245953,-0.494180,-0.365897,-0.593221,-0.404209,-0.138979,0.071724,0.210591,0.174750,-0.113438,-0.308084,0.007478,0.270661,-0.308830,0.347826,-0.281786,0.006701,-0.257280,0.451787,-0.531976,-0.240576,-0.333382,-0.374810,-0.334205,-0.019939,0.166879,-0.048598,-0.176222,0.002049,-0.469593,-0.566928,-0.342890,0.287580,0.320439,0.266739,0.170459,0.057754,-0.327803,-0.110676,0.543510,0.302826,0.182149,-0.031295,0.123529
0.020746,-0.121605,-0.271692,-0.225370,-0.297185,0.039895,-0.460851,0.097259,0.609815,0.207704,-0.417706,-0.557073,0.427879,-0.253775,-0.210881,0.083460,0.167129,0.057496,-0.116101,-0.405587,-0.068291,-0.028806,-0.548329,0.353434,0.277980,-0.130414,0.313593,-0.372964,0.142965,0.481749,0.447961,0.202454,0.009387,-0.084067,-0.010484,0.423446,-0.280005,0.039522,-0.159794,-0.217431,-0.263634,0.078217,-0.355303,-0.074799,-0.273315,0.461017,0.025585,0.075240,0.240221,-0.233200,-0.333991,-0.183650,-0.293040,-0.389621,0.269121,-0.403047,-0.217934,0.558497,0.336021,-0.379205,0.365911,-0.534319,0.396637,0.588498,-0.170139,-0.120650,-0.172274,0.254831,-0.183078,0.362898,-0.121070,-0.103544,-0.391046,-0.091841,0.309113,-0.597583,0.253656,-0.396637,-0.260624,-0.353431,0.266880,0.247839,-0.375637,-0.248019,-0.098847,-0.140045,0.013358,-0.544826,-0.164169,0.409977,0.138116,0.054919,-0.672473,-0.029335,0.149396,0.734792,-0.250722,0.180062,-0.187986,-0.317809,-0.491158,-0.560352,0.414988,0.069074,0.198427,-0.212905,0.206399,0.021219,-0.150658,-0.241817,0.558755,0.303241,0.503857,-0.130757,0.057278,-0.239327,-0.140904,-0.951705,-0.293486,-0.030155,-0.564827,0.384666,-0.340520,-0.398467,-0.251562,-0.063801,-0.364444,0.283775,0.600599,-0.273554,0.043556,-0.068919,-0.048360,-0.526009,-0.242284,-0.159284,0.364993,0.330375,-0.482819,-0.142701,-0.580931,-0.282197,0.302682,0.338178,0.188049,0.347391,-0.051421,0.472085,-0.181758,-0.359624,0.140444,-0.010064,-0.508420,0.114774,0.204996,0.227853,-0.065333,-0.021888,0.500899,-0.100904,0.113074,0.332312,0.451186,0.524604,0.342652,0.272543,0.247148,-0.014680,-0.161754,-0.487494,-0.172503,-0.619682,0.180197,-0.195510,0.402998,0.135554,0.020115,0.519758,0.560143,0.426557,0.063991,-0.264391,0.401692,-0.221742,-0.582978,-0.303623,0.306295,0.235663,0.008743,-0.052245,-0.257281,0.070304,1.213738,0.767640,0.073822,0.525577,-0.007559,0.156537,0.000174,0.314879,0.514049,0.388110,0.404372,0.186100,0.000044,0.019906,-0.087900,-0.114867,0.927243,0.256365,0.579018,0.691688,0.371469,0.209169,0.472339,0.026864,0.043786,-0.008323,-0.325433,0.106239,-0.562378,-0.602653,0.459661,-0.119614,0.516966,-0.097022,0.604023,0.394003,0.717100,0.578888,0.128141,0.547928,0.744121,0.498148,-0.009699,-0.248863,0.367470,0.137949,0.001554,-0.074045,0.438611,0.739259,-0.228459,0.577955,-0.236956,0.354138,0.320038,-0.454388,0.643475,0.735501,0.083739,-0.035237,-0.407779,0.264357,-0.193792,0.052781
-0.454768,0.130847,0.036432,0.059924,-0.378982,0.035463,-0.083823,0.497138,-0.262478,0.221865,-0.299345,0.339941,0.153337,-0.200109,0.470584,-0.085408,0.232874,-0.285631,0.403969,-0.142549,-0.134745,-0.204370,0.524269,0.254237,-0.196623,-0.086047,-0.062236,-0.275725,-0.190655,0.591785,0.918516,0.573744,-0.033005,-0.280592,-0.332734,-0.119272,-0.226854,0.021039,-0.413311,0.032261,-0.200344,0.104738,0.134614,-0.365030,-0.412110,0.467019,0.616055,0.274534,-0.165734,-0.596892,-0.281053,0.075005,0.094747,0.491346,0.090815,-0.382468,0.041708,-0.490303,-0.268839,-0.438042,-0.247100,0.099724,0.794890,0.638892,-0.219980,0.114486,-0.439211,0.234024,-0.536351,0.085036,-0.187228,-0.451189,-0.221671,0.202877,-0.173249,0.417104,-0.092948,0.310983,0.648267,-0.645545,-0.014416,0.090267,-0.238001,0.169420,-0.696797,-0.197583,0.291243,-0.329820,-0.239701,-0.218523,0.323787,0.893493,0.285035,0.315807,0.309944,-0.341624,0.406419,0.536568,-0.061528,0.096296,-0.120387,-0.929746,-0.561378,-0.525654,-0.326566,0.405633,0.312219,0.084041,0.336032,0.545831,0.085650,0.366911,0.463050,0.285206,-0.543481,-0.379607,-0.726221,0.061015,0.100467,0.224373,-0.017820,0.318597,0.506670,0.342002,0.473960,0.266170,0.028689,-0.366433,-0.064789,-0.172933,0.379111,0.146937,0.005736,0.154783,-0.569356,-0.156083,-0.048750,-0.098010,-0.241105,0.265819,0.238645,0.289484,-0.150080,-0.043539,0.188660,-0.588954,-0.511463,-0.421267,0.346558,0.170133,-0.230301,-0.131174,-0.388532,-0.239785,-0.431366,0.100878,-0.447894,0.074514,-0.457538,-0.113223,0.055080,0.154296,-0.171658,0.566823,0.472693,-0.042392,-0.352489,0.011533,-0.430979,-0.496732,0.162293,-0.043841,-0.017411,-0.080874,-0.592586,0.017972,0.010392,-0.423394,0.354839,-0.428202,-0.234821,-0.386042,-0.073491,-0.018426,-0.236985,-0.319379,0.104267,-0.391884,-0.099259,-0.531906,-0.013946,-0.601895,-0.165948,0.041550,0.336925,-0.233428,-0.026019,-0.047192,0.098088,-0.223442,0.221301,-0.203603,0.004941,-0.309436,0.606315,0.168207,-0.682071,-0.373593,0.260847,0.443340,-0.391989,-0.160029,-0.397912,-0.155185,0.224827,0.401256,0.097215,0.021364,0.514765,0.227478,0.049621,0.146772,-0.816950,-0.384264,0.188110,0.537983,0.150225,0.319486,-0.426597,-0.262138,-0.256763,-0.200519,-0.096474,0.222973,0.050553,0.464288,-0.249604,0.208551,-0.167465,0.209820,0.186073,-0.371475,0.602453,-0.203030,-0.309790,0.482107,0.068777,-0.181966,-0.486970,0.226562,0.265339,-0.208821,-0.098450,0.388493,0.464670,-0.084066
0.421031,-0.043815,0.242118,-0.549570,-0.406968,-0.166601,-0.085636,0.816020,-0.334195,0.548472,-0.025995,0.124788,0.693142,0.378701,0.257762,0.733589,0.532383,0.023199,0.245283,-0.473874,-0.293782,-0.079895,0.914479,-0.017737,0.726215,0.319342,0.641756,0.329394,-0.208940,0.032139,0.286343,0.109577,0.181029,-0.496442,-0.259059,0.182254,0.573310,0.182468,0.244546,0.062917,-0.141321,0.623302,0.217523,0.483427,0.081585,-0.118989,0.371717,0.337199,0.360781,-0.394872,-0.112873,0.430655,0.064567,-0.459009,-0.692163,-0.392424,-0.278834,-0.120166,-0.091738,-0.191733,0.212126,0.545115,0.257804,0.020728,-0.500258,0.028326,0.232666,0.485476,-0.537626,-0.192666,-0.104961,0.403345,-0.139534,-0.088673,-0.102907,0.068001,-0.237653,-0.160713,-0.466377,-0.120553,-0.565717,0.086939,-0.414253,-0.106342,0.137428,0.250131,-0.313417,0.678502,0.071067,0.290420,0.372493,0.475065,0.099375,0.183675,-0.308236,-0.426688,-0.016424,-0.502351,-0.308249,-0.057598,-0.393656,-0.008033,0.648723,0.508182,0.586484,0.508762,-0.109696,-0.347260,0.107188,-0.362253,-0.705263,0.035741,-0.403375,-0.477773,0.061305,-0.385686,0.066058,0.040860,0.610140,0.505232,-0.287304,0.368021,0.639047,0.442253,-0.418940,-0.356071,-0.151738,-0.449060,-0.100004,-0.746154,-0.854757,-0.098897,-0.225419,0.225776,0.357306,0.110868,0.012609,-0.138412,0.370950,0.099747,0.456018,-0.075773,-0.563997,0.052264,-0.724026,-0.451286,-0.539049,-0.284081,-0.230915,-0.150599,-0.100917,-0.179010,-0.619838,-0.680677,-0.302863,-0.099583,-0.334871,0.448528,0.237369,-0.047031,-0.834570,-0.252127,-0.666353,-0.184632,0.486309,-0.189213,-0.062649,-0.585901,-0.152821,0.147410,0.134617,-0.274039,0.078022,-0.159826,0.332804,0.013164,-0.161892,-0.708021,-0.363080,-0.782131,0.252049,-0.037880,0.277262,-0.467984,-0.020390,-0.454513,0.361380,-0.281537,0.391481,0.653177,-0.209647,0.308032,-0.484611,-0.575196,0.057173,-0.120124,0.212457,0.474232,0.394002,0.125907,0.691143,0.093361,-0.152896,-0.313834,0.126623,0.738170,0.482398,0.269490,0.013079,-0.253727,-0.207425,-0.439087,-0.863258,-0.208003,-0.439326,-0.335612,0.430970,0.133671,-0.221366,0.324545,-0.111467,0.346234,-0.496115,-0.331083,0.242182,0.010471,0.227387,0.700403,-0.163807,-0.281250,-0.366166,-0.718079,-0.475458,-0.140158,-0.507118,-0.241109,-0.193691,-0.342325,-0.222427,0.577191,0.470614,-0.079011,-0.236056,0.175300,0.489058,0.237259,-0.630080,-0.360108,-0.114790,-0.109874,-0.245458,0.019295,0.132716,0.554451,0.229335,0.528456
