0.349159,-0.023208,0.252306,0.210105,0.278056,-0.451383,-0.405260,0.415247,-0.482493,-0.070178,-0.372187,0.372846,0.435974,0.155685,-0.020645,0.401904,0.488408,0.501937,-0.207518,0.501013,-0.257608,0.244397,0.065844,0.104439,0.476297,-0.088397,-0.366038,0.494468,-0.381646,0.438002,0.034460,0.108411,0.264154,0.498400,0.275822,-0.183240,-0.004956,-0.422730,0.324123,-0.241882,0.181347,-0.280555,-0.371982,-0.096215,0.195955,-0.215254,-0.406969,0.229674,-0.352867,0.208057,-0.224459,-0.123379,-0.117234,-0.272391,0.113136,0.154972,-0.403474,0.166908,-0.032557,0.397690,-0.325261,0.457165,0.293127,-0.105202,0.323620,0.458675,0.256632,0.309602,-0.317894,0.416265,-0.325094,0.506320,-0.049164,0.148782,0.035408,0.064099,0.495495,-0.089858,0.139040,-0.379230,0.362493,-0.125907,0.142029,-0.326236,0.098462,0.025850,0.360750,0.327445,0.103013,0.005677,-0.057418,0.556131,0.075928,0.402740,0.479275,0.330458,0.211720,-0.152641,-0.514533,-0.019040,-0.237976,-0.485465,0.359389,-0.002254,-0.130290,0.153658,0.027290,-0.446534,-0.257893,0.112072,-0.242415,-0.048556,-0.390385,-0.395993,0.176811,-0.348555,-0.448447,-0.437053,0.423247,-0.312659,-0.155433,-0.182229,0.136903,-0.116277,-0.037312,0.472256,0.423295,0.303784,0.434328,0.254312,0.207680,-0.050993,-0.203402,0.121427,0.019729,-0.386374,-0.142327,-0.305103,-0.216381,-0.493091,-0.467568,-0.025142,0.149115,-0.294356,0.042532,0.003418,-0.093250,-0.040812,0.379029,0.064871,0.488824,-0.038791,-0.121437,-0.250730,-0.314066,-0.386540,-0.145332,0.017124,-0.165398,0.143970,0.428652,0.404673,0.355132,-0.334887,-0.159883,0.492064,0.122166,-0.046053,0.374768,0.152787,0.017822,0.279629,0.091435,-0.509897,0.241994,-0.370390,0.012881,-0.052989,-0.230300,-0.349351,0.309465,-0.033795,0.014581,-0.496783,0.179745,-0.077860,-0.114401,-0.030307,-0.331315,0.024248,0.334424,0.227847,0.373824,-0.219719,-0.052303,0.115012,-0.222265,0.376221,0.061723,0.085035,0.035827,-0.314875,0.284028,0.391930,0.097143,-0.505649,-0.371532,0.497401,-0.294358,-0.411186,0.020784,-0.266233,-0.068544,-0.155238,-0.239089,0.065832,-0.270087,0.019318,-0.426649,-0.360913,-0.279292,0.325214,0.323510,-0.041102,0.207293,0.533700,0.119672,-0.191609,0.421511,0.430384,-0.220985,-0.232220,0.267572,0.235228,0.155393,0.437065,0.094033,0.456799,-0.258512,0.041363,0.362917,0.006152,0.541736,0.168497,0.340493,0.413067,-0.194977,0.128294,0.253380,0.131276,0.241991,-0.009782,0.273131,-0.085598,0.337384,0.473057
0.507808,-0.120749,0.376296,0.050283,0.118958,-0.139753,0.228019,-0.025019,0.239310,-0.196137,0.119370,0.039109,0.389429,-0.320736,0.456660,0.345015,0.198106,0.353886,0.578654,0.488631,0.542540,-0.050275,0.144711,0.558813,-0.232485,-0.045690,0.499016,-0.028108,0.504788,-0.445791,0.103948,-0.283241,0.035859,0.185838,-0.079366,0.536918,0.052635,0.333036,-0.413996,0.418835,0.472214,-0.251595,0.007509,-0.174254,-0.096588,0.547712,0.429445,-0.452067,0.015530,0.157154,-0.076142,0.264246,0.245815,-0.099160,-0.153397,-0.112196,-0.154958,-0.434111,0.170060,0.472000,0.276632,-0.388920,-0.203332,-0.280447,0.345956,-0.287572,0.148191,0.047536,0.157455,0.418236,0.353972,-0.157266,-0.292600,0.031754,0.098500,0.288641,-0.102820,0.093817,-0.496638,0.393160,-0.203825,0.271382,0.084929,-0.400320,0.112375,-0.345179,-0.316296,0.329737,-0.162505,-0.352191,-0.445247,0.262723,-0.075734,0.219799,-0.433250,0.197652,-0.378848,-0.405476,-0.058375,0.373184,-0.378672,-0.293882,0.059899,-0.170805,-0.224098,0.151905,-0.131631,0.227998,-0.490867,0.428940,0.003005,0.398506,-0.406428,-0.318890,-0.063759,-0.286327,-0.097004,-0.399663,-0.259901,-0.228731,0.322154,-0.214704,-0.394956,-0.150259,-0.232946,-0.091670,0.428219,0.421754,0.151616,0.266819,-0.310998,-0.324971,-0.238216,-0.540575,-0.549610,-0.131227,-0.131038,0.185154,0.110976,-0.062925,0.016062,-0.087626,0.434083,0.169400,0.108581,0.522554,-0.301586,-0.063524,-0.100812,0.170415,0.229192,-0.336135,-0.312062,-0.328824,0.379055,0.335440,0.014238,0.376470,0.070612,0.059050,-0.194616,0.002074,0.280502,0.307971,0.107391,-0.072390,0.278944,0.194478,-0.311731,-0.311060,0.431784,0.459520,-0.187210,-0.223427,-0.262006,-0.159170,0.070947,0.304775,-0.499298,0.261396,-0.432280,-0.001083,0.390588,0.199511,0.209852,0.238527,0.356535,-0.411104,0.005545,-0.218892,0.350900,-0.252128,0.157876,-0.131141,0.112388,-0.116595,-0.232222,0.421335,0.257505,-0.415100,-0.188164,0.551702,0.153510,0.068028,0.094415,0.178511,0.156129,-0.414061,0.346220,0.245727,-0.423778,-0.379724,0.359739,-0.146245,-0.001598,-0.453309,0.103344,-0.165056,0.317907,-0.015402,-0.195430,-0.015982,-0.360504,-0.360129,-0.208997,-0.139091,-0.331379,-0.431844,-0.439146,-0.325298,0.126483,-0.142924,-0.085368,0.086312,-0.450544,-0.690575,0.265096,-0.117896,0.113898,0.169800,-0.195480,-0.212755,0.101484,-0.001912,0.313045,0.430143,-0.193763,-0.233367,-0.200309,0.249124,-0.249193,-0.509510,-0.511064,-0.110119,-0.259445,-0.232012
0.052812,-0.128741,0.149832,0.477540,0.151454,-0.035479,-0.275129,-0.400267,0.327382,0.018295,-0.020300,-0.416168,0.241971,0.268324,0.368373,0.467049,-0.231839,-0.151221,-0.104511,-0.147408,0.388608,0.321078,-0.003278,0.151955,0.253501,0.380569,0.389233,-0.230766,0.194313,-0.108683,-0.215714,-0.299484,0.474636,-0.331756,0.390306,0.189033,-0.316810,-0.239135,-0.186467,0.107260,0.029470,0.012954,0.223578,-0.381100,0.155939,0.038196,0.086367,0.320785,-0.140319,0.328366,-0.190573,-0.002216,0.247777,-0.459505,-0.426390,0.383112,0.079941,0.156225,-0.049342,0.078172,-0.297984,-0.333615,0.068424,-0.326279,0.361744,0.012494,-0.393930,0.013424,-0.431639,0.240989,-0.308504,-0.432892,0.508999,0.021243,-0.355276,-0.450601,0.255776,0.466518,0.383529,0.442976,0.194104,0.026194,-0.462390,-0.407012,-0.238216,-0.329156,0.310189,0.503774,-0.133090,-0.477218,0.111705,-0.116854,0.212925,0.450105,0.050818,-0.273128,0.337425,-0.242235,0.460257,-0.252470,0.039029,0.031410,-0.050278,0.112090,-0.414087,0.361208,-0.444716,-0.072795,-0.192923,0.240182,0.070673,-0.427126,-0.383191,-0.382581,-0.416425,-0.043874,-0.364847,0.042252,-0.236154,-0.244916,-0.133218,0.426695,0.138892,0.054163,-0.446386,-0.516142,-0.324714,0.158268,0.047625,-0.201859,0.027717,-0.135016,-0.402477,-0.014450,0.093122,-0.131702,0.028142,-0.041557,-0.270178,-0.007698,0.360985,0.497002,0.488173,-0.347277,-0.354150,-0.311966,-0.440542,0.089731,0.378029,-0.302670,0.382666,-0.154266,-0.106534,-0.226925,-0.447667,-0.030894,-0.476945,-0.359140,-0.432103,-0.039501,-0.488952,-0.145838,0.132353,-0.152819,0.284609,-0.254534,-0.060971,0.044263,-0.171244,-0.138925,0.161076,0.270168,-0.141474,0.379489,-0.405494,-0.044566,-0.254979,-0.514834,0.048899,-0.035051,-0.416696,0.281376,-0.064004,0.277621,-0.052134,0.436074,0.318907,-0.100218,0.154990,-0.267731,-0.070834,-0.155599,0.241601,-0.521588,0.365235,0.070166,0.252117,0.375731,0.089647,0.380071,-0.283122,-0.302652,0.160408,0.073742,0.321249,-0.113382,0.259096,0.109178,-0.258084,-0.259865,0.014041,-0.202322,0.331600,0.196979,0.176598,-0.244407,-0.230084,0.355925,0.237401,0.481321,-0.223983,0.357555,0.282531,-0.448995,0.253210,0.171213,0.135323,-0.314702,0.199307,0.106415,-0.423353,0.269783,-0.132181,0.235285,0.081424,-0.068037,0.275638,0.259664,0.487458,-0.342123,-0.223995,0.308892,-0.064288,0.142822,0.379312,-0.464677,-0.353598,0.028821,0.055359,0.115104,0.126581,0.256212,-0.442990,-0.459641,0.224760,-0.149932
-0.366721,-0.451863,0.395172,0.355248,-0.090464,-0.298177,0.073133,0.571726,-0.223235,0.229755,-0.366691,0.096845,0.242903,-0.326447,0.318547,0.220417,0.274690,0.421998,0.396179,0.006288,0.422364,-0.439702,-0.158948,-0.164146,0.344350,-0.428175,0.282541,-0.371940,0.069345,0.092420,0.542083,0.443031,-0.500635,-0.399555,0.056498,-0.200562,-0.328546,0.334265,0.370474,-0.335560,-0.250785,0.138359,0.291805,-0.012627,-0.457038,0.569491,-0.097793,-0.278890,0.277385,-0.406868,0.263775,-0.349503,0.186111,0.083256,-0.281447,-0.449186,0.012870,0.019705,0.113284,0.070248,0.103293,-0.378527,0.029996,0.435206,0.144036,0.151129,0.246308,0.033325,0.095294,0.298992,0.031816,0.362695,0.401455,0.103767,-0.463329,-0.146076,0.007684,0.240685,-0.322279,-0.345449,-0.066064,-0.350774,0.067336,0.171529,-0.342316,0.351130,0.064630,0.059352,-0.224276,-0.184898,0.083567,-0.014305,0.309378,-0.513786,-0.407732,-0.324567,-0.044315,0.422127,-0.027207,-0.096919,-0.128863,-0.394745,-0.347682,-0.217844,0.055327,-0.204643,0.073707,-0.289296,0.212830,-0.050393,0.058502,-0.070498,0.111135,0.342091,0.289613,0.172528,-0.153908,0.000565,-0.050628,0.073337,0.204196,-0.103007,0.098186,-0.089026,-0.252238,0.049643,0.059064,0.581894,0.458975,0.185634,-0.360443,-0.249055,0.084105,0.219818,-0.191120,-0.394892,-0.484012,-0.039419,-0.453339,0.346364,0.177614,-0.263383,0.587347,-0.092660,0.363449,-0.445543,-0.509740,-0.601677,-0.007811,-0.395674,0.351692,0.325490,0.303034,0.414133,-0.435168,-0.187147,0.396900,0.062409,0.559320,0.344684,0.306535,-0.434653,-0.108148,0.124450,-0.428709,0.416701,-0.196811,-0.479716,0.117676,0.298165,-0.052604,0.419596,0.203302,0.343098,-0.020574,-0.069473,0.100030,-0.196116,-0.226709,0.423870,0.101973,0.301015,-0.199036,-0.049864,0.150897,-0.287223,-0.050154,0.224810,-0.006370,0.602981,0.546117,0.440736,-0.419038,0.109810,0.075109,-0.193246,0.129648,-0.170948,0.058446,-0.025493,0.435892,0.322797,-0.429775,0.494683,0.240097,0.118882,0.049483,0.121551,-0.098513,-0.112745,-0.101128,-0.170375,-0.332468,0.263929,-0.535740,0.001429,-0.190460,0.313596,-0.269832,-0.134135,0.607493,0.477916,-0.570457,-0.061899,-0.070036,-0.290760,0.255424,0.148474,0.337910,-0.133097,0.335253,-0.087490,0.075194,-0.264368,-0.242761,-0.258827,-0.235335,-0.400231,-0.253154,0.189219,-0.148901,0.203278,0.340985,0.232565,0.096272,-0.177078,0.073728,0.420712,0.374619,0.148354,0.149175,0.160916,0.428855,-0.407089,-0.082507,0.255031
-0.107678,0.207303,-0.244114,0.023267,0.533348,-0.013170,0.043160,0.593106,0.151099,0.781243,0.509122,0.664817,0.589403,0.235625,-0.217262,0.159701,0.206503,0.422610,-0.053190,0.205723,0.040466,0.232292,0.445403,0.113461,0.464024,0.436425,0.370908,-0.000011,0.349752,0.076623,0.455278,-0.172339,0.203472,0.423977,0.167323,0.580412,0.427943,-0.375001,0.500054,0.112877,0.415788,-0.050951,0.379514,-0.071790,0.377318,0.065009,-0.177457,0.025781,-0.332503,0.159282,-0.433546,-0.097879,-0.134931,-0.012032,0.117453,-0.272248,-0.216296,0.406476,-0.227066,0.356566,0.405241,-0.158905,0.508477,-0.100503,-0.381939,0.191672,0.175502,0.217716,0.385495,-0.067454,0.115922,-0.366797,-0.509178,-0.015684,0.010793,0.189068,-0.425405,0.150918,0.720168,0.131526,0.216574,0.033377,-0.454686,-0.129405,0.216594,-0.463393,-0.002241,0.129396,-0.238588,0.148563,-0.243201,0.311690,0.126060,0.157994,0.498748,0.496630,0.066734,0.108296,-0.156457,-0.211067,0.142783,-0.579330,0.112092,0.017805,-0.219916,-0.181968,-0.392059,0.291314,-0.389769,0.342053,0.161774,-0.133672,-0.038178,-0.568949,0.165670,-0.081959,-0.056164,0.217990,0.166982,0.067967,0.533568,-0.052269,-0.136116,-0.448517,-0.086018,0.317350,0.476250,0.526118,0.119419,0.129061,0.017181,-0.272177,-0.162813,-0.356336,-0.269317,0.269791,-0.002944,0.505932,-0.063543,0.328143,0.090234,-0.094369,-0.201929,-0.193485,0.194299,-0.072524,0.356851,-0.169910,-0.523815,0.067562,-0.291287,-0.213542,0.020085,0.117115,0.214142,-0.626550,0.005981,0.094098,-0.002172,0.317884,0.402603,-0.193657,0.257442,0.438642,-0.182278,-0.523977,0.074998,-0.143714,0.108365,-0.020342,0.036457,-0.080229,-0.435396,0.178903,-0.028432,0.264612,0.094169,0.075027,-0.324341,-0.465931,-0.032157,0.460127,-0.279468,0.103901,0.063777,0.062434,0.021006,-0.472899,-0.440877,0.299874,-0.098272,-0.368078,0.068647,0.339985,-0.131943,-0.369591,-0.605993,0.270556,0.019047,0.357590,0.197766,-0.397170,-0.186368,-0.245682,-0.449104,-0.206268,-0.165980,-0.347915,-0.126768,-0.016950,0.238862,-0.445718,-0.361296,-0.055428,0.429687,-0.364173,0.110403,-0.292835,-0.078961,-0.083237,0.013546,0.303724,-0.449772,0.345888,-0.239410,0.233917,-0.443750,-0.354350,0.056427,0.235817,-0.471905,-0.328041,0.083261,0.128457,0.033116,-0.004071,0.224363,-0.114285,-0.136561,-0.301241,0.390008,0.374093,0.166302,-0.251572,0.180867,0.050867,0.075867,-0.488646,-0.213652,-0.509200,-0.638601,-0.518640,-0.542772,-0.609920,-0.253782,0.353041
0.342810,-0.467053,-0.435224,-0.186844,0.330331,-0.215464,0.118523,-0.402756,-0.386489,0.536334,-0.296010,-0.131105,0.235793,-0.146893,-0.084548,0.263253,-0.545702,-0.130260,-0.035269,-0.247972,0.310314,-0.020466,-0.388270,0.468431,-0.277420,-0.203211,0.057066,0.407704,-0.128084,0.552930,-0.474714,-0.125783,0.323771,0.191351,0.087949,-0.262554,-0.137624,-0.262316,0.033845,0.467417,-0.170887,-0.126348,0.406450,-0.379522,-0.127970,-0.301942,0.397996,-0.466504,0.162584,0.660707,-0.311517,-0.265192,0.207537,0.563253,-0.297002,-0.321788,-0.674221,0.126842,-0.025659,0.317419,0.046729,-0.072502,-0.606802,-0.193088,0.190241,-0.221506,0.025520,0.423155,-0.399871,0.143227,-0.271248,-0.410031,-0.241309,-0.284971,-0.240632,0.290174,-0.086830,-0.298646,-0.388045,0.216721,0.385736,0.031642,0.270542,0.191875,0.563840,0.184764,-0.524744,-0.415567,0.023902,0.216809,0.287022,-0.221478,0.244194,-0.319370,0.380761,0.037036,-0.366588,0.192134,0.252867,-0.132467,-0.221027,-0.313167,0.166080,0.150884,-0.356902,-0.490396,0.045144,0.000155,-0.599333,0.349358,-0.442165,-0.431753,-0.372324,-0.280623,-0.354991,-0.304731,-0.050112,-0.333961,0.223803,-0.359789,-0.175654,-0.458578,-0.188492,-0.358414,0.184639,0.245954,-0.222864,0.317813,-0.240780,0.399857,0.303329,-0.081050,-0.280058,-0.458850,0.135624,0.417706,-0.036768,0.207283,0.093736,-0.419144,0.220621,-0.548551,-0.229390,-0.340552,-0.500119,-0.169940,0.336755,-0.459915,-0.268959,-0.321655,0.487027,-0.446576,0.497224,-0.035903,-0.128551,0.009970,-0.156521,-0.227089,0.045357,-0.219430,-0.005950,0.422031,0.429884,0.409634,-0.289819,0.061545,-0.076396,0.132513,-0.403396,-0.458887,-0.272483,0.384560,0.138619,0.443204,0.504713,0.317491,0.485272,0.146972,0.281251,-0.076031,-0.233330,0.194384,0.073401,0.307488,-0.059985,-0.054068,0.213961,-0.166994,0.051302,0.405815,-0.351708,-0.198608,0.033575,0.368013,-0.076499,-0.268523,0.064411,0.524598,0.458385,0.046716,0.438136,0.002719,-0.518566,0.194305,0.426076,-0.242818,0.549111,0.274529,-0.239143,0.120269,0.395572,0.276414,-0.155571,0.003385,-0.483242,0.173435,0.326336,-0.558735,0.272539,-0.053644,0.208994,-0.191682,0.033648,0.175458,-0.114254,-0.324417,0.014607,-0.381997,0.142340,0.129859,-0.219470,-0.549276,-0.290926,-0.153911,-0.441496,0.254733,-0.132902,0.027216,-0.025990,0.285830,-0.238414,0.517303,-0.384864,-0.153996,0.113620,0.214398,0.194207,-0.468595,-0.294476,0.645928,-0.069209,0.150160,0.031550,0.088489,-0.194322,0.090897
-0.099053,-0.144264,-0.317835,0.296222,-0.158357,0.098275,0.278673,0.292583,-0.343508,0.280741,0.058244,0.301769,-0.048770,-0.010787,0.205547,-0.138071,-0.076919,0.045418,0.322753,0.018991,-0.136997,0.132730,-0.215167,0.471988,-0.161507,0.067121,-0.316111,-0.159866,-0.081302,0.204028,0.163260,-0.555185,-0.044951,0.183878,0.071146,-0.183026,0.548630,-0.134671,0.527480,0.430114,-0.142145,0.356153,-0.302227,-0.331029,-0.333309,-0.084312,-0.401566,0.049529,0.002871,0.386584,0.123531,0.433599,0.119485,0.586785,-0.002046,0.385740,0.367946,-0.085455,0.088113,-0.597724,-0.577126,-0.026657,-0.255807,-0.464071,-0.103654,0.548731,0.589137,0.311753,0.081904,0.528098,0.133873,0.183433,0.138204,-0.499652,-0.579591,-0.226700,0.256407,0.157186,-0.438120,-0.183831,0.012609,0.288305,0.335944,0.432281,0.331445,-0.043261,0.320258,0.007870,-0.361855,-0.117745,-0.109472,-0.252427,-0.010541,-0.041858,-0.126142,-0.104448,0.088263,0.072291,-0.311187,-0.287131,0.135882,-0.457214,-0.055467,0.283932,-0.091524,0.372468,0.356776,0.060746,-0.174192,0.253495,0.417815,-0.159911,0.202804,0.436671,-0.428885,0.235273,0.090863,-0.287032,0.254151,-0.092680,-0.296912,0.032519,-0.073423,0.214892,0.260917,-0.037750,0.182566,-0.076079,0.175488,0.435600,0.064351,-0.234566,0.139976,0.091875,-0.237747,0.083036,-0.259531,-0.204201,-0.461845,-0.460339,-0.027209,0.031363,-0.047397,-0.575880,0.157295,0.492830,-0.476204,-0.431110,0.485258,0.180085,-0.138233,-0.019799,-0.382673,0.055810,0.006234,0.486854,0.223424,-0.630194,0.165191,0.137775,0.295094,0.550503,-0.114368,-0.204135,-0.112901,0.086116,-0.375082,-0.362694,-0.312795,-0.099640,-0.150143,0.329692,0.349862,0.195738,0.083880,-0.030651,0.455489,0.557202,0.414208,-0.150454,0.413896,-0.365054,-0.396803,-0.253238,-0.355342,-0.242568,0.452980,0.120052,0.153102,0.204705,-0.076545,-0.195885,0.051071,-0.150115,0.070282,0.232322,-0.202829,-0.488847,-0.341254,-0.165616,0.596097,0.237512,-0.344806,-0.701468,0.255949,0.121696,-0.355886,0.625805,-0.454568,-0.121978,-0.084366,0.277712,-0.574244,-0.148697,0.151031,0.297326,0.041287,-0.128924,0.089490,-0.007207,0.073614,0.180213,-0.393926,-0.051058,0.074636,0.020520,-0.305103,-0.042737,-0.467999,-0.280610,0.193934,-0.257004,0.297749,-0.308927,0.403372,0.211067,-0.048418,0.150462,0.321890,-0.135208,-0.029169,0.368257,-0.209279,-0.017292,0.053094,-0.484772,-0.455655,0.312842,0.240568,0.054326,-0.170504,-0.278903,-0.039616,-0.234292,-0.446179,-0.444646
0.290633,-0.527389,-0.242808,0.212020,0.244067,0.432226,-0.225387,0.146207,-0.376477,0.518896,-0.034467,-0.185328,0.426117,-0.331975,-0.246918,-0.236313,0.033316,-0.304792,-0.216676,-0.256998,-0.181546,-0.315593,-0.178481,-0.029839,-0.135380,0.147832,0.606248,0.528767,-0.427119,-0.031508,-0.210809,-0.409994,-0.123449,0.311535,0.193064,0.247328,0.430439,-0.557190,-0.379490,-0.311474,0.152509,0.528611,0.207544,-0.367351,0.148765,-0.222025,-0.062371,0.218673,-0.024124,-0.150662,0.438353,-0.381849,-0.262457,-0.256190,-0.523847,-0.249180,-0.133536,-0.144828,-0.417372,0.119680,-0.075887,-0.106662,0.098493,0.259490,0.309391,-0.288896,-0.234872,-0.300977,-0.354996,0.233697,0.170999,-0.054138,-0.107661,-0.318344,0.050671,0.195096,0.341456,0.204691,-0.055029,-0.329911,0.086067,0.143226,-0.104963,-0.048000,-0.416335,-0.017778,-0.091969,-0.204808,0.139852,0.226861,-0.198533,0.457418,0.066459,0.066274,-0.247103,0.273879,-0.317694,0.175163,0.286064,0.366576,0.403682,-0.384160,-0.395678,-0.443834,0.212291,-0.249821,0.146475,0.027410,0.247124,-0.391282,-0.075373,0.452495,-0.327500,-0.054290,-0.093723,-0.035804,-0.239745,-0.407115,-0.085427,-0.057500,0.186090,-0.444496,-0.241646,-0.424821,-0.398975,-0.292177,-0.418896,-0.176623,-0.165299,0.351401,0.258960,0.177600,-0.090677,0.145175,-0.473865,-0.074258,-0.484973,-0.093115,0.018199,0.370779,-0.331211,0.261853,0.396183,-0.433305,0.097020,0.266440,0.107387,-0.161210,-0.481256,0.304078,-0.331419,0.039460,0.025339,-0.484571,-0.473289,-0.393591,0.542119,-0.045868,-0.323760,-0.138753,-0.350055,0.036631,0.404869,-0.160229,0.398994,0.352685,0.420284,-0.343426,0.140503,-0.179004,0.011385,-0.161812,0.224845,-0.288552,-0.164190,-0.161686,-0.047624,0.196815,-0.380569,-0.066835,0.306157,0.082543,0.246093,-0.422273,0.277744,0.017587,0.032171,-0.031281,-0.106885,-0.058924,0.048610,0.127864,-0.325785,-0.383169,-0.315530,-0.362614,0.085793,-0.643603,-0.149286,-0.520059,0.153237,-0.075271,-0.540301,-0.471384,0.405627,-0.049335,-0.355567,-0.157675,-0.192160,-0.552624,-0.150343,0.525451,-0.063851,-0.000093,0.030862,0.084764,-0.075093,0.037866,-0.370463,-0.446923,-0.402471,-0.251589,0.307639,0.206768,0.227157,-0.181124,0.418087,-0.318805,0.501675,0.226566,0.185890,-0.022630,-0.237655,0.419737,-0.164339,0.627276,0.412374,-0.280875,-0.443416,-0.405897,0.118843,-0.231715,-0.063411,0.467534,0.158182,-0.199241,0.424009,-0.274097,-0.023081,0.172158,-0.211296,-0.080873,0.140545,-0.009977,-0.081562,-0.395759
0.138420,0.531283,-0.451145,0.196183,0.030545,0.325096,-0.199600,-0.366655,-0.277644,-0.075901,0.132409,-0.427273,-0.267871,-0.302936,-0.344093,0.454131,0.111620,-0.265327,-0.261707,-0.152666,-0.021372,-0.066176,0.049426,0.039961,0.222923,0.311666,0.335956,0.457832,-0.026676,-0.306952,0.244131,0.568947,-0.144046,-0.048666,0.305221,-0.169570,-0.144559,0.329392,0.426845,-0.052820,0.379291,0.271028,0.526468,-0.325460,0.362196,0.265453,0.238260,0.237507,0.139748,-0.243291,0.325905,-0.348695,-0.337753,0.226997,-0.074054,-0.267594,-0.343620,-0.128974,-0.277571,-0.254654,0.536129,0.031438,0.489225,-0.203231,-0.271334,0.273259,0.324620,-0.124542,-0.350807,-0.163622,0.068256,0.155037,-0.046137,-0.351971,-0.293738,-0.204234,-0.042568,-0.153801,0.427475,0.278151,-0.144201,-0.294649,0.294395,0.429962,-0.277258,0.003003,0.312643,0.103053,0.054557,-0.372863,0.495824,0.083798,0.451356,0.186156,-0.193152,-0.232094,0.144144,0.157993,0.006456,-0.055897,-0.003256,-0.179381,0.152130,0.490346,-0.212427,0.387104,0.037462,-0.057415,0.238533,-0.227846,-0.043502,0.422813,0.430059,-0.425750,0.264903,0.186723,-0.039262,-0.146205,0.130811,0.209494,-0.138724,-0.009228,0.131884,-0.466260,0.031030,0.188752,0.228460,-0.081445,-0.337608,-0.447789,-0.462085,-0.161947,0.030178,0.180785,0.570336,-0.234465,-0.018023,0.028353,0.315774,0.401089,-0.202874,0.194794,-0.128689,0.604739,0.214578,-0.098468,-0.250047,-0.418353,0.423959,0.440129,0.075370,0.158575,-0.356158,-0.236165,0.225127,0.521557,-0.496981,0.487252,0.294182,-0.098087,0.473640,-0.379371,0.248989,0.471225,0.261570,0.427514,0.060623,-0.364580,-0.277221,-0.233491,0.311090,-0.186647,-0.621172,-0.423276,0.351300,0.129047,-0.095410,-0.238924,-0.273548,-0.136569,0.189658,0.611302,0.032937,-0.220077,-0.197483,-0.056429,-0.169157,0.356249,-0.000553,0.157510,-0.528596,0.431551,0.233310,-0.456640,-0.159324,0.402633,0.349663,-0.144622,0.049393,-0.219167,-0.360383,0.190474,-0.316513,0.116992,0.037318,-0.517796,0.170559,0.305022,-0.196846,0.148596,0.610491,-0.147717,0.037111,-0.017485,0.224237,-0.213020,0.499452,0.495433,-0.506714,0.070023,-0.385852,-0.361582,-0.298433,0.435016,0.046325,-0.296678,-0.205663,-0.323675,0.098031,-0.409503,-0.401549,-0.549146,-0.107811,0.106622,-0.495529,-0.162315,-0.311254,-0.575323,-0.274725,0.169139,0.570205,0.671717,0.186000,0.066892,-0.139351,-0.436389,-0.086050,0.215193,0.260476,-0.032967,0.151422,-0.407565,-0.376658,0.330239,0.176281,0.525277
0.233220,-0.223227,0.214133,-0.450930,-0.132853,-0.305042,-0.010441,0.328469,0.147385,0.177759,0.739609,0.751740,0.360878,-0.282230,0.388269,0.144852,0.183196,-0.359866,0.464578,-0.102139,-0.204940,0.088668,0.130040,0.497740,0.195619,-0.101021,0.100839,-0.148593,0.272550,0.142475,-0.343403,0.159792,0.101907,0.182275,0.099357,-0.214399,-0.091095,0.033366,-0.202472,-0.249485,-0.370399,0.387017,-0.341125,0.257822,0.107005,0.222058,0.412302,0.144035,0.283838,0.588868,0.533653,0.013420,-0.392087,-0.115274,0.325167,0.147256,-0.390846,-0.280115,-0.195429,-0.348138,-0.415519,-0.229865,0.101973,0.499432,0.613943,0.561886,0.399722,0.461178,-0.208674,0.591288,-0.136079,0.326974,0.190826,-0.411476,0.364270,-0.363174,-0.248847,-0.249177,0.370959,-0.488829,0.669441,0.406091,0.280799,-0.488548,0.121371,0.326263,0.404111,-0.091065,-0.097384,0.239696,0.052646,0.000436,0.522566,0.410578,0.184200,0.294553,0.399383,0.338678,0.184312,0.405607,0.247965,0.353280,-0.303660,-0.211077,0.237238,-0.453402,0.199620,-0.245949,0.117850,-0.078714,0.236698,-0.190706,-0.318523,-0.223794,-0.201041,-0.029908,-0.200684,-0.431396,0.405992,-0.462301,-0.124531,0.134812,-0.215086,-0.179221,0.180703,-0.394570,-0.421173,0.137765,-0.372234,0.344225,0.403517,0.332251,-0.493496,-0.300241,-0.317517,0.089367,-0.458363,-0.080333,-0.302557,-0.021796,0.158751,-0.104889,-0.543788,0.432948,-0.066441,-0.436210,-0.156531,-0.229340,-0.202796,-0.083622,-0.089390,-0.320349,0.149201,0.267032,-0.008465,-0.419575,0.217290,-0.489393,0.066561,0.232135,0.154105,-0.437553,-0.208177,0.464683,-0.367290,-0.184249,0.011395,-0.305046,-0.649689,-0.511020,-0.553993,-0.121018,-0.461706,0.198714,-0.281159,-0.223292,-0.009304,0.367235,0.120029,0.219539,-0.204982,0.195441,-0.033509,0.200059,-0.293426,-0.171198,0.210708,-0.230537,0.352743,0.351153,-0.154360,-0.221960,0.237581,-0.588345,-0.048716,0.520772,0.425937,-0.160305,-0.259465,0.435486,-0.359952,0.001663,-0.284141,0.247316,-0.514966,0.233883,-0.371325,-0.162364,-0.376104,-0.372038,0.352388,-0.187969,0.386592,-0.140207,0.183982,0.198754,-0.186304,-0.342192,0.337906,-0.396583,-0.168761,-0.123516,-0.187629,0.119015,0.296801,0.531831,0.320480,-0.444324,0.169039,-0.401532,0.291875,-0.334219,0.045297,0.513848,-0.159207,-0.123845,0.468852,-0.156354,0.327557,-0.420564,-0.262924,-0.210126,-0.043956,-0.182246,-0.117502,0.007040,0.325812,0.081058,0.466550,0.307417,0.273213,0.387006,-0.096167,0.396145,0.436729,0.281242
-0.218161,0.161225,-0.388203,0.026111,0.138004,0.097554,-0.297243,0.571694,-0.033701,-0.340675,0.429006,-0.053134,0.185634,0.331633,0.261266,-0.417150,-0.378691,-0.101549,-0.256038,0.315581,-0.375521,-0.099040,-0.266009,-0.333784,0.036191,-0.280994,0.214502,-0.135391,-0.241482,0.472827,0.554354,-0.429449,0.343588,-0.399853,0.049568,0.078796,-0.284717,0.474412,-0.385813,0.084414,0.031819,-0.475548,0.476513,-0.060015,0.073969,0.492696,0.121174,0.143561,-0.448147,-0.224873,0.226156,0.174943,0.359061,-0.077338,0.157404,0.300230,-0.104563,0.363453,0.063195,-0.022207,0.045059,0.080443,0.424918,0.127032,0.120396,0.315711,0.357455,0.126576,0.135559,0.215148,-0.503092,0.020034,-0.291823,0.302810,-0.017801,0.293628,0.173439,-0.244958,0.388807,0.266195,0.053939,-0.064243,-0.047200,0.522828,-0.243236,0.266678,0.444423,0.104919,0.047512,0.405501,0.262861,0.492999,0.002128,0.409824,-0.233975,-0.118480,-0.098222,-0.314669,-0.189004,0.303229,-0.026305,0.158184,0.546974,0.227940,0.125799,-0.543586,-0.269286,-0.388634,-0.237043,0.086291,0.182160,0.313376,-0.180327,0.134760,0.005151,0.345184,0.281913,-0.077733,0.266197,-0.360786,0.153166,0.033366,-0.492911,-0.208935,-0.292219,0.372580,0.377878,-0.406125,-0.082300,-0.466201,0.330023,0.421269,-0.011730,0.285199,0.005320,-0.029775,0.301704,-0.114511,-0.232400,0.279835,-0.141902,-0.003331,-0.178765,-0.198243,0.461111,0.261577,0.182802,0.374154,-0.453860,-0.489138,-0.631673,0.220627,-0.543835,0.087502,0.496867,0.042377,0.026246,0.415659,0.022594,-0.122287,0.062400,-0.232582,0.312107,-0.304775,-0.296430,-0.392754,0.189492,-0.337920,-0.065185,0.326511,-0.310209,-0.163068,0.302120,0.349303,0.356419,0.114974,-0.377328,-0.190158,-0.040953,-0.179955,-0.102057,-0.242888,-0.331988,-0.401840,-0.205484,-0.419755,-0.282723,-0.125383,-0.269024,0.507381,0.046565,0.359484,-0.277285,-0.379333,0.389277,-0.089421,-0.078006,0.009989,-0.205599,0.077392,-0.148528,-0.383613,-0.465369,0.080509,0.173245,0.182083,0.101939,-0.103267,-0.189902,-0.422655,0.458043,0.354998,0.247031,0.133773,-0.114193,0.018192,0.404709,-0.481561,0.058764,-0.269724,-0.391554,-0.445491,0.275254,-0.517161,0.292945,-0.429268,-0.465052,-0.401365,-0.036611,0.416804,0.389492,-0.316321,-0.313588,0.195397,-0.238493,-0.318424,0.258681,-0.194626,0.193436,-0.431074,0.248937,-0.517708,-0.026394,0.090456,0.161648,0.172690,-0.408385,0.334659,-0.111591,0.061786,-0.032760,0.301318,0.360570,0.270060,-0.068754,-0.112886
-0.092523,0.246515,0.031709,0.065814,0.304977,-0.050034,-0.225985,0.591686,0.189885,-0.071206,0.502210,0.259714,0.258823,-0.030054,-0.194951,-0.073618,0.434980,-0.039278,-0.196988,0.082338,-0.244007,-0.116892,0.379341,-0.263825,0.232162,-0.259890,0.082462,0.056107,0.201006,-0.095371,0.508012,-0.387269,0.552204,0.136294,-0.049953,0.245020,0.505116,0.376012,-0.412144,0.025317,-0.436203,0.094741,0.324188,-0.364392,0.324340,-0.343256,-0.216317,0.573511,-0.125414,-0.244816,-0.413002,-0.331876,-0.011886,0.229459,-0.275236,0.427986,0.337352,0.439018,-0.251934,0.137617,0.592307,0.454182,-0.429063,0.223211,0.339030,0.145396,0.451010,-0.155441,0.266349,-0.005794,0.211564,0.640763,-0.008803,0.253983,-0.283313,0.332478,-0.161422,0.061984,0.023716,0.207369,0.468021,0.284003,0.349530,0.124190,0.439958,0.211414,0.350253,-0.021078,0.425162,-0.189359,0.427429,0.426605,0.166255,-0.359895,-0.033287,-0.331220,-0.360472,-0.226113,0.404747,-0.149826,0.066141,-0.275042,-0.155069,-0.442077,0.099952,0.294570,-0.084937,-0.169162,-0.056173,0.289443,0.101140,-0.328598,-0.174165,0.382154,0.269971,-0.403275,-0.067267,0.270035,0.072642,0.201170,-0.237631,0.166481,0.380312,0.577926,-0.169151,-0.136365,-0.330903,-0.342514,-0.170966,-0.394395,0.194634,-0.043327,0.176031,-0.393537,-0.221682,0.320853,0.417542,0.246779,0.326936,0.300529,0.288971,0.288755,-0.148321,-0.120370,0.101272,0.228593,0.454507,-0.041409,0.032887,-0.178963,0.285187,0.236829,0.224606,0.240469,-0.215828,0.409403,-0.055834,0.450528,-0.048578,-0.184329,-0.232083,0.268563,-0.269141,0.296894,0.156741,-0.282179,-0.356932,-0.299031,-0.171895,-0.108199,-0.281993,0.305209,-0.319564,0.460496,-0.093189,0.063110,-0.097965,-0.261678,-0.220933,0.127358,-0.378056,-0.335264,0.422415,-0.087898,-0.324540,-0.172049,-0.094281,-0.223458,0.258104,-0.389678,-0.045257,0.195054,0.171611,0.327126,-0.021610,-0.296087,-0.011130,-0.497810,-0.498282,0.473709,-0.366023,-0.262205,-0.394065,0.166669,0.320060,0.399871,-0.330317,0.089586,-0.030013,-0.195777,0.334653,0.154069,0.026481,-0.593080,-0.341257,-0.023643,-0.250353,0.272863,0.212021,-0.017377,0.059453,-0.513770,0.356204,0.015634,-0.247812,-0.126661,0.032460,0.472259,0.398775,-0.163313,-0.000171,-0.400611,-0.153190,0.043975,0.111781,0.038911,0.528228,0.268068,-0.315222,0.300665,-0.265490,0.109930,-0.379690,0.368915,0.051063,-0.303078,-0.120594,0.665336,0.555456,-0.125759,0.007241,-0.230523,0.134413,0.092370,-0.194717,-0.066102
0.429871,-0.422297,0.508528,0.561529,-0.018312,-0.095508,0.326804,0.507468,0.277031,0.353220,-0.235508,-0.310600,0.278472,-0.219049,-0.564926,-0.223294,0.363916,0.214465,-0.203936,0.094349,0.075422,0.171937,0.212193,0.222662,-0.254860,0.354125,0.082886,0.472778,-0.350269,0.477972,0.272544,-0.352648,-0.040766,0.252704,0.181913,-0.314832,0.482554,0.299943,-0.106932,0.294855,-0.003598,-0.033546,0.253008,0.051716,0.205005,-0.290917,0.033844,0.363243,-0.232953,0.540973,0.589576,-0.168098,-0.008149,0.309812,0.178938,-0.061988,-0.399217,-0.253595,0.366777,-0.203446,0.155329,-0.375042,-0.113753,0.035069,0.114657,0.180711,-0.193752,0.578588,-0.414135,0.474223,-0.491636,-0.598961,-0.379061,-0.248679,0.137947,0.266977,0.091432,-0.436638,0.570673,0.265728,0.073871,0.416873,0.172350,0.186732,0.059319,-0.251650,-0.434101,0.202875,-0.154698,0.171804,-0.071589,-0.249183,-0.188332,0.189956,0.285018,-0.080404,-0.409328,0.188715,0.312603,0.130014,0.164327,-0.033399,0.300234,0.001453,-0.380315,-0.015040,0.347119,-0.304735,-0.408539,-0.035214,0.461720,0.060666,-0.246490,-0.012645,0.402584,-0.259503,0.026900,-0.229402,-0.031023,-0.029439,-0.310624,-0.012014,0.452438,-0.025244,-0.381629,0.375928,-0.211621,0.190389,-0.039827,0.381246,0.323838,-0.231524,0.484092,-0.063711,0.327173,-0.153532,0.086158,0.305948,-0.045520,0.233104,0.335704,-0.203681,0.342644,0.391391,-0.427459,0.180368,-0.123900,0.121195,0.330666,-0.202100,-0.518831,0.316185,0.384865,-0.220914,-0.018422,0.004982,-0.450034,-0.321732,0.347804,-0.483469,-0.200425,-0.365140,0.391583,-0.457053,0.338240,0.141448,0.205916,0.042899,-0.185570,-0.261771,0.128072,-0.105199,0.323314,0.058484,0.311978,0.081548,0.256931,-0.363769,-0.059678,-0.052944,-0.536640,0.208020,-0.078141,-0.310715,0.264899,-0.097858,-0.053017,-0.183160,-0.087097,-0.439719,-0.025184,-0.017799,0.366622,-0.392903,-0.495007,0.425309,-0.500652,-0.185793,-0.145127,0.181775,-0.168971,-0.494244,-0.181914,0.074206,0.021008,0.069821,-0.252506,0.321730,-0.317189,0.108383,-0.437442,0.146657,0.385048,-0.457287,0.123211,0.274082,-0.297012,-0.319371,-0.487461,-0.067393,-0.613938,-0.231351,-0.413686,-0.165935,0.416180,-0.222980,-0.483309,-0.079934,-0.020138,-0.351353,-0.162147,0.031109,-0.109668,-0.022329,-0.542627,-0.539370,-0.158462,0.546199,0.304223,-0.262545,-0.452945,-0.056081,0.222976,-0.076862,-0.246559,-0.441221,-0.595954,-0.316557,-0.143483,-0.260171,0.020098,0.227982,0.287282,0.127848,-0.220782,-0.311051
0.204600,0.033251,0.306635,-0.376393,-0.459005,-0.167894,0.520610,0.486510,-0.476574,0.460377,-0.285914,-0.155931,0.430113,-0.312223,-0.236560,0.364209,0.333134,0.143524,0.289986,0.487510,-0.056986,-0.162575,0.280112,-0.295460,-0.483816,-0.185424,-0.517587,0.202279,-0.389133,0.070189,0.186396,0.614082,-0.383531,0.076673,0.472898,-0.050876,0.283108,0.195405,0.086399,-0.484634,-0.140488,-0.311434,0.259341,0.055974,-0.116018,-0.093130,0.247054,0.044781,0.369434,0.435670,0.293016,0.333134,0.390192,0.076582,0.110307,-0.535352,-0.642915,-0.229804,0.347288,0.189572,0.446471,-0.068633,0.277533,0.061961,0.370646,-0.193718,-0.005095,-0.157886,-0.346267,0.311035,-0.430537,-0.606762,0.172888,0.539950,0.166974,-0.261760,0.015391,0.224267,0.230966,-0.087208,0.206063,-0.371957,-0.290766,-0.112901,0.404449,0.324260,-0.012225,0.043195,0.129115,-0.180616,0.519388,-0.009250,0.253338,0.289211,-0.057934,-0.131481,-0.468447,-0.382969,-0.111222,0.316738,0.265460,-0.131908,0.129080,0.188853,-0.281974,-0.270241,0.597829,0.359044,0.152398,0.032119,-0.063147,-0.120630,0.022251,-0.533319,-0.069811,-0.369694,0.565870,0.038791,0.005092,0.076380,0.547555,0.650732,0.290839,-0.393271,-0.497774,-0.399445,-0.461653,0.448302,0.291832,0.328371,-0.364104,-0.198903,-0.412819,0.023754,0.684750,0.624239,-0.361353,-0.357450,0.306218,-0.260941,-0.147639,0.285431,-0.481060,0.364020,-0.024591,0.234776,-0.599679,0.305503,-0.468216,0.251352,0.042727,-0.166892,-0.046670,-0.147666,0.429100,-0.243786,0.063513,-0.414819,0.252501,0.228848,0.273074,0.333727,0.446255,0.311647,-0.244968,-0.122053,0.020472,0.455878,-0.332599,0.522908,-0.077649,0.387331,-0.298192,0.183418,-0.265701,0.233537,0.508041,0.142867,-0.389920,0.290061,0.035553,0.440331,0.023792,-0.223072,0.046176,-0.319335,-0.023519,0.149639,-0.349990,-0.282618,-0.105532,-0.295601,0.575126,-0.182231,-0.084093,-0.044404,-0.230996,-0.034045,-0.099623,0.040236,0.428957,0.028844,0.143993,-0.143248,0.239596,0.185846,-0.124012,-0.112593,0.044753,0.338233,0.080614,-0.466170,0.326950,-0.476443,0.352112,0.336234,-0.261435,-0.030524,-0.358339,0.010766,0.271410,-0.634974,0.217269,-0.355060,0.522608,0.291668,-0.179471,-0.066566,-0.112829,-0.016384,0.229151,-0.105491,-0.014022,0.320014,-0.607056,0.171306,0.262958,-0.002706,0.313095,-0.001000,0.491763,0.500088,-0.043811,-0.114699,0.088691,-0.017534,0.041623,-0.206615,-0.513685,-0.559055,0.075142,-0.198887,-0.362664,0.243124,0.085887,0.016981
0.015480,0.279872,-0.318010,-0.171771,-0.096340,0.473359,0.533521,0.399294,0.425746,0.203192,-0.437267,-0.523929,0.299851,0.500928,0.199358,-0.505203,0.055827,-0.439135,0.255917,-0.164222,0.135414,0.464274,0.332040,0.482206,-0.439192,-0.315323,0.004304,0.049816,-0.126205,0.018222,0.352314,-0.537679,-0.418574,-0.403007,-0.151748,-0.225143,0.108988,0.521121,-0.381921,0.225728,-0.414377,0.411372,0.463776,0.392487,-0.291454,0.176480,0.120754,-0.070745,0.260117,0.206016,-0.129950,0.211611,0.241495,-0.332691,-0.158419,-0.097617,-0.051825,0.251307,0.378770,-0.308695,0.452859,0.344321,0.533495,-0.249857,-0.079359,0.003741,0.248698,0.312628,0.133227,-0.144349,0.186004,0.431537,-0.133177,0.281667,0.045781,-0.231269,0.147653,0.570220,0.194303,-0.244248,-0.253377,-0.227665,-0.413949,0.292834,-0.173662,-0.193619,-0.251649,0.333180,-0.224901,-0.235983,0.258412,-0.092492,0.099463,0.038686,-0.121680,0.619190,-0.171693,-0.395220,-0.339264,-0.433460,-0.463458,-0.021587,-0.057932,-0.355663,0.392494,0.370457,-0.512051,0.349073,0.278778,-0.263676,0.345090,-0.426198,-0.096572,-0.035015,-0.277110,-0.093319,0.067117,0.064663,0.496698,0.252345,0.010768,0.356282,-0.517471,-0.160307,0.286998,0.217302,0.252507,0.257349,-0.354413,-0.257707,0.279715,-0.337243,-0.543135,-0.485314,0.272898,-0.074083,-0.408483,0.401335,0.437003,-0.315535,0.248463,-0.221916,0.357853,-0.336186,-0.436001,-0.067992,-0.590113,-0.450358,-0.068170,0.411471,-0.305639,0.103227,-0.084107,-0.142838,-0.479897,-0.094397,-0.476826,0.024087,-0.077267,0.356825,-0.189575,0.061071,-0.407374,-0.056507,-0.205251,0.215305,-0.178279,0.630032,0.168577,-0.059500,-0.521984,0.045129,-0.282371,-0.435324,0.473723,0.136997,-0.647711,-0.336531,0.088927,0.102973,-0.208211,-0.170927,-0.050231,-0.008712,-0.428733,-0.206417,-0.458215,-0.543083,0.563655,-0.445286,-0.200425,-0.471177,-0.023058,-0.052334,-0.489575,-0.564654,0.143472,-0.368123,0.208880,-0.011688,-0.203280,-0.338402,0.000828,0.240111,0.363172,0.363923,-0.284285,-0.394323,-0.529887,0.330189,-0.433824,-0.246379,-0.117698,0.241234,0.054151,0.063234,0.540421,-0.128070,-0.079010,-0.408560,0.306064,0.340595,-0.274567,-0.280036,0.208299,0.388700,0.106609,-0.268796,-0.112324,0.069197,-0.092419,0.060818,-0.218615,0.339824,0.312209,-0.014916,0.174235,0.122071,0.103383,0.274303,-0.470064,-0.336555,0.363270,-0.018915,0.026286,0.537514,-0.184812,-0.362095,-0.151706,-0.276467,-0.460851,0.043968,0.297007,-0.458721,-0.343149,-0.404520
-0.045737,-0.203304,-0.225175,0.388309,-0.366407,0.089097,-0.510685,-0.253851,-0.164659,-0.115497,0.196874,0.253974,-0.146111,-0.211077,-0.363211,-0.250973,-0.454574,-0.053407,0.229809,-0.319612,0.088382,-0.195888,0.005919,-0.333072,-0.376466,0.112268,-0.175161,-0.192864,-0.298130,-0.037698,-0.325175,0.132098,0.236129,-0.317113,-0.224947,-0.352662,0.331901,0.152111,0.046149,-0.422317,-0.176909,-0.285010,-0.286869,-0.144687,-0.108903,-0.332261,0.288814,-0.148726,-0.103360,-0.103392,0.085368,-0.134773,-0.333851,0.420778,-0.159301,-0.067151,0.071034,0.366400,-0.355972,-0.310960,-0.300983,-0.114592,0.368206,-0.354133,0.182413,-0.229770,-0.316426,0.408494,-0.269212,-0.373742,-0.061125,-0.316324,-0.394157,0.399565,0.027728,-0.013151,0.421261,0.008788,0.342296,0.236817,-0.446161,0.075685,0.047183,0.286650,-0.077205,-0.414800,-0.532292,-0.535478,0.074126,0.350389,-0.243385,0.473688,0.245413,-0.325327,-0.477434,-0.487743,0.250329,-0.198623,0.452064,0.329013,0.191862,-0.222671,-0.142778,-0.009799,-0.248536,0.353977,0.567734,-0.168566,-0.481839,-0.121437,0.093266,-0.516588,-0.359290,-0.156242,0.451640,-0.333789,-0.167863,-0.096407,-0.378439,0.186481,-0.200773,0.156977,0.142758,0.115272,-0.540736,0.321953,0.056523,0.189700,-0.395825,0.045323,-0.422776,0.447516,0.431969,-0.304060,-0.238412,0.242647,-0.256191,0.120496,0.495366,0.064120,-0.342895,0.141616,-0.198940,-0.398405,-0.110595,0.328396,0.340583,-0.405821,-0.279670,0.098493,0.070973,-0.315769,0.348544,-0.287894,-0.183142,-0.390637,-0.246769,-0.371227,-0.330081,-0.393655,0.285976,0.392504,-0.043255,0.002749,0.147611,0.251894,0.316482,0.465062,0.295936,-0.152911,0.342771,0.344516,0.042431,-0.127642,0.408679,-0.276953,-0.081659,0.027273,-0.598284,-0.525069,0.462293,0.406034,-0.329248,-0.283671,-0.298042,0.181973,-0.390658,0.262920,0.084012,0.259743,0.000681,-0.445382,-0.265521,0.255163,0.086266,-0.473902,0.241709,-0.274295,-0.217550,0.310158,0.019339,0.432889,-0.178925,0.121995,-0.003873,0.246176,0.062008,0.199813,-0.012270,-0.227023,0.292304,-0.495454,-0.095651,-0.372600,0.391517,-0.011564,-0.037516,0.287207,0.260358,0.237684,0.336685,0.347520,0.420443,0.145440,-0.091267,-0.039675,0.475528,0.275701,0.309229,0.068280,-0.134763,-0.478145,-0.501498,0.110795,-0.436087,0.189001,-0.391237,-0.384845,0.399730,-0.421931,-0.290769,0.345363,0.383422,0.024986,0.483258,-0.341355,-0.420702,0.477718,0.424010,0.376432,-0.095194,-0.504505,0.196193,-0.051452,0.160802,-0.139303
-0.085050,0.561742,0.234623,0.646572,-0.343272,0.347833,-0.452015,-0.212619,0.397494,-0.035922,0.175020,-0.538490,-0.393703,0.563887,0.231889,0.645360,0.111188,-0.030861,-0.174642,-0.190826,0.262432,0.053227,-0.488366,0.108781,-0.115201,-0.045273,0.128198,-0.414889,-0.120771,-0.111992,-0.031658,-0.237013,-0.262049,0.268378,0.470343,0.534047,-0.297745,0.276792,-0.395193,-0.096346,0.163304,0.125902,-0.374167,0.368277,-0.370012,-0.209264,-0.314482,-0.062171,-0.063391,-0.233048,0.412736,0.153188,0.216870,0.236148,0.386617,-0.429004,-0.175792,0.186835,-0.210502,-0.077180,0.435847,-0.040788,0.331499,-0.330542,0.061384,-0.178032,-0.142522,-0.017277,0.406098,0.264379,-0.208288,0.339979,0.286390,-0.246182,0.120927,-0.181797,-0.199956,-0.421303,-0.168108,0.412805,0.668843,0.235186,0.109328,0.026225,-0.268428,0.347818,0.337784,-0.435082,0.252964,0.375480,-0.307421,-0.032340,0.062931,0.348957,0.341575,-0.064542,-0.053673,0.568059,-0.360007,0.038176,0.007529,0.273767,-0.459726,-0.308677,-0.110692,0.493730,0.050214,0.079936,0.536865,-0.325219,0.399403,0.192531,0.053924,0.267077,0.026616,-0.326992,0.115630,-0.108502,-0.458242,0.223755,0.105100,-0.185960,0.466392,0.036142,-0.281600,0.593225,0.376998,0.418457,0.483639,0.002753,0.309180,0.411830,-0.156816,0.067067,0.282996,0.381042,-0.438464,0.167558,0.053909,0.094311,-0.280738,0.110204,-0.281155,0.605899,-0.381893,0.020249,0.038146,0.296724,-0.450806,0.123142,0.324207,0.342993,0.182879,-0.369669,-0.373498,0.144368,0.046561,0.425950,-0.167216,-0.130278,-0.168183,-0.485080,-0.201650,-0.468597,0.328108,0.122185,0.298981,-0.381850,-0.181094,0.509446,-0.336567,0.082263,0.328859,-0.494421,-0.049149,0.172776,-0.531822,0.310788,-0.539478,0.185579,0.324601,-0.341663,-0.242071,0.434110,0.581742,0.279847,0.129927,0.452117,0.345621,0.170013,0.076109,0.005444,0.419908,-0.369885,-0.353861,-0.004493,-0.110323,0.190515,-0.303498,0.063815,0.313826,-0.537967,-0.561256,0.367106,0.164788,-0.250888,-0.350453,0.119505,0.095893,0.449618,-0.471726,0.035752,0.382278,-0.072658,-0.374572,0.098038,0.160358,0.081733,0.095271,0.469698,-0.500966,0.157306,-0.275363,0.435572,0.402004,0.180854,0.234666,0.460640,-0.489655,0.329493,-0.104681,0.472295,0.046927,-0.153665,0.217901,-0.166197,-0.311751,0.419514,0.390190,0.512965,-0.188384,0.514538,0.131000,0.166158,-0.418533,0.302195,0.048355,-0.123961,0.228391,0.136025,0.140932,-0.143531,0.398465,0.170902,0.405642,0.486018
0.283707,0.247710,-0.342604,0.348861,-0.154609,-0.426462,-0.354862,-0.145321,-0.125903,0.057219,0.297855,-0.220149,-0.019335,-0.335165,-0.282260,-0.154891,0.230913,0.384670,-0.276319,-0.175655,-0.013904,-0.260661,-0.511319,0.500799,0.345160,0.267320,-0.048984,0.033226,0.080033,0.013410,0.305301,0.008531,0.200042,0.179698,-0.189892,-0.394365,0.253193,0.501788,-0.302066,-0.246257,-0.591216,0.277425,-0.276845,-0.320903,0.072166,0.247712,-0.090479,0.031923,-0.224083,-0.279500,-0.143284,-0.417942,-0.042280,0.273725,-0.291945,-0.375264,0.179994,0.415240,0.237487,-0.177467,0.221248,0.015508,0.520708,-0.148365,0.070338,0.134701,-0.187858,0.375115,0.236215,0.007626,0.317815,-0.155928,-0.482965,0.015441,-0.164239,-0.443690,0.132763,0.054940,-0.331504,0.363308,-0.500994,-0.443165,-0.115496,0.084523,-0.025785,0.407729,0.288738,0.289462,-0.245820,-0.011351,-0.143954,0.377340,0.237445,-0.313355,0.186393,-0.300806,0.397428,0.003276,0.020450,-0.151359,-0.440115,-0.210103,0.183839,-0.391627,0.153677,-0.406702,0.286956,0.018936,0.047134,-0.552400,0.349404,-0.293644,0.544291,-0.338766,-0.437224,0.237144,-0.272141,-0.374864,0.307639,0.392233,0.484862,0.070880,0.092875,0.536622,0.074461,0.340772,-0.169773,-0.154908,-0.287662,0.075902,0.103642,0.021562,0.245954,-0.063410,0.478286,-0.333129,0.538684,-0.016405,0.223345,-0.156316,0.222894,-0.081700,-0.103988,-0.195515,0.149951,0.366070,0.251803,-0.464823,0.110410,-0.470916,-0.437388,0.234246,-0.465321,0.142758,0.031620,-0.470157,-0.208204,-0.466539,0.135113,-0.292777,-0.105729,-0.430285,-0.322411,-0.302088,0.201697,0.181415,0.207925,-0.587983,-0.449684,0.022000,0.122963,0.222280,-0.373346,0.069701,-0.322356,0.241558,0.480585,0.467972,-0.048502,0.388172,-0.494348,-0.407633,-0.326654,-0.483133,-0.178508,-0.597949,-0.193632,0.215731,-0.262078,-0.359262,0.296409,0.347770,0.003581,-0.022029,-0.218605,0.229081,0.286862,-0.268455,0.104801,-0.031054,-0.616857,0.196618,0.295786,-0.074988,-0.385692,-0.480900,-0.255533,-0.005329,0.315438,-0.102996,0.304030,-0.172033,-0.228131,0.025124,0.509324,0.440728,0.194076,0.194503,0.341220,0.164895,0.100760,0.339636,-0.196471,0.539255,0.134900,0.326340,-0.484791,0.463771,0.646468,0.500474,0.356518,0.328909,-0.083021,0.526292,0.055907,0.210767,-0.101102,-0.073648,0.213331,-0.223792,-0.195326,0.022567,0.290101,-0.326489,0.146954,-0.005829,0.396550,0.273516,-0.080708,0.416442,0.034478,0.484901,0.167771,-0.345280,0.356931,-0.211616
0.006662,0.089859,-0.367695,-0.229053,-0.198256,-0.131735,-0.095552,0.585849,0.056559,0.220348,-0.441633,-0.217173,0.133291,0.452355,-0.264925,0.347970,-0.461245,0.548053,0.307905,-0.284682,-0.381749,-0.204641,-0.448292,0.023498,-0.395446,-0.463252,-0.237604,0.412355,0.391869,0.119672,-0.180407,0.197562,-0.417170,-0.004798,-0.500724,-0.240702,-0.208713,-0.348766,-0.154854,-0.408011,0.142491,-0.284980,-0.301197,0.380724,-0.135013,-0.347763,0.226401,0.146693,0.303483,-0.345855,-0.517122,-0.319116,-0.169370,0.180374,-0.273734,0.412449,-0.007073,-0.388239,-0.577526,0.232951,-0.250501,0.488085,-0.518263,-0.426145,0.134220,-0.702849,0.323207,-0.331494,-0.347862,0.369960,-0.508122,0.265286,0.533936,-0.373354,-0.693002,-0.027534,-0.372707,-0.053937,0.280234,0.292123,-0.213403,0.233841,0.113429,-0.168521,-0.416089,-0.439844,-0.608215,-0.294087,-0.277859,0.452459,-0.585065,0.093796,-0.215209,-0.217250,-0.473444,-0.358480,0.303617,0.224222,-0.543034,0.410883,-0.076025,-0.020746,-0.505319,0.053073,-0.332525,0.246530,0.415394,0.077219,0.417551,0.269570,0.470067,-0.150790,-0.192459,0.033127,-0.528340,0.328158,-0.156980,-0.560509,-0.273586,-0.158449,0.460643,0.354515,-0.349805,-0.131996,-0.251874,0.371458,0.206672,-0.130506,0.160685,-0.145533,-0.183838,-0.370554,0.395975,-0.291778,-0.016802,0.273942,0.184367,0.349983,0.300659,-0.071559,0.245389,-0.299615,-0.049280,0.412373,0.197793,0.212036,0.313330,0.412288,0.089341,-0.404187,0.088453,0.345530,0.348804,0.053289,0.014214,-0.280759,-0.050715,0.123179,-0.168438,0.339632,0.145896,0.436688,0.185370,0.185636,0.489405,0.046560,-0.340485,0.343890,-0.006953,-0.085907,0.173134,-0.240346,0.272622,0.298910,0.451147,-0.457234,-0.282229,-0.375936,0.258743,-0.252912,-0.156070,-0.145394,-0.275330,-0.218238,-0.363233,0.187433,0.206431,0.180668,0.315864,-0.347229,0.428164,-0.038444,0.277585,0.409477,-0.526982,0.523471,-0.230728,0.043746,-0.081524,-0.153021,0.146729,-0.119589,-0.368553,0.189378,0.489688,0.419157,0.363947,-0.143824,0.168275,-0.440920,0.118786,0.259184,-0.355391,-0.422700,0.204298,-0.243180,-0.410589,0.268457,0.226319,0.415342,-0.269261,0.435751,-0.055250,0.380657,0.435762,-0.333640,0.526829,0.329365,-0.100146,0.392399,0.297489,-0.195130,0.273497,-0.286627,-0.237387,-0.262187,0.167281,0.272682,-0.146931,0.024480,-0.005084,-0.056672,0.415379,-0.149449,0.337826,0.012748,-0.097195,0.442814,-0.005625,0.237287,-0.316398,0.030885,-0.459210,0.423600,-0.469770,0.039502
-0.299057,0.509580,0.334467,0.275032,0.208866,0.268979,-0.187951,0.466696,0.389164,-0.109820,-0.364683,-0.178713,-0.105689,-0.197808,-0.028246,0.396976,-0.415662,0.498747,0.050402,-0.286120,0.155976,-0.433423,-0.371771,-0.179186,-0.156240,-0.333588,0.363037,0.331818,0.432659,-0.344409,-0.246383,-0.226121,0.368809,0.420255,0.061919,-0.393297,-0.118547,-0.018124,0.510977,-0.265895,-0.255333,-0.222847,-0.205812,0.256475,0.458590,0.477450,-0.057527,0.109972,-0.190954,0.351115,-0.291791,0.116399,0.454116,0.156272,-0.028732,-0.246838,-0.141335,0.291062,0.435611,-0.123700,0.468169,0.368746,0.124853,0.513015,-0.054436,-0.356694,0.060601,-0.173790,-0.209848,-0.379499,0.465897,0.284106,-0.171686,0.182580,-0.210498,0.374990,-0.432430,0.177614,0.233642,0.031899,-0.186929,-0.081314,0.422951,0.402579,-0.110553,-0.355554,-0.050082,-0.179168,-0.432947,0.401550,-0.185757,0.291489,0.493263,0.409992,0.420519,0.070625,0.043253,-0.150371,-0.114881,0.237588,0.338002,-0.234776,-0.331800,0.303105,0.135723,0.328724,-0.041816,0.014534,-0.391276,0.428953,-0.009566,0.037862,0.575770,0.472821,0.473360,0.141125,0.392543,-0.396318,-0.182674,-0.533407,-0.206383,-0.003684,-0.174549,-0.238964,-0.122294,0.522756,0.340059,0.272227,0.428068,0.426730,0.155867,-0.266987,0.322398,0.457248,0.234478,0.043507,0.120419,-0.296043,0.303359,0.023434,-0.049826,-0.038998,-0.104946,0.271858,-0.015458,-0.196017,0.113997,0.378590,0.150535,-0.173110,-0.077535,0.550230,-0.139688,0.351514,-0.353588,0.357072,-0.312419,-0.089061,0.128421,0.269298,0.265541,0.412573,0.052225,0.213412,0.068772,-0.108312,0.107014,0.227611,-0.043049,0.355367,-0.265491,-0.134948,-0.460880,0.118993,0.054774,0.233643,-0.098571,-0.069339,-0.053210,0.456963,-0.035302,0.343726,-0.171079,-0.412805,0.177200,0.414200,-0.050313,-0.162875,0.118851,-0.394296,0.435483,0.333701,-0.263690,-0.082489,0.383732,-0.101261,0.073109,0.157310,-0.286538,0.302496,0.309250,0.214918,0.216479,0.264440,0.423363,-0.072640,0.026445,-0.133427,-0.231202,-0.441491,-0.282989,0.235383,0.032524,-0.228452,0.007220,-0.074162,-0.200821,0.400974,0.097798,0.231114,-0.156853,0.190858,0.371989,-0.264399,0.061999,0.379821,0.345804,0.300147,-0.264978,-0.297853,0.118902,-0.426881,0.325291,0.211123,-0.074767,-0.203281,0.123644,0.045758,-0.040239,-0.315769,-0.270173,-0.257982,0.322693,-0.029593,-0.363898,-0.272171,0.435283,0.375280,0.360638,0.349524,-0.385219,0.496206,-0.238500,0.137605,-0.006510,0.547007
0.097477,-0.137086,0.350054,-0.280567,-0.078919,0.316804,-0.514065,-0.173599,0.241801,-0.100336,0.499277,0.185760,-0.091742,-0.391152,-0.151759,-0.264830,-0.116379,-0.165410,0.321816,0.223179,-0.427353,-0.477951,0.115572,-0.047723,0.390699,-0.059076,-0.108101,0.251277,0.124517,-0.199250,-0.453624,0.282233,0.165552,-0.034783,-0.059161,0.292509,0.192395,-0.177708,-0.383381,-0.376285,-0.074531,0.434888,-0.178175,-0.183778,-0.443582,0.084784,0.293192,-0.415687,-0.370815,0.304925,0.449304,0.146358,-0.223302,0.245489,-0.396859,-0.099329,-0.128694,-0.358551,0.170824,0.055771,-0.238969,-0.305992,0.255373,0.111227,-0.150002,0.623915,-0.227110,0.080638,-0.159461,-0.403398,-0.403648,-0.358101,-0.231839,0.422600,0.318270,0.126574,-0.132692,-0.241320,0.414156,-0.247320,0.662340,0.582817,-0.199543,0.328409,0.527072,0.503267,-0.474672,-0.439437,0.318346,-0.291990,-0.122959,-0.433842,-0.280649,0.254236,-0.148462,0.254487,-0.287131,0.287765,0.439750,0.267553,0.567010,-0.027686,-0.413442,-0.419880,-0.076406,0.394868,0.161447,-0.121143,-0.048798,0.090174,0.520016,-0.327219,0.137160,-0.226772,-0.089417,0.269347,-0.236382,-0.020700,-0.621408,0.125652,-0.279706,0.120627,-0.269528,-0.218136,-0.024406,0.406800,-0.325474,0.459233,-0.161246,-0.323896,0.226061,0.401351,-0.223326,0.389635,-0.526586,-0.228434,-0.531604,0.223260,-0.314179,-0.229695,-0.549803,0.073834,-0.287790,0.380127,-0.243152,-0.376661,0.495377,-0.315844,-0.420113,-0.103590,-0.568152,0.172686,0.106636,-0.364464,-0.186341,0.023948,-0.122591,-0.165247,0.247267,-0.338564,-0.307316,0.422068,0.158462,-0.322623,0.192078,-0.133787,-0.416479,-0.331459,0.106964,0.210074,-0.084071,0.289411,-0.250145,-0.486047,0.472191,-0.374104,0.261893,0.285766,0.055150,0.166998,-0.568607,-0.410551,0.347378,-0.260128,-0.003157,0.292457,-0.333585,-0.181044,0.499481,-0.327440,0.037435,0.211370,0.252888,-0.186248,0.314808,-0.300404,-0.381658,0.039091,-0.161039,0.186932,-0.177944,-0.030472,0.221817,0.452689,-0.157303,0.228831,0.053301,0.002921,0.254153,-0.493549,-0.644618,-0.131052,0.025130,-0.247479,-0.430724,0.552332,-0.113778,0.377218,0.396192,-0.116538,-0.088359,-0.240326,-0.253085,0.134630,-0.099846,0.222517,0.027447,-0.196672,-0.479451,0.303246,-0.046120,0.008452,-0.198478,-0.196196,-0.125042,0.321775,-0.333698,-0.281926,0.103483,-0.491378,-0.007422,0.095112,-0.345308,0.378346,0.103393,0.249664,-0.096727,-0.309995,-0.038500,0.470213,0.403800,0.413072,0.337663,0.333629,0.092650,-0.034149
-0.224666,-0.230210,-0.413882,0.270111,-0.499130,0.193335,-0.311222,-0.436539,0.093250,0.107465,-0.474171,-0.503045,-0.178411,-0.350553,0.360104,-0.207123,-0.304213,0.214501,-0.029032,-0.245333,-0.244510,-0.470358,0.144138,-0.210951,0.309331,0.279558,0.292106,0.520831,-0.210647,0.213891,0.314718,-0.209307,-0.100404,-0.014905,-0.501886,-0.352440,-0.411600,0.318417,0.088053,-0.136389,-0.422001,-0.482702,0.150046,0.006377,0.234475,-0.225057,0.306588,-0.297727,0.094146,-0.244335,0.215612,0.347449,0.247583,0.271755,-0.059177,0.016879,0.481509,0.223987,0.198086,0.039522,-0.215220,-0.145617,-0.338238,0.267018,-0.238782,-0.111535,0.418508,-0.073212,-0.263326,0.399650,0.296621,0.337349,-0.472498,-0.184189,-0.263698,0.055371,0.325552,-0.386142,-0.384974,-0.160830,-0.058656,-0.005225,-0.285612,0.034749,-0.079223,0.118491,-0.057995,0.336278,-0.253218,-0.152071,0.076983,0.133253,0.050358,0.190743,-0.141408,-0.004757,0.130876,-0.210658,0.397639,0.269876,0.053362,0.120849,-0.280659,-0.430055,-0.256899,0.043032,-0.363468,0.244318,0.331557,0.369999,-0.044170,0.502304,-0.374880,-0.488696,-0.164523,-0.501870,0.308856,0.228318,-0.241458,-0.022234,-0.364539,-0.000313,-0.337690,0.049905,-0.357223,-0.156562,-0.115143,-0.221709,0.201843,-0.006979,0.470090,0.126367,-0.092993,-0.056662,0.173714,-0.355027,-0.158890,0.067970,-0.280332,-0.026382,0.226264,-0.151590,0.187102,-0.424249,-0.090895,-0.283626,-0.301806,-0.159635,0.008437,-0.176970,0.377933,-0.013153,-0.372018,-0.007004,-0.259384,0.391118,-0.478814,-0.377989,-0.502842,-0.111024,0.503519,-0.397828,-0.037083,-0.255568,0.270253,-0.183363,-0.327321,-0.097383,-0.062710,-0.193526,-0.466606,0.132842,0.358118,0.376550,0.254062,0.037323,-0.284241,-0.207144,0.130819,0.119336,-0.051598,-0.282356,0.079359,0.186291,0.039474,0.079681,-0.316772,0.240339,0.053142,0.326535,0.101444,-0.511983,0.300524,-0.219403,-0.379428,-0.500032,-0.255596,-0.413751,-0.049008,-0.563324,-0.503465,0.034358,0.373447,-0.275595,0.452506,-0.246268,-0.016095,0.209690,-0.359913,0.445894,-0.213137,0.355133,0.384662,-0.095414,-0.493290,-0.174171,0.174773,0.074856,0.069599,0.298817,-0.104194,-0.062144,0.308324,0.055706,0.369697,-0.193433,0.229709,-0.046092,0.340869,-0.236006,-0.422348,-0.354699,0.172961,0.572774,-0.162500,0.273988,0.149168,0.324486,0.017453,0.150844,0.312501,0.252954,-0.315262,0.452653,-0.286173,-0.345520,-0.198302,-0.088027,-0.446563,0.272658,0.074915,-0.043402,-0.221450,0.125980,-0.143028,-0.440899
0.359084,-0.320645,0.104819,-0.293793,0.023183,0.423305,0.309428,-0.019593,-0.296551,-0.235687,-0.279004,0.451924,0.397137,-0.025189,0.009151,0.245730,-0.437506,-0.028403,0.365764,-0.291966,0.044606,-0.248669,-0.282302,0.087378,-0.243836,0.031314,-0.438207,-0.363288,0.064717,0.659694,0.233559,0.591835,0.445629,0.103026,0.179356,0.618814,-0.314520,-0.298409,0.404460,-0.255318,0.223181,0.185416,-0.210033,-0.220311,0.214635,0.567232,0.558645,0.368071,-0.027192,-0.190711,0.357723,-0.097891,-0.299130,-0.251317,0.331848,0.204671,-0.003212,-0.237221,-0.443419,-0.029635,-0.511341,0.386300,0.012764,0.135758,-0.342189,0.327783,-0.197160,0.262486,0.140544,0.121087,-0.431102,-0.410282,-0.262652,0.083440,0.315453,-0.302141,-0.106630,0.135831,0.300262,0.385968,-0.158294,-0.017751,0.255699,0.175105,0.137960,0.234908,-0.314877,0.379482,-0.170119,0.074769,0.047999,0.282528,-0.244201,-0.450462,0.474987,0.399009,-0.508108,-0.386966,-0.421891,-0.406591,-0.326574,0.276762,-0.313061,-0.052635,0.247556,0.330377,0.433728,0.056589,-0.306000,-0.185219,-0.033057,0.055126,0.402533,-0.180420,-0.330517,-0.310161,0.038555,-0.037706,0.048416,0.148051,0.338837,0.195128,-0.365631,0.069477,0.101721,0.038446,0.065279,-0.000091,0.089495,0.082825,-0.294280,-0.317024,-0.098836,0.340333,0.459084,-0.247973,0.285125,-0.065143,0.423176,0.039861,0.308043,-0.439485,0.176300,0.164719,0.008236,-0.094245,-0.088856,-0.333899,-0.526006,-0.494125,-0.161532,-0.104886,-0.463368,0.053319,-0.296965,0.503302,-0.126287,0.335989,-0.100068,-0.387942,-0.203807,-0.510742,-0.094405,0.028356,0.025597,0.177990,0.360594,-0.078961,0.122621,0.559878,-0.026597,0.328245,0.432939,-0.434954,-0.453604,0.088331,0.116658,-0.336145,0.247355,-0.184574,0.052616,-0.298847,-0.043158,-0.449418,-0.384945,-0.212473,0.178905,0.371878,0.025908,0.488689,0.424408,0.382302,0.306206,-0.228512,0.112625,-0.009958,0.360588,0.197848,-0.396475,0.397468,-0.268951,0.025873,0.477643,0.171627,-0.063752,-0.174100,-0.442142,-0.007287,-0.083123,0.161432,-0.202353,0.276576,-0.265809,0.398679,0.303540,0.111481,-0.424666,0.279691,-0.337534,0.051581,0.571847,-0.130533,0.297444,-0.203165,0.046730,-0.133844,0.266216,0.054030,0.339077,0.586279,-0.375296,0.026518,-0.282593,0.319607,-0.081839,-0.234521,0.173864,-0.049526,-0.356093,-0.408931,-0.436453,0.273608,0.390544,0.244266,-0.484548,0.273729,0.488110,0.297629,-0.086163,0.318262,0.104629,0.471833,-0.033332,-0.547813,0.309996,-0.142639
-0.209081,0.078859,0.362389,0.446338,-0.301429,-0.165666,-0.348555,-0.056289,0.007506,0.029037,-0.157163,-0.224499,0.141287,-0.223108,-0.296609,0.285065,-0.239760,0.388363,-0.380882,-0.261172,-0.120765,0.052930,0.287583,0.329568,0.090098,-0.136516,-0.420031,-0.209649,0.446531,0.018054,-0.095456,-0.119328,-0.392407,-0.032764,-0.349772,0.077523,0.141699,-0.318799,0.170760,-0.030539,0.290414,0.443430,-0.321057,0.240783,0.088695,-0.048560,0.395575,-0.301184,-0.425620,-0.372370,-0.317881,-0.037529,0.375222,0.381121,-0.247469,-0.189806,-0.024596,-0.246675,0.043425,0.226128,-0.175957,0.272828,0.147798,0.474884,0.167620,0.153633,-0.157544,-0.149872,-0.043518,0.122887,-0.195697,0.505911,-0.327413,-0.359409,-0.322246,-0.102796,-0.459283,-0.310605,-0.269508,-0.169059,0.416095,0.377241,-0.340255,0.123417,0.229184,0.363149,-0.008789,0.210305,-0.427576,0.442299,-0.115603,0.257165,-0.292419,-0.238933,-0.211541,0.396378,-0.173530,-0.199882,0.305342,0.218881,-0.026966,0.145411,-0.140765,-0.336432,0.044053,0.187273,0.062743,-0.364795,-0.274617,0.330476,0.099390,0.454235,0.570123,0.021997,-0.305215,0.236261,-0.169572,-0.002633,-0.106660,-0.207824,0.014681,-0.119752,-0.365898,0.033770,-0.099348,-0.097609,-0.139374,0.268238,-0.300197,0.717566,0.516839,-0.039853,0.475652,0.355088,-0.183388,0.181470,0.169114,-0.342562,-0.089620,0.129814,0.227544,0.646383,-0.275947,-0.336742,-0.024333,0.679998,0.314957,-0.362267,0.070149,0.147699,0.341522,-0.045032,-0.385890,0.092257,-0.433012,0.452552,-0.217877,0.465165,0.343741,-0.406916,0.558680,-0.340068,0.497700,0.374762,0.162207,0.209881,0.050681,-0.001713,0.348074,0.330261,-0.165867,-0.141974,0.532664,-0.137741,-0.250875,-0.174781,0.009735,-0.157319,0.078896,-0.092173,0.116486,-0.248529,-0.249061,0.265939,0.174122,-0.189017,-0.243372,-0.013517,0.314559,0.031228,0.378882,-0.279711,-0.284355,-0.353382,0.526858,0.044505,0.063937,-0.422460,-0.188956,0.141559,-0.352928,0.447130,-0.279091,-0.075655,0.380650,-0.050069,-0.145434,-0.096024,-0.006389,0.242279,0.511730,-0.197519,-0.363506,0.051219,0.118414,0.174311,-0.061948,0.165521,-0.445436,-0.408668,0.026704,0.237179,-0.426602,-0.208401,0.251477,-0.340239,-0.345729,-0.002679,0.329045,-0.420265,-0.515631,0.285202,-0.378819,-0.237460,0.056794,-0.319733,-0.032937,-0.216040,0.379022,0.078849,0.212037,0.264950,0.155537,-0.169744,-0.076956,0.545631,-0.129000,-0.072311,-0.069112,-0.383245,-0.336293,-0.141614,-0.078033,0.461896,0.433441,-0.353639
-0.097937,0.471486,0.242155,0.199780,-0.033604,-0.160262,0.164743,0.478990,-0.348574,-0.294124,0.017255,0.370273,-0.403273,-0.406652,-0.552522,0.027647,-0.252958,0.357211,0.212556,-0.136040,0.178943,-0.339022,0.126362,-0.398282,0.114295,-0.300194,0.566753,-0.151133,0.198573,-0.166052,0.385598,0.320315,-0.007209,0.348463,0.194597,-0.391915,0.010938,0.378466,0.309810,0.058618,0.073601,-0.166464,0.472046,0.282504,-0.035827,-0.052884,0.064389,-0.100483,0.176994,0.319565,0.087124,-0.124148,-0.359602,-0.449174,0.288915,-0.464358,-0.312233,0.189707,-0.227269,-0.263563,-0.009546,0.150290,0.259501,0.402636,0.170418,-0.204575,-0.295291,-0.457794,-0.510442,-0.375603,0.302772,0.412682,0.362162,-0.278408,0.316915,0.535180,-0.052318,0.087255,0.376510,0.410104,-0.504863,-0.520554,-0.060874,-0.655871,-0.040246,-0.006505,0.125834,0.218999,-0.261967,0.084023,0.594512,-0.109477,0.440096,0.094285,-0.250830,0.063278,0.499899,-0.390274,-0.168716,-0.412751,-0.047877,0.035316,-0.373885,0.348432,0.199799,-0.251295,0.325644,-0.110099,0.369976,-0.373253,0.157658,0.331336,-0.541223,0.305494,-0.357815,-0.111834,0.314440,-0.261474,-0.018701,0.483488,0.539942,0.041016,0.157024,0.087899,-0.223234,-0.098219,-0.127492,0.057585,-0.128260,0.139278,-0.522714,0.107874,-0.236585,0.119234,-0.347779,0.420183,-0.266397,-0.071087,-0.426122,0.279863,-0.141801,0.335185,-0.337652,0.296653,-0.168812,-0.156029,0.074610,-0.172426,0.392182,-0.038071,0.004998,-0.106091,0.649843,-0.107528,0.371771,0.468114,0.135991,0.267242,0.360292,0.014627,0.265016,0.093539,0.379406,0.106674,-0.036837,0.504560,0.040361,0.479866,0.252268,-0.274293,-0.497734,0.446600,0.266523,0.517920,-0.373940,-0.193827,0.226027,-0.202253,-0.000634,-0.018213,-0.023997,0.035920,-0.496234,0.240440,-0.320846,0.432541,-0.166928,0.226585,-0.037823,-0.225113,0.070704,-0.192306,0.082028,-0.150740,0.294001,-0.080344,0.156053,0.034680,0.034940,0.476162,-0.288718,0.008353,-0.080907,-0.224844,-0.457884,-0.253486,-0.084251,-0.467893,-0.453805,-0.318352,0.512741,-0.140554,-0.331715,-0.389421,-0.187561,0.470878,-0.329863,-0.101349,-0.238636,-0.163719,-0.173520,0.227839,0.235091,-0.555502,-0.047901,0.230256,0.423377,-0.295391,0.031353,0.372004,0.300309,0.397810,0.532620,0.428840,0.243650,0.024835,-0.127395,-0.208902,-0.050161,0.141539,-0.585154,0.105775,0.328079,0.149066,-0.060764,-0.216167,-0.052110,0.223417,-0.289141,-0.231228,0.286677,-0.127013,0.376604,-0.308073,-0.516858,-0.417841
0.382970,-0.217510,0.659388,0.291414,0.074126,-0.001416,0.492616,0.540864,0.297833,0.439641,-0.251770,-0.474397,-0.552487,-0.603952,-0.097945,-0.216252,0.171002,-0.196321,-0.445006,0.370582,0.362389,-0.008288,0.253763,0.400934,-0.387347,-0.525326,0.408121,0.173042,-0.237748,-0.167650,-0.295915,0.329746,-0.383593,0.140324,-0.291599,-0.221119,0.212400,-0.349574,-0.078757,-0.188339,-0.059726,0.064293,0.197550,0.290869,-0.029967,0.337155,-0.184971,0.309997,-0.047240,-0.251766,-0.339711,0.052768,-0.110458,-0.375845,0.211580,0.348797,0.290918,0.259490,0.081594,0.263612,-0.044323,0.058319,-0.146500,0.315543,-0.565217,-0.658621,-0.344204,-0.371257,-0.486921,-0.481691,0.327642,0.016171,0.338665,-0.203526,-0.117309,0.184020,0.335210,0.122486,0.153266,0.143001,-0.341314,0.170262,0.337067,0.059158,0.372312,-0.094701,0.079622,0.356058,0.331896,0.405711,-0.158848,-0.366443,-0.328781,0.400723,0.523014,-0.303007,-0.223530,-0.069084,-0.570204,0.337346,0.008281,0.267747,-0.439856,-0.376961,-0.135326,-0.129480,0.030407,-0.079265,0.205970,-0.552519,0.099331,0.023968,-0.128924,-0.117698,-0.352613,0.024534,-0.275852,-0.072510,0.059038,0.028969,-0.041073,-0.061788,-0.312947,0.360036,-0.003522,0.330186,-0.073178,-0.049072,-0.106172,0.472422,0.343779,0.378479,0.102757,-0.194152,-0.256027,0.335374,0.073577,0.486424,-0.392820,0.462871,0.508512,0.085741,0.041072,0.407818,-0.401432,-0.118514,-0.121286,-0.170846,-0.202938,-0.310712,-0.215838,0.265670,0.259819,0.405699,-0.317298,0.408892,-0.164268,-0.172745,0.046746,0.268792,0.394006,0.115416,0.232048,-0.229043,0.331030,0.520379,0.542789,-0.008309,0.428660,0.622342,0.219408,0.366501,0.542371,0.114915,-0.079482,-0.107132,-0.145486,-0.116392,-0.116574,0.051945,-0.096812,0.545188,-0.021942,0.215139,0.181848,0.425853,-0.179224,-0.070817,-0.144213,-0.234245,0.286644,-0.307659,-0.130347,0.628917,0.321881,0.448815,-0.257918,0.258623,0.231068,-0.342275,0.147857,-0.081456,-0.017939,-0.309195,-0.355583,-0.632984,0.097612,-0.333959,0.420708,-0.160063,0.262323,-0.400346,0.173120,-0.020447,0.305255,0.365157,0.079306,-0.063270,-0.374021,0.252846,-0.436884,-0.287937,0.228087,-0.281324,-0.357093,-0.228630,-0.203177,0.003695,0.287997,-0.478862,0.024237,-0.097997,-0.013113,-0.111683,0.399766,0.579655,0.010610,-0.125335,0.482699,-0.245362,0.080889,-0.241803,0.278109,-0.047951,-0.603738,-0.420515,-0.113338,-0.145106,-0.239163,0.248140,0.192658,0.095149,0.136806,-0.279340,-0.239583,0.302039
0.104434,-0.065502,-0.470394,-0.064390,-0.329234,-0.395498,0.210470,-0.130288,-0.242276,-0.311383,0.157589,0.408884,-0.142755,-0.066568,-0.008124,-0.107209,0.370257,-0.078518,-0.208152,-0.384086,0.342811,-0.104634,0.160418,0.493794,0.012528,0.013816,0.324308,0.293384,-0.598224,0.337495,0.298545,0.063453,-0.373875,0.050871,0.423629,-0.214008,0.239680,0.158592,-0.095825,0.225381,0.398421,0.481613,0.065037,0.179289,-0.043005,0.073573,-0.095045,-0.133026,0.138429,-0.151990,-0.367080,-0.240504,-0.155517,0.290343,0.318778,0.046934,0.195537,-0.363661,0.037404,0.078047,-0.324456,-0.095942,-0.065457,-0.198256,0.130580,0.439055,0.160233,0.170900,-0.358135,0.390989,0.444581,0.093562,0.078393,0.241624,0.360500,0.488559,-0.163121,0.594979,0.015591,-0.353510,-0.238162,0.047996,0.496472,0.398335,-0.114512,0.518108,0.454047,0.153771,-0.425387,0.035091,-0.407637,0.064385,0.014792,-0.248033,0.350307,-0.060949,0.134999,-0.380684,0.273143,-0.395871,-0.411639,-0.242495,0.105614,0.120225,-0.339099,0.328344,-0.072318,0.137272,0.212224,-0.199756,0.034981,0.382793,-0.407942,-0.010173,-0.059252,-0.005266,-0.202514,-0.029072,0.268852,0.416474,0.297228,0.084985,-0.075108,0.373688,-0.559638,0.319720,-0.097525,-0.362631,-0.470661,0.359358,-0.378978,0.056636,-0.394068,0.227641,-0.221566,-0.232065,-0.548873,0.108870,-0.149334,-0.126965,-0.583962,0.114186,0.264910,-0.054102,-0.400125,0.267395,-0.102977,-0.295891,0.015404,-0.178942,-0.074206,-0.026463,-0.151918,-0.110222,-0.614028,-0.591935,-0.156909,0.153420,-0.087199,-0.258872,-0.061436,-0.385555,0.360982,0.356104,-0.297145,-0.022321,-0.193751,-0.082859,-0.278357,-0.169353,-0.500496,0.376247,-0.019219,0.072312,-0.251595,0.048626,-0.142716,0.362863,0.193417,-0.116369,0.097383,0.237539,-0.289478,-0.480686,-0.114913,-0.114978,0.203996,0.149534,0.487301,0.303616,-0.215565,0.054109,-0.048748,0.176215,0.023256,-0.219193,0.084178,0.363334,0.337504,0.133329,0.479302,0.333844,0.156851,0.146164,-0.379326,-0.490288,0.108199,-0.293525,0.548358,0.650538,0.294667,-0.405673,0.407363,-0.390554,0.225422,-0.212343,0.550158,0.441148,-0.392374,-0.135883,0.062731,0.274222,-0.186133,-0.144457,-0.279556,0.337603,0.071068,0.562336,0.184386,0.231910,0.486593,-0.342672,-0.176130,-0.016227,0.415267,0.355416,0.190233,-0.354226,-0.328960,-0.378092,-0.298742,0.244209,0.339413,0.488008,-0.326166,0.180024,-0.016189,0.069712,-0.388034,-0.029337,-0.348069,-0.240082,-0.164520,0.309475,0.137264,0.424440
0.410574,0.034054,-0.650667,-0.161192,0.387079,-0.081651,-0.030641,0.414690,0.108243,0.024934,0.362938,0.131234,-0.002540,0.482979,0.320138,0.365736,-0.566995,-0.256732,-0.470408,0.101746,-0.507495,-0.057859,0.082681,-0.430710,-0.461615,-0.328267,0.196362,-0.336425,-0.506523,-0.347779,0.130063,-0.380381,-0.469067,-0.007025,0.596473,-0.131990,0.184451,-0.281316,-0.195763,-0.194909,-0.177601,0.127919,0.071155,0.351193,0.084588,-0.050903,-0.379660,0.373180,-0.380013,-0.362693,0.365451,0.277455,0.332178,0.232615,0.343599,0.417971,-0.212536,-0.252844,-0.442465,0.009881,0.356381,-0.638700,-0.312058,-0.029173,0.106232,-0.370783,-0.389636,0.073701,0.248164,0.053144,0.284994,0.220578,-0.136019,-0.339447,0.241315,0.300120,0.269891,-0.321880,-0.254215,-0.438116,-0.512708,-0.354262,-0.069555,0.564333,-0.266338,-0.085605,0.317801,0.083155,0.131764,0.099899,0.573353,0.378314,-0.010272,0.391954,-0.233646,0.254568,-0.066236,-0.531396,0.143792,0.195289,0.242398,0.502183,0.437977,-0.138437,-0.122939,0.355548,-0.157127,0.193033,0.442372,0.244963,-0.257177,-0.030498,-0.033772,-0.406961,0.318404,0.173737,-0.139899,0.314404,-0.084844,-0.095152,0.067964,-0.357932,0.113743,-0.435075,0.081259,-0.249218,-0.012176,-0.510274,-0.489617,-0.102025,-0.153860,-0.169301,0.262256,-0.466428,0.297311,-0.299158,-0.499967,-0.130547,-0.357249,0.198514,-0.594995,-0.174402,-0.301437,0.401602,-0.192904,0.433594,-0.080847,0.227660,0.436748,0.519215,-0.472240,0.355873,0.182432,-0.176510,0.037545,0.076671,0.019127,-0.280001,0.045038,-0.355903,-0.009761,0.258423,-0.046211,0.444722,-0.046541,0.524863,0.538333,0.332335,0.421816,0.540660,0.081115,-0.339881,-0.136116,-0.163944,-0.381422,-0.015936,0.224078,0.263569,0.246443,0.345487,-0.423796,-0.149720,0.109439,-0.291361,0.355200,0.023437,-0.513813,-0.253610,0.283709,-0.485230,-0.210168,-0.088758,-0.159554,-0.041248,-0.101244,0.424462,-0.419495,0.082667,0.049524,-0.314996,-0.196116,-0.018251,-0.177542,-0.521547,0.195628,-0.247228,-0.316267,0.037468,0.172048,-0.301133,-0.310681,0.032328,-0.329447,0.165574,0.071391,-0.181653,-0.413012,-0.295608,-0.313189,-0.188466,-0.358594,0.262148,0.103435,-0.165256,-0.365637,-0.041708,-0.446262,0.112060,0.409277,0.027410,0.059234,-0.189188,-0.127005,-0.205908,-0.073881,-0.358969,-0.463384,-0.205566,0.358150,0.298462,0.398072,0.098238,0.135207,0.040108,-0.000910,-0.134740,-0.265463,0.035105,-0.620403,-0.256132,-0.028909,0.161691,-0.368298,-0.425392,0.182257,-0.102653
0.418637,-0.308974,-0.084409,-0.183798,0.121971,0.060780,-0.262052,0.129135,0.127443,0.127406,-0.130461,-0.055215,0.069554,-0.272599,0.147558,0.456825,-0.285298,0.060893,0.038147,0.197578,0.043148,0.061900,0.058916,-0.396510,0.236378,-0.398203,0.030429,-0.291743,-0.185160,0.394464,-0.230951,0.089184,-0.130342,0.348775,-0.177201,0.500570,0.260353,-0.122832,-0.150235,-0.451089,0.483028,-0.311646,0.069151,-0.513477,0.037533,0.630202,-0.006202,-0.053789,0.214073,0.135540,0.133205,0.100372,0.098244,-0.332602,-0.282137,-0.381598,-0.065808,0.420618,-0.316134,-0.010201,0.006973,0.033806,0.360278,-0.168858,-0.149673,-0.424902,-0.254257,0.381756,-0.479750,-0.252380,0.328763,-0.413993,-0.402685,-0.259241,0.078135,-0.340397,-0.397283,0.066436,0.236634,-0.069578,-0.511178,0.227131,-0.046303,-0.340344,0.152013,-0.324565,0.077503,0.077725,0.581416,-0.019511,-0.371096,0.154560,0.403810,0.313122,-0.373975,0.386291,-0.377246,-0.153168,-0.071520,-0.025500,-0.132374,-0.388753,-0.632182,-0.147389,-0.337314,-0.047597,0.040173,0.361066,-0.556642,-0.263347,-0.437832,-0.476148,-0.034197,0.308270,-0.072227,0.285842,-0.040008,-0.263470,0.339245,-0.169129,-0.401218,-0.046184,0.349774,0.073322,0.201404,0.034135,0.280228,-0.314429,0.497560,0.195812,0.312401,-0.432835,-0.196251,0.348139,-0.263170,0.060674,0.065193,0.058272,-0.333962,-0.305202,0.497832,-0.324930,0.367364,-0.285207,0.240271,0.422567,-0.281392,0.296317,0.033256,-0.475112,-0.044063,0.485932,0.009849,0.569983,-0.274019,0.528909,0.047772,-0.119736,-0.139800,0.398273,0.125605,-0.108982,0.329364,0.273671,-0.373869,-0.162257,0.105277,-0.505147,0.149533,0.423173,0.370107,0.247458,-0.037861,0.209514,0.300365,0.241878,-0.088988,0.026482,-0.053482,0.310257,0.038137,-0.147069,-0.014287,0.071000,-0.304642,-0.542525,0.087819,0.036618,0.117161,0.304387,-0.467553,-0.579384,-0.052818,0.110442,0.092857,-0.224589,0.439010,0.241936,0.206179,0.242670,-0.353376,-0.321165,-0.378854,0.225160,-0.113769,-0.573461,-0.465557,-0.420209,0.070947,0.239202,-0.037268,0.408154,-0.210103,0.115543,-0.066548,0.077643,0.495239,0.255722,-0.017309,0.237887,0.405641,0.202782,-0.204311,-0.569544,-0.334814,-0.484934,0.449209,-0.240752,0.125236,0.212667,-0.006171,-0.390252,-0.435128,0.071025,-0.640027,-0.305574,0.318956,-0.128736,-0.238231,0.144383,-0.110097,-0.192283,-0.364680,0.487796,0.021835,-0.107243,0.391818,-0.305828,0.158653,0.166345,0.116440,0.024998,-0.392430,0.053565,-0.082757,-0.466886
-0.217320,-0.214765,-0.083968,0.417942,0.345393,-0.366376,0.256844,0.437238,0.317030,0.168376,-0.359330,0.181677,0.347809,0.027451,0.223293,-0.221915,-0.336997,0.065235,-0.257395,-0.556255,0.112003,0.217294,-0.144315,-0.010266,0.216944,-0.086317,-0.027179,-0.023207,-0.274343,-0.516133,-0.459139,0.464108,0.279432,0.434438,0.285286,0.414740,-0.051044,-0.278154,-0.026835,0.224899,0.540937,-0.617413,-0.182558,-0.328794,-0.133022,-0.234390,-0.042480,0.047813,0.286378,-0.063618,0.318211,-0.304407,-0.242450,-0.087303,-0.229755,-0.128340,0.381892,0.194706,-0.202546,0.138098,0.142346,0.064372,0.638528,0.162043,-0.406667,0.350819,0.284171,0.160639,0.140616,0.409002,-0.384056,0.017203,0.192937,-0.591931,-0.454755,0.492554,-0.240461,0.488197,-0.235274,0.369160,0.045022,-0.570441,-0.239372,-0.046916,-0.575502,0.239569,0.380513,0.370416,-0.178290,0.573496,0.140619,-0.130012,0.505832,0.144934,0.073519,-0.313227,0.033075,-0.562323,-0.189745,0.241101,-0.442727,-0.035605,-0.067010,0.375553,-0.281661,0.170833,-0.165142,-0.430372,0.217369,0.269482,0.501823,-0.294470,-0.281072,-0.326521,-0.112069,0.069383,-0.140975,0.230060,0.069701,-0.535528,-0.164383,0.336416,0.262008,0.269339,-0.140136,0.062719,-0.005503,-0.323455,-0.195534,-0.192515,-0.067936,0.285164,-0.143624,-0.185221,0.110877,0.505346,0.058476,0.298853,-0.329767,-0.251789,-0.172230,-0.296902,-0.136293,0.138195,0.154864,-0.037161,0.184711,0.034930,0.430657,0.468691,-0.146683,-0.238154,0.105714,0.318937,-0.047262,0.108904,0.342119,0.013510,0.273905,0.465298,0.302153,-0.220689,0.352339,0.168338,0.470772,0.003802,-0.081313,0.160539,-0.210220,-0.488664,-0.528836,0.264996,0.262002,-0.397063,-0.163627,-0.226184,-0.032629,0.669492,-0.222936,-0.060116,0.245173,-0.129475,-0.048060,-0.299471,0.189303,-0.164521,0.163513,0.209732,-0.503452,-0.381251,0.241839,-0.220559,0.055451,0.683451,0.488646,0.122629,-0.054254,0.112436,0.510175,0.231424,-0.313527,0.243304,0.171028,-0.193338,-0.267632,0.332304,0.428334,0.068650,0.268510,0.185957,-0.072803,0.415544,-0.283911,0.471668,0.201789,0.313504,0.222712,0.094589,-0.067109,-0.201930,-0.034921,0.391452,-0.011924,0.068251,0.178343,0.432712,-0.280171,0.240037,0.322964,-0.142815,0.471112,0.015933,-0.395007,0.197325,0.013944,0.361311,0.584708,-0.312726,-0.070443,0.221067,-0.028439,-0.284411,0.267349,0.236312,-0.217344,0.274202,0.118172,0.000318,-0.270976,-0.074524,0.475815,-0.152335,-0.069227,0.483814,0.470816,0.033877
-0.367297,-0.350958,-0.050794,0.064182,0.244125,0.347248,0.042371,0.424048,-0.185822,0.255582,-0.028602,-0.397579,0.185242,0.149265,0.350957,-0.075771,0.036162,0.067933,0.285792,-0.339989,0.138091,0.266898,-0.138080,-0.099447,-0.523817,-0.462890,0.453098,-0.163424,-0.387341,0.506328,0.285740,-0.261645,-0.251341,-0.385980,0.337777,-0.129095,0.478022,-0.124133,-0.226783,0.068035,-0.562816,0.243541,-0.141616,0.510765,0.317782,0.414452,-0.153084,0.239703,0.056478,-0.207905,0.037264,-0.265019,0.501254,0.114192,0.472134,-0.369291,-0.427874,-0.317258,0.397493,-0.065027,0.546141,0.406945,0.341807,0.337232,-0.351079,0.370774,0.186559,-0.464175,0.362785,0.369085,-0.315700,-0.216717,0.064278,-0.333339,0.425217,-0.114962,0.485536,0.062316,0.196353,-0.190187,0.235213,0.295295,0.236392,0.297039,0.121740,0.488085,0.231125,0.273746,-0.149984,0.414963,-0.262186,0.563911,-0.062939,-0.128374,-0.077036,0.466072,-0.385172,-0.367519,0.274023,0.488824,0.076867,0.202654,-0.289319,-0.228669,0.089405,-0.062366,0.028166,0.198044,0.262703,-0.364844,0.081509,-0.491480,-0.531199,-0.365896,0.139595,-0.148392,-0.329752,0.190216,-0.293167,-0.166528,-0.059663,0.228110,0.384631,0.267378,0.282311,0.177087,0.302365,0.365588,0.439883,-0.459578,0.116358,-0.237266,0.292918,-0.181863,-0.221492,-0.269709,0.277884,0.290869,-0.410605,0.459410,0.282200,-0.223418,0.169930,-0.252364,-0.026753,0.239187,0.019256,0.067858,0.106290,-0.359571,0.018663,-0.242067,0.443187,0.301067,-0.521046,-0.019927,-0.167278,-0.160535,0.210471,0.410219,0.349897,0.335330,-0.279634,-0.019261,-0.479506,0.366048,-0.193758,0.044720,0.135201,-0.223924,0.026114,0.078589,0.038773,-0.284137,0.045643,0.014232,0.416118,0.154844,-0.334226,0.131121,0.269877,0.289728,-0.071600,0.070763,-0.197201,-0.203924,0.398959,0.347346,0.347113,0.006944,0.391381,-0.169581,-0.211237,-0.071701,-0.207129,0.419383,-0.198173,-0.039227,0.340598,0.265186,0.089516,0.266295,-0.257259,0.425266,-0.053405,0.304988,0.396984,-0.146179,-0.035274,-0.117367,0.063038,0.009845,0.515656,0.133607,-0.262423,-0.186341,0.264761,-0.152275,0.412586,0.358694,0.458415,0.182689,-0.465696,-0.147289,-0.197798,0.464616,0.040201,0.165873,0.338052,0.275683,-0.057243,-0.065212,-0.313209,0.089878,-0.240244,-0.354779,-0.033172,0.330609,0.266586,-0.142784,-0.154623,-0.264436,-0.252000,-0.422027,0.465193,0.242701,-0.079075,0.365212,0.190611,0.017315,0.127654,0.239932,0.121568,0.379042,0.516093,0.177797
-0.089063,-0.189232,-0.131417,0.589457,0.203005,0.573418,0.302834,0.510952,0.245498,-0.474078,-0.423804,-0.354955,0.472196,0.043685,0.007745,-0.234490,-0.302128,0.225073,0.387331,-0.029185,0.118836,0.151357,-0.055671,-0.261912,0.188890,-0.507339,0.369696,0.454567,0.082493,0.198249,-0.443315,-0.446495,0.347397,0.324412,0.180296,0.009828,0.377039,0.413703,0.054997,0.141485,0.054411,0.126293,-0.184392,0.115887,-0.314118,0.570785,-0.407938,-0.393530,0.156692,0.113282,-0.126163,0.358605,0.048168,-0.229892,-0.131734,-0.031652,-0.001261,-0.011769,0.059077,-0.536875,0.041051,0.288002,0.109111,-0.290174,-0.407349,-0.201673,-0.567975,-0.312196,0.302230,-0.046999,0.322757,-0.509811,-0.475302,-0.078160,-0.397083,0.021916,-0.496342,0.020230,-0.369308,-0.316523,0.305980,-0.263080,-0.420592,0.029629,0.168006,0.324250,-0.484194,0.186230,-0.566384,0.275126,-0.563212,-0.209016,-0.220275,-0.293295,0.087266,-0.509676,-0.306472,0.400689,-0.225508,-0.234649,-0.435490,-0.317711,-0.456109,-0.171767,-0.417501,-0.507881,0.310637,0.064520,-0.137109,-0.317383,-0.559016,0.078538,0.047193,0.199576,-0.249476,0.029432,0.530699,-0.183919,-0.376735,-0.306376,0.265154,-0.083992,0.056363,0.424241,-0.356526,-0.020439,-0.216992,0.417727,0.333493,0.089694,-0.049515,-0.461399,0.035142,-0.011409,-0.105260,0.518878,0.066264,-0.324045,-0.034757,-0.195104,0.186777,-0.146286,-0.006181,-0.408598,-0.264880,0.157407,0.244605,-0.326222,0.124121,-0.328287,-0.237557,0.281262,0.116483,-0.331333,-0.103727,0.311033,0.040309,-0.420235,-0.179643,0.251881,0.438776,0.188212,-0.301516,0.092270,-0.394854,-0.439777,0.054273,-0.416926,0.349820,0.153488,0.338971,-0.039426,0.084787,-0.287397,0.151287,0.463642,-0.372351,0.426460,0.102187,0.003719,0.184653,0.161677,0.471559,-0.162528,0.054359,-0.185211,-0.141658,0.260698,0.500856,0.231182,-0.183721,0.170516,0.348570,-0.354271,0.088706,0.367506,-0.010297,-0.002608,-0.368936,-0.229699,0.061922,-0.257738,-0.150605,-0.373230,0.042471,-0.353959,-0.026025,0.292002,-0.223508,0.304892,-0.383324,-0.155993,-0.076014,-0.541844,0.121820,-0.422641,-0.035191,0.123419,0.099093,0.329246,-0.030600,-0.136639,-0.405241,0.122049,-0.331291,-0.496103,0.292802,-0.271716,-0.301029,0.043887,-0.472566,0.142075,-0.347999,-0.225949,0.430511,0.318150,0.516992,0.021547,-0.126884,-0.337242,-0.422583,0.127020,-0.220675,0.622739,0.175151,-0.220815,0.456243,0.466666,-0.021460,0.495471,0.144254,-0.206050,-0.124406,-0.215967,0.486654,0.267829
-0.310850,-0.207007,0.435152,0.494539,-0.384023,0.409758,0.494908,0.182366,0.032139,0.067958,0.399209,-0.306999,0.397796,0.111503,0.121394,0.367737,-0.010310,0.010092,0.069641,-0.239481,-0.196667,-0.255113,-0.351685,0.271651,-0.326382,0.077357,-0.176255,-0.492316,-0.396834,0.304028,-0.480370,-0.089161,-0.077426,-0.439176,-0.035183,-0.353364,0.413498,0.373323,0.265882,0.024972,0.388662,0.120276,-0.359754,0.459247,0.244073,-0.291044,-0.469368,-0.346363,-0.045808,0.280533,0.127955,0.226657,-0.506130,0.015909,-0.225870,0.405076,0.073308,-0.331408,0.123319,-0.088813,0.404894,-0.513867,-0.428923,0.149894,0.152132,0.472347,-0.196729,0.094270,-0.408103,0.280667,-0.376165,-0.282101,0.335904,0.504577,0.195805,-0.114051,-0.363413,0.347477,0.126350,0.413581,0.121721,0.409250,-0.224688,0.137686,-0.310519,-0.242680,0.130787,0.093247,-0.235984,0.133860,-0.183891,-0.363944,-0.211904,0.369450,0.028683,-0.113399,-0.396911,0.490407,0.214611,0.014060,-0.445163,-0.087984,0.291507,-0.210806,0.271158,0.281506,-0.119176,0.043141,-0.422465,-0.358452,0.383850,-0.428717,0.478208,0.219614,0.537436,0.231409,-0.011967,-0.132041,-0.212232,-0.284339,0.223402,0.118381,-0.000402,-0.308977,-0.435413,0.316227,0.390190,0.259135,0.031074,0.506997,0.056584,-0.428035,0.082627,-0.127568,-0.067617,0.219942,-0.378760,-0.421730,0.336086,0.382589,-0.033985,0.573957,0.583177,-0.171525,0.482289,0.418273,0.366339,-0.138810,-0.132266,0.245337,-0.500898,0.112388,0.439069,-0.086365,0.437980,0.040890,-0.415957,-0.449879,0.257355,-0.409456,0.411331,-0.082824,-0.065441,-0.130876,-0.262924,0.221295,-0.361615,0.162925,-0.335888,0.219231,0.049240,0.448441,0.401217,-0.390723,0.428429,0.441174,-0.317653,0.344122,-0.243800,0.442690,0.019836,-0.145822,0.626877,0.419152,-0.214199,-0.084118,-0.236127,0.280280,-0.118132,-0.363955,-0.391675,0.029254,-0.451883,0.239858,0.415614,0.012683,0.197142,-0.054451,-0.166797,0.040861,-0.047468,0.175486,0.408906,0.200015,0.030658,0.080062,-0.194414,-0.184270,0.369432,0.156052,-0.071396,-0.417919,-0.324068,0.265509,0.439289,0.121486,-0.024005,-0.559462,0.390265,-0.106242,0.234395,-0.040846,0.355357,-0.229493,-0.384815,-0.264648,-0.110542,0.315007,-0.342785,-0.463322,0.248270,-0.241979,-0.292123,0.132432,0.009790,-0.565707,0.266083,-0.059052,-0.268491,0.337102,-0.400909,-0.377368,0.129324,0.023452,0.169728,0.193408,-0.333386,0.264935,-0.224064,-0.080951,0.424666,-0.266161,0.245153,-0.054921,0.419569,0.042292
-0.184617,-0.428270,-0.195870,0.287657,-0.380682,0.252003,0.034066,0.274101,0.418570,0.355009,-0.376147,0.217123,-0.039279,-0.317922,-0.105677,-0.047289,0.135660,-0.247211,0.167879,0.296375,-0.163252,0.361956,-0.132017,0.398702,0.236882,-0.028791,-0.077648,-0.184172,0.231347,-0.214702,0.323546,-0.406089,0.427123,-0.080148,0.406398,-0.428633,-0.153467,0.096451,0.016210,-0.242928,0.173803,0.270156,0.538063,-0.017979,-0.079072,0.353696,0.087051,-0.489358,-0.267198,-0.445051,0.434343,0.162186,-0.123581,-0.076590,-0.367673,0.462392,-0.550713,0.566487,-0.208238,-0.029281,-0.324594,-0.391671,0.454953,-0.217959,-0.062214,0.529624,0.396598,-0.464658,-0.031400,0.146014,0.191351,-0.217780,-0.041647,0.477733,-0.130221,-0.084974,0.071844,0.383489,-0.330455,-0.187883,0.227554,0.528927,-0.178877,-0.018572,0.363360,-0.367262,-0.130956,-0.306052,-0.185704,0.104915,-0.349849,0.472855,0.328935,0.549507,0.569703,0.342708,0.485289,-0.274134,-0.125893,0.159759,-0.416181,0.423154,-0.406800,0.315423,-0.326661,0.178175,-0.034928,-0.333307,-0.109014,0.387593,-0.312462,-0.121430,0.123373,-0.222266,0.276146,0.420403,-0.123604,-0.175504,-0.203537,-0.188423,0.189050,0.455543,-0.425012,0.322837,0.174003,-0.279142,0.538752,-0.110489,-0.415517,0.263611,0.214578,-0.210855,0.191849,0.344526,0.379044,0.326046,-0.145560,0.437922,-0.214293,-0.196261,-0.025998,0.125313,0.069182,0.087338,-0.008308,-0.433409,-0.445879,0.453698,0.143899,-0.213564,0.567747,0.408054,0.608987,-0.221275,-0.286791,-0.146232,-0.522822,-0.140037,0.126977,-0.226219,-0.184610,0.129093,-0.067404,0.399791,-0.326869,-0.172681,0.483943,0.173098,0.019424,-0.355130,0.238712,-0.189210,-0.011441,-0.422691,0.051382,-0.483152,0.105014,0.216537,-0.210186,-0.167283,-0.316372,-0.164048,-0.418340,-0.321048,-0.460682,0.243014,0.250035,0.322576,-0.378507,-0.037164,-0.129488,-0.204559,0.058766,-0.069930,0.515025,0.023128,-0.283733,-0.425896,0.209063,-0.395607,-0.156578,-0.160572,0.392013,-0.456724,-0.386868,-0.522758,-0.519089,-0.070812,-0.223741,0.221354,-0.329138,-0.201029,0.087696,0.439553,0.248548,-0.108329,-0.189647,0.083208,-0.354106,-0.234012,0.415345,0.063096,-0.268028,-0.249316,-0.391890,0.282035,0.054455,-0.058220,-0.297841,0.462664,0.307629,-0.452442,-0.297718,-0.401497,-0.016369,0.077590,-0.211515,-0.592019,0.122337,-0.276156,-0.148365,0.243817,-0.269608,-0.072644,-0.099932,0.319978,0.046832,-0.356122,0.170117,0.032580,0.268528,-0.541909,0.135720,-0.493614,-0.282896,0.358615
0.234327,0.050744,-0.213414,-0.107127,0.205006,-0.364704,-0.294946,-0.098655,0.459233,0.315295,0.255299,0.309488,-0.193413,0.024107,0.484252,-0.089128,0.371293,0.402425,-0.346111,-0.027670,0.315717,0.173188,0.066456,0.479516,0.140143,-0.022427,-0.420185,-0.411105,0.153151,-0.182797,0.125569,-0.155745,-0.065466,0.143867,-0.073797,0.151764,0.197174,-0.466210,-0.242531,-0.163074,0.483651,-0.344306,0.108526,-0.232862,0.229838,-0.399179,-0.255376,0.510278,0.383889,-0.524494,-0.040909,0.079967,0.094201,-0.446757,0.343075,0.364258,0.451836,0.001804,0.318371,0.509944,0.022502,-0.420698,0.478045,-0.129428,0.018093,0.509329,0.478111,-0.353849,-0.381357,-0.387794,-0.330790,-0.401270,0.113415,0.233221,-0.342004,0.220701,0.178369,0.029707,0.156429,0.092202,-0.191850,-0.284665,-0.220898,0.061174,-0.088288,0.152735,-0.088031,0.221461,0.205561,0.280894,-0.201403,-0.179470,0.449652,-0.453995,-0.363440,0.347228,0.128399,0.285504,-0.333588,-0.359526,0.484169,0.677133,-0.049337,-0.001463,0.282107,-0.022653,0.471848,0.283924,-0.398558,0.419267,-0.368301,0.234014,-0.525294,0.417978,-0.176888,0.532508,0.436289,0.386436,0.651186,0.592266,0.384246,0.505442,-0.212138,-0.450140,0.351561,0.407495,-0.445340,-0.309986,-0.072317,0.048580,0.019157,0.317263,-0.404299,-0.361724,0.400168,0.313373,0.084834,-0.097710,0.391785,0.090624,-0.061697,0.080958,0.328287,0.125586,-0.419318,-0.247828,-0.359488,0.140598,0.307578,0.053547,0.117009,-0.105609,0.427292,0.005182,-0.347477,0.221104,0.443335,0.305883,-0.275594,-0.378805,-0.401745,-0.560085,0.216106,-0.080671,-0.493288,-0.168842,-0.260540,0.379210,-0.115130,0.489579,0.419494,-0.319545,-0.435350,0.475643,-0.096635,-0.342094,-0.309096,-0.227136,0.084065,-0.522535,0.327501,-0.021115,-0.526720,-0.035738,-0.285700,-0.138072,-0.396459,0.211926,-0.378132,-0.174829,-0.387701,0.525451,-0.045640,-0.496679,-0.503717,-0.317214,0.167272,-0.156918,-0.301907,-0.045847,0.491505,0.040776,0.486190,-0.250193,0.104123,0.008327,-0.001121,0.284236,-0.531737,-0.269646,0.162798,-0.252272,-0.007644,-0.066621,0.166445,-0.258037,-0.213849,0.298419,0.020244,-0.174934,-0.236060,-0.148640,0.114763,0.328595,0.350339,0.585584,-0.241769,-0.003445,0.112598,0.081682,-0.401825,-0.334087,-0.356687,0.035975,-0.157292,0.373974,0.154350,-0.013720,-0.222241,-0.273674,-0.247727,-0.194949,-0.353354,0.403069,-0.301378,-0.453716,0.127214,-0.265048,-0.155966,0.348305,-0.098627,0.257451,-0.486477,-0.555305,0.110465,0.109582
-0.009125,0.638866,0.628314,-0.155429,0.350209,-0.195408,0.346973,0.197715,-0.307781,0.521669,-0.181857,0.493785,-0.511792,0.183838,-0.095258,-0.088663,0.643109,-0.172035,0.326907,0.268301,0.478447,-0.258900,-0.003193,-0.461270,-0.176430,-0.227946,-0.298613,-0.227676,0.438934,0.356871,0.375392,-0.220751,0.579674,0.062369,0.257016,-0.301520,-0.065842,-0.258821,0.569928,-0.019964,0.416821,0.507790,0.530564,0.159525,0.485206,0.126602,-0.299536,-0.443624,0.365043,0.179047,-0.350912,0.351400,0.368822,0.014961,0.048075,-0.162158,0.512800,0.413233,-0.095505,-0.147818,-0.355752,0.215700,-0.118517,-0.193375,0.267927,0.351480,-0.214073,-0.511816,-0.019821,-0.037022,-0.354369,-0.203508,0.051789,0.127271,0.107703,0.188748,0.326269,-0.073703,-0.253782,0.592300,-0.283538,0.029365,-0.264887,-0.314028,-0.396629,-0.410613,-0.341512,0.094801,0.152587,-0.273823,0.221744,0.078977,0.422594,0.110212,0.076436,0.478522,-0.369600,-0.281230,-0.122555,-0.428200,0.026261,0.032241,-0.107241,-0.256690,0.386292,-0.398582,-0.041084,0.419511,-0.382047,0.333300,0.439019,0.060363,-0.290141,-0.162855,-0.295621,-0.474138,-0.023852,-0.278183,-0.411325,-0.175827,-0.278422,-0.287055,0.430597,0.312410,-0.213892,-0.375035,0.063902,0.168041,0.093723,-0.095764,0.107263,-0.024928,-0.077587,-0.135119,-0.434181,-0.043340,0.414202,-0.417202,0.533285,-0.219175,0.276944,-0.123394,-0.082508,0.229618,-0.209834,-0.088942,0.335723,-0.052660,-0.003566,0.091540,0.306856,0.184633,-0.366050,-0.325553,0.031001,-0.419951,-0.255867,-0.614050,-0.072876,0.247499,-0.147157,-0.340316,0.474211,0.124404,-0.283278,-0.472245,0.433002,-0.256875,-0.163499,-0.384179,-0.566622,0.036052,-0.291090,-0.426995,0.276743,0.134200,-0.012735,0.334428,-0.100999,0.099066,0.188749,0.466813,-0.214801,0.307974,-0.103720,0.160457,-0.081405,-0.248682,-0.028360,-0.051813,-0.261993,-0.446631,-0.119737,0.188249,-0.199701,-0.018110,0.214985,0.211658,0.348290,-0.237829,0.235455,-0.354439,-0.608953,-0.361761,0.154194,0.055871,-0.033097,0.095363,0.390010,-0.483894,0.056769,-0.078088,0.431954,-0.424642,0.081526,-0.017389,0.010088,-0.397321,0.282842,0.325354,-0.325754,0.042052,-0.121100,0.132307,0.084281,0.164557,-0.030421,0.009541,-0.413581,0.130423,-0.406536,0.013103,0.293899,0.147294,0.297435,-0.458756,0.428529,-0.168001,0.147448,0.193343,-0.261775,0.233523,0.418998,0.305298,-0.022756,0.355275,0.376838,0.058086,-0.343206,-0.400338,0.110305,0.466496,0.443924,-0.018313,-0.422983,-0.326388
0.627367,-0.110074,0.638595,0.569347,-0.221146,0.034154,-0.016923,-0.382729,-0.413039,0.340505,-0.241572,-0.501817,-0.419296,-0.147351,0.138274,0.254666,-0.194810,-0.101698,0.567761,0.250232,0.186148,-0.283119,-0.018562,0.214751,0.136951,0.497590,-0.354255,0.417950,0.004602,-0.378235,0.046890,0.395002,0.090993,-0.266983,-0.157822,-0.365286,0.275437,-0.066467,-0.023390,-0.146513,0.157809,-0.426824,0.289925,0.247557,0.227222,-0.326407,-0.370680,-0.106839,0.333908,-0.091694,-0.582611,-0.275711,-0.398863,0.230031,0.143181,0.166824,0.457825,0.613535,0.429899,0.516247,-0.136067,0.017464,-0.003610,0.347093,0.306882,-0.242439,-0.342532,-0.084823,0.185818,-0.077733,-0.131299,-0.107331,0.305340,-0.235741,-0.414441,0.463524,0.302677,-0.103087,0.052050,-0.148925,-0.550586,-0.215363,-0.267811,0.260242,-0.153008,-0.320222,-0.057373,0.343910,-0.007425,0.094376,0.666342,0.299705,0.568134,0.058188,0.359272,0.204811,-0.177178,0.245117,0.337541,-0.066193,0.443582,-0.005704,-0.258603,-0.296000,-0.035132,0.220238,0.038261,-0.003565,-0.022899,0.223040,-0.479876,0.156659,0.383767,-0.342007,0.197101,0.323789,-0.027073,0.224736,-0.128940,0.469669,0.499634,0.615797,-0.164424,0.063684,0.212196,-0.281906,0.164243,0.328255,-0.107903,-0.163798,0.057559,0.264708,-0.425983,-0.573396,0.277916,0.066688,0.206260,-0.286816,-0.056171,-0.049973,0.504169,0.629190,-0.327841,0.103854,-0.288394,0.287420,0.367824,-0.208545,-0.562046,0.270470,-0.463914,0.196088,-0.294213,-0.376828,0.247738,-0.266047,0.220054,-0.238702,0.425555,0.029329,0.430620,-0.488776,0.187123,0.262917,0.188388,-0.233463,0.008499,0.037900,-0.217586,-0.341734,-0.307735,-0.366783,-0.022394,0.064774,-0.103085,0.388215,0.017947,-0.041460,-0.286346,0.354106,0.077021,-0.453424,-0.113897,0.379554,0.120253,-0.277449,0.354002,0.218141,0.319920,-0.390960,0.443298,-0.122634,0.367840,-0.183116,0.015014,0.320726,0.131391,0.369231,0.190852,-0.109043,0.427671,-0.187126,0.044009,0.130422,0.368119,0.089681,0.299344,0.263999,-0.003176,0.240233,-0.112978,0.265123,0.401862,0.102408,-0.290582,0.140523,0.134365,0.241112,-0.159855,-0.079264,0.282722,-0.031575,0.461259,-0.126507,-0.011262,0.088944,-0.146594,-0.390782,0.444899,-0.185432,-0.005941,-0.097412,-0.355166,0.125009,0.468397,0.471141,-0.294252,-0.286727,-0.302362,0.069519,-0.094099,0.274175,0.052470,0.160781,-0.252788,0.319928,-0.118068,0.223384,-0.041551,0.041543,0.088761,0.200591,-0.309989,0.410763,-0.053654,0.301240
-0.293105,-0.388065,0.156053,0.270162,0.201442,-0.041668,0.383192,0.564803,0.519780,-0.254629,0.201057,0.011531,-0.112056,0.152203,0.439440,0.192872,-0.415407,-0.100664,-0.060362,0.043426,0.036910,0.316187,0.502573,0.060725,-0.160856,0.332217,0.123048,0.152934,0.085324,-0.410437,-0.191230,0.383723,-0.364666,-0.413920,-0.109064,-0.414421,0.025055,-0.263723,0.331497,-0.320769,-0.498012,-0.421056,-0.075539,0.192152,-0.485506,0.163800,-0.532360,0.388012,-0.203743,0.005652,-0.111993,0.026942,-0.084872,0.421916,0.451829,-0.261010,0.169175,-0.018622,0.176099,0.270564,-0.500725,-0.143342,0.409549,0.065890,-0.030683,0.083012,-0.131719,0.152814,0.118192,0.115439,0.116485,0.469395,0.621416,-0.551604,0.327154,-0.448254,0.068758,0.366094,-0.091109,-0.137941,-0.430891,-0.382403,-0.019675,-0.131215,-0.364261,-0.363997,0.339015,0.385994,-0.237843,-0.418775,-0.490643,-0.460653,0.354187,0.049594,-0.566651,-0.412906,0.492270,0.009818,-0.289888,0.252434,-0.063459,0.058924,-0.172678,0.023617,-0.114543,-0.508818,-0.415162,0.386031,-0.111577,0.203753,0.433297,0.175272,0.341777,0.252269,0.353925,-0.229938,-0.273900,0.238176,0.141245,0.146350,-0.377242,0.163776,-0.422643,-0.511237,-0.272147,-0.076972,0.387258,0.300759,0.126131,-0.190437,-0.003439,-0.250718,0.004484,-0.198347,-0.412061,-0.502179,0.168715,-0.303435,0.007550,-0.445168,-0.099791,-0.399630,0.172579,0.125758,-0.205366,-0.382898,0.073411,-0.423926,0.015835,0.194085,0.222706,-0.108375,0.027055,-0.425179,0.212444,-0.088252,0.199257,-0.091811,0.591128,0.446251,-0.349997,0.228446,0.467828,0.082253,-0.471521,0.257792,0.344786,0.186679,0.318969,-0.082336,-0.000754,0.365687,0.461502,0.437350,-0.488504,0.360393,-0.459360,0.444782,0.001504,0.352790,-0.206741,-0.051062,0.083644,-0.505735,-0.438025,0.054398,-0.216154,0.461880,-0.365896,-0.063119,0.229432,0.226561,0.403571,0.019038,0.295773,-0.024460,-0.461478,-0.232386,0.087940,0.175175,-0.216160,-0.346961,-0.107344,-0.353257,-0.059226,-0.026408,0.369785,0.309821,0.348857,0.258023,0.173194,-0.219858,-0.011798,0.552374,-0.092985,0.316817,0.192263,-0.121973,-0.042497,0.214577,0.386950,-0.227538,0.312614,0.055243,-0.046785,0.018958,0.266015,-0.032222,-0.196775,-0.104690,-0.195178,-0.306983,0.366229,0.346399,0.093687,0.405860,-0.113340,-0.315013,0.029998,-0.073157,0.137457,0.432726,0.309606,-0.192179,0.277410,-0.103838,-0.041470,0.000240,-0.074209,-0.288532,-0.039993,-0.103690,-0.395127,0.046735,-0.189422,-0.066125
0.047835,0.385310,0.510347,0.357343,0.268613,0.113196,-0.428317,0.153312,0.200554,0.044926,0.641664,-0.286472,-0.369228,0.204408,-0.234680,-0.399665,-0.475711,0.461839,0.424989,0.027445,-0.377947,0.295269,0.388162,0.332414,0.013669,0.075885,0.315211,0.080022,-0.239251,-0.456973,0.225317,0.140067,-0.156508,0.224415,0.164326,0.300611,0.494037,0.361512,-0.249247,0.446814,-0.392910,0.185211,0.083957,0.075858,0.389947,0.121633,0.098928,0.404340,-0.427181,-0.412145,-0.249843,0.118987,0.513557,-0.288446,0.109163,-0.122947,-0.305236,-0.298917,-0.454493,-0.183281,0.208291,-0.131886,0.117487,0.398170,-0.475535,-0.023735,-0.408446,-0.377211,0.128860,0.011444,-0.267082,-0.465807,0.271286,-0.212262,0.306505,-0.433210,0.128195,0.128821,-0.134696,-0.404694,-0.165958,0.091862,0.276304,-0.167969,0.106226,0.017393,-0.620663,-0.110170,0.260777,-0.040181,0.164650,-0.327014,0.432766,-0.205794,0.344766,-0.109194,0.007262,-0.112391,-0.241131,-0.060240,-0.382943,0.072380,-0.543757,-0.390380,-0.067706,0.363025,0.367044,0.527642,-0.246099,-0.194193,0.440542,-0.341052,-0.557932,-0.533356,0.013586,0.151587,-0.005756,0.200152,0.404220,-0.242189,0.523971,0.434416,0.271209,-0.043160,0.241143,0.258417,-0.408586,0.151295,-0.182104,-0.163303,0.333717,-0.434895,-0.423145,-0.053390,0.356718,0.346926,-0.413533,-0.012047,-0.371159,0.449307,-0.193691,-0.249241,0.412121,0.209696,0.255849,0.296327,-0.458417,-0.070700,-0.305729,-0.127399,-0.099476,0.394429,-0.007704,-0.459732,-0.142623,0.395423,-0.284122,-0.382556,-0.272762,-0.510732,-0.552167,0.253355,0.467816,-0.170772,-0.328647,0.225377,-0.167309,-0.176868,0.543827,-0.107515,0.296792,-0.429192,0.066274,-0.408383,-0.396037,0.308556,0.363539,-0.362925,-0.464204,0.301997,-0.452637,0.285621,0.320250,-0.095046,-0.465896,-0.092671,-0.580231,-0.275604,-0.471664,0.307798,0.211557,0.010485,0.258855,-0.078660,0.285514,-0.557998,-0.536668,-0.099797,-0.338996,-0.047104,-0.485711,-0.287103,-0.366402,0.305430,0.246433,-0.168276,0.121802,0.271154,0.401047,-0.307490,-0.055748,0.183134,0.404730,0.005187,0.144176,-0.136426,0.374680,0.191077,0.394650,0.493307,-0.105397,0.290867,-0.051255,-0.591152,0.333103,-0.038316,0.500804,0.412854,0.559199,-0.080637,0.050310,-0.369098,0.370576,-0.225726,0.213125,-0.375413,0.131405,0.172159,-0.513886,0.024233,-0.133945,0.024090,0.319158,-0.315841,0.529682,-0.200824,0.064666,-0.342466,-0.272693,0.157279,0.041310,-0.155477,-0.182638,-0.427545,0.092604,0.270051
0.247822,-0.307954,0.448350,-0.290471,-0.250637,-0.469636,-0.218250,0.051681,0.567637,0.309860,0.153058,0.130567,0.056949,0.047098,-0.620896,-0.396639,0.487011,0.230263,-0.032224,0.539426,-0.570417,-0.015215,0.226560,-0.299941,-0.200418,0.252075,-0.536687,-0.206825,-0.475959,0.198670,0.103767,0.285094,0.329994,0.399724,-0.210170,-0.322455,0.417320,0.164503,0.341929,0.409624,0.132849,-0.193213,-0.090636,-0.122038,-0.108080,0.381513,-0.049927,-0.297452,-0.265212,0.283684,0.207539,0.304771,0.168270,0.054185,-0.343907,-0.372891,0.250243,0.015986,-0.091301,-0.118633,0.078968,0.134728,0.278890,-0.332834,0.519170,0.093334,0.384205,0.381104,0.510073,0.110549,-0.336959,0.305790,-0.404355,-0.374106,0.012838,0.046676,0.404462,0.518240,0.439710,0.083033,0.379360,0.156518,0.242185,-0.469298,0.054855,-0.197353,0.233252,0.374678,0.261996,0.415243,0.223821,0.042483,0.239984,-0.309542,0.479259,-0.298007,0.216320,0.461623,-0.168204,-0.485228,0.077297,0.039068,0.603661,0.439057,0.476840,-0.009947,0.019114,-0.493309,0.007231,0.056809,0.418655,0.459113,0.243964,-0.011139,-0.271167,0.157030,-0.076132,-0.144375,-0.181816,-0.307307,-0.348814,0.479813,0.366546,0.177482,-0.442423,-0.159883,0.329020,-0.087674,0.087463,-0.175554,0.112206,-0.171436,0.457586,-0.168473,0.311620,0.080855,0.307453,-0.443951,0.246569,0.457641,0.110863,0.065821,-0.002404,-0.244513,0.536474,0.569285,0.051893,-0.336003,0.311404,0.305922,0.508555,0.066844,-0.006234,0.480751,0.438381,0.226627,0.549116,-0.205387,-0.014617,-0.021996,-0.059429,0.124428,-0.148587,0.177253,-0.368472,-0.394836,-0.218776,0.377447,-0.151723,-0.279869,0.270069,0.782422,0.172540,-0.328622,-0.002946,0.190016,-0.079431,0.029399,0.021753,-0.092643,-0.355362,-0.189725,0.377247,0.239247,0.286065,-0.217406,-0.206248,-0.136785,0.097932,0.510680,0.497947,0.193316,0.337296,-0.001106,0.192780,0.396125,0.230082,-0.290798,-0.331144,-0.181591,-0.035034,-0.607770,0.013885,-0.282544,0.205270,-0.168490,0.232960,0.219632,-0.494649,-0.359263,-0.186089,-0.184039,0.083011,-0.422448,-0.259240,0.349034,-0.190247,0.106935,0.371010,0.121245,0.089912,0.479721,0.174527,0.433158,0.229533,-0.086562,-0.285282,-0.488027,-0.152303,0.398046,0.050097,0.232300,-0.492408,-0.016910,0.343803,-0.186238,0.254183,-0.223217,0.048942,0.435208,-0.389175,0.365271,-0.435405,-0.488152,-0.268995,-0.175197,0.360253,0.122373,0.278151,0.085316,-0.003351,-0.474038,-0.291187,-0.207493,0.054157,-0.362335
-0.448386,0.026802,0.106320,0.099618,-0.251097,-0.227269,-0.291602,0.119576,-0.156054,-0.294861,0.257248,0.240637,0.169666,-0.504063,-0.308779,-0.461755,-0.241577,0.361545,0.091676,0.176422,-0.053275,-0.408555,-0.031359,-0.036703,0.248008,-0.391619,-0.156378,-0.471416,-0.015756,0.364400,0.410969,-0.216628,0.023997,0.058904,-0.145163,-0.011022,-0.449082,-0.042473,0.268157,0.126279,-0.323287,0.077462,-0.081499,-0.349129,-0.412996,-0.300486,-0.351160,-0.484291,-0.206016,0.218321,0.010735,0.400125,-0.400649,-0.114258,0.006032,0.327152,-0.548959,-0.335382,-0.483651,-0.247459,-0.234707,-0.417010,-0.113543,-0.104029,0.010029,-0.291822,-0.145011,0.191953,-0.235933,0.403472,-0.525983,-0.220985,0.041243,-0.534402,0.053768,-0.161605,0.143096,-0.433375,-0.142100,-0.068756,-0.326451,0.185171,-0.030597,0.013200,-0.255083,-0.010258,-0.179220,0.350641,-0.207585,-0.045385,0.355333,0.186971,-0.309064,-0.153534,-0.238221,-0.143820,-0.191998,-0.431395,-0.349264,0.093273,-0.208806,0.039737,0.040318,0.024321,0.218249,0.328429,0.310790,-0.378875,0.158022,0.165831,-0.134135,-0.237468,0.082176,-0.185166,-0.489351,-0.398144,0.462601,-0.430510,-0.505710,0.185062,-0.232015,-0.118790,0.409243,-0.011622,-0.058291,-0.145697,-0.427279,0.269166,0.274579,0.340720,-0.277524,0.172123,0.097073,-0.224360,0.200935,-0.174904,0.329441,0.313085,-0.405067,0.128150,0.219523,0.418172,0.367283,-0.410744,0.032606,0.419558,-0.093733,0.061213,-0.376975,0.459065,0.339726,0.207639,0.099655,0.207964,-0.016027,0.340284,0.017517,-0.390961,0.185239,0.124971,0.144028,0.018872,-0.482961,-0.023958,-0.004356,-0.542072,-0.485690,-0.328456,-0.493287,-0.289341,-0.202847,-0.057504,0.077537,-0.305760,-0.172396,-0.449258,0.132063,0.047134,-0.425927,0.053981,-0.124570,-0.493261,-0.219887,-0.106131,0.391328,-0.433664,0.110749,0.110047,0.239807,0.091219,0.403706,-0.286196,-0.338416,0.444094,0.394889,0.218597,-0.400207,-0.324222,-0.058383,-0.342861,0.243811,-0.163139,-0.047563,-0.477557,0.003204,-0.231399,0.233544,-0.316672,0.157121,-0.255693,0.156837,-0.177616,0.037324,-0.059940,-0.103019,0.158823,0.123378,-0.376670,0.204755,0.400536,-0.491165,0.137359,-0.065588,-0.380035,-0.279670,0.313432,-0.093559,0.434780,0.180109,-0.103437,-0.068383,0.011364,0.007231,0.120182,-0.273971,-0.168683,-0.010300,-0.022459,-0.033802,0.162269,0.214689,-0.360226,0.079098,-0.184693,0.015022,-0.134987,0.367427,0.241925,0.363893,-0.379253,-0.469614,-0.468705,0.237717,0.271713,0.202443,-0.344251
